#include "mylib.h"
const float w1[] ={
	-0.041881684, -0.08476237, -0.03820632, -0.021460429, -0.020437658, -0.039265297, 0.01786209, 0.042640273, -0.09462267, 0.03692685, 0.038051862, -0.025574243, -0.026480263, -0.072501644, -0.04642078, -0.090750806, -0.033091985, -0.007818492, -0.07963478, 0.045477495, 0.023407636, 0.040844187, 0.025349228, 0.05888614, -0.0557539, 0.0627833, 0.052416753, 0.026146594, 0.016301628, 0.022075428, -0.050102845, -0.059651192, -0.04024853, 0.041207068, -0.049945373, -0.007562297, 0.0055346396, -0.008237886, 0.041744623, 0.05207862, 0.0018079216, 0.051663533, -0.07355014, 0.055365697, -0.036499955, 0.07001259, 0.07351021, -0.026754618, -0.032363813, -0.028054304, 0.06211559, 0.071593165, 0.038456924, 0.053953525, 0.033892013, -0.045037925, -0.06279871, 0.051883068, 0.012876558, -0.029560758, -0.057251375, -0.07355272, 0.03386843, -0.029337093, -0.07143781, -0.0049395743, -0.06934292, 0.0018102482, 0.03836694, -0.053464007, 0.038592633, -0.017259138, -0.055883177, -0.03842118, -0.06140028, -0.055966303, 0.07392449, 0.009702483, 0.04037289, -0.008864825, 0.027107744, -0.008577352, -0.060759027, -0.04541069, 0.10097595, 0.091011874, -0.0086790705, 0.04589134, 0.03523029, 0.119987376, 0.08034166, -0.06405998, -0.033372395, -0.23427038, -0.2073229, 0.08494005, -0.034113165, -0.039255127, -0.043754816, 0.011549568, 0.04019281, 0.03183516, 0.062603615, 0.055347566, 0.0022384862, 0.061989997, 0.052199, 0.00433972, 0.06975775, 0.041731756, -0.12642878, -0.08752062, -0.109987564, 0.09132744, 0.011134793, 0.028156888, 0.10447877, 0.09788234, -0.0009876005, -0.020770386, -0.13175845, -0.064143635, -0.054721605, -0.0075610476, 0.043445997, -0.018643519, 0.029050345, 0.022343704, 0.062105328, -0.0068595293, -0.01657739, 0.0069199493, 0.054265097, -0.030598618, -0.041157313, -0.04714624, -0.079636686, -0.035204154, 0.0019598694, 0.012564227, -0.033606373, 0.016210737, 0.016428817, -0.002708022, 0.04714646, 0.09089895, -0.05817999, -0.00037821155, -0.018040195, -0.041491352, -0.056840595, 0.006349903, -0.038383618, -0.009485838, -0.02457083, 0.025228579, -0.01809874, -0.029892521, -0.053548135, 0.035486054, 0.0451382, 0.0033579671, -0.07495947, 0.0074913953, -0.07557121, -0.025845435, 0.016978031, -0.067791045, -0.061306786, -0.029820217, -0.022656966, 0.020490771, -0.02390403, 0.07719898, -0.043935664, -0.061849527, -0.030276721, -0.035536267, -0.021258732, 0.08720933, 0.009791748, 0.06782452, -0.009822772, 0.026800655, -0.049015526, 0.0051976745, -0.073948115, 0.028499924, -0.05285453, -0.020727955, 0.0394942, -0.01794958, 0.009946356, 0.06340926, -0.011303031, 0.050910726, -0.0019521401, -0.09106603, -0.026771488, -0.07320362, 0.062855445, 0.022467265, 0.028767543, 0.052171748, -0.0041089794, -0.04961392, -0.050821885, 0.029637165, -0.028769417, 0.0508577, -0.117276266, 0.07468783, -0.033701524, 0.04939821, -0.014321693, -0.03479153, 0.026760966, 0.00019648147, -0.058231894, 0.03140167, -0.054321893, -0.0030956247, -0.006251643, -0.061917827, 0.049955297, -0.034647588, 0.079404764, -0.06676224, 0.028525215, 0.07272061, -0.032837313, 0.006034038, 0.042425144, -0.023869162, 0.06262875, -0.055340745, 0.066089086, 0.027809154, -0.0006031988, -0.0023085813, 0.070187844, -0.06395276, -0.029582312, 0.038885556, 0.08052934, 0.023914345, -0.0074612764, -0.040330652, 0.012301117, -0.012533333, -0.028285569, 0.06911725, -0.039267942, 0.04303673, 0.0505344, -6.296485E-05, 0.055209015, -0.042077154, 0.048077244, 0.019572182, 0.02879647, 0.03180393, -0.093746915, 0.023604935, 0.026228853, -0.032686625, -0.034490775, 0.0017525697, -0.042885114, -0.067879595, -0.05957817, 0.031837497, 0.019703852, 0.057358176, 0.063581936, -0.029966913, 0.031545796, -0.010709675, 0.05078277, 0.066515006, 0.05705775, 0.02034694, -0.023056343, 0.07240407, -0.04883222, -0.06483087, 0.044616707, -0.028162118, 0.028188365, -0.011789245, 0.021288672, 0.015790217, 0.048644993, -0.083907224, -0.0031771755, 0.032550123, 0.033718616, 0.0005265306, -0.0253304, 0.01738234, -0.06524, -0.050278947, -0.046851374, 0.012884849, -0.08248468, 0.038645487, -0.043894246, -0.031577323, -0.015010698, -0.0778222, -0.043048922, -0.061445527, -0.05745146, -0.023481397, -0.031593766, -0.0054187444, 0.03654093, 0.02225288, -0.037561398, 0.05117673, -0.047621407, 0.040219806, -0.07408021, -0.06082485, -0.07020712, 0.004558163, -0.057741985, -0.03863246, 0.03663938, -0.040452424, 0.011822075, -0.104636796, -0.04012871, -0.0050042924, -0.03948365, -0.083932415, 0.050760712, -0.029035317, -0.05629729, 0.04988506, 0.022049345, 0.050144047, 0.042414755, 0.013674796, 0.0062221475, 0.025081076, -0.06400746, -0.018182667, -0.093575716, -0.13092974, -0.11548111, 0.035476163, 0.038891505, -0.021948213, -0.004599052, -0.04662754, 0.037285473, 0.04293707, -0.05328537, -0.021993207, -0.07141062, -0.03914283, -0.062397305, -0.07455776, -0.1276472, -0.16409056, -0.11540174, -0.022319801, -0.03925229, -0.036221147, -0.06762402, -0.0015016646, -0.028591748, -0.12667349, -0.04940865, -0.0451431, -0.14211501, -0.11557752, -0.021711735, -0.107078694, 0.020316128, -0.090297595, -0.09204392, 0.042990793, 0.028748266, -0.066706605, -0.018313335, -0.01835123, -0.074125856, -0.16903353, -0.09116838, -0.109496176, -0.06125708, -0.094950184, -0.085118204, -0.0070452904, -0.05167275, -0.03060676, -0.12952459, -0.016288886, -0.027209615, -0.06990216, -0.078288026, 0.040502824, -0.07992384, -0.059631094, -0.060587812, 0.01378862, -0.025598697, 0.040358298, -0.030544579, -0.03869152, -0.07986808, -0.08785051, 0.016645292, 0.012302814, 0.007820431, -0.068820775, -0.018604323, 0.06220705, 0.008366202, -0.08859926, -0.032107186, 0.03266331, -0.008802324, 0.011505044, -0.06674254, -0.041637726, -0.028832935, -0.12231358, -0.096535765, -0.020390999, -0.061724532, -0.06101509, -0.02346334, -0.043246586, -0.05636545, -0.029305546, -0.11651476, -0.18061022, -0.11049637, -0.24540831, -0.1517324, -0.10705444, -0.08497235, -0.14332865, -0.048103873, -0.051436994, -0.0090809995, -0.15294717, -0.08927968, -0.091824874, -0.07202109, -0.054418337, -0.08918763, -0.028476037, -0.12315705, -0.023832776, -0.057574127, -0.016161058, -0.06321126, -0.0931567, 0.0005452162, -0.009705136, -0.05114766, -0.07213452, -0.05592676, -0.005588176, -0.07776846, 0.04618426, 0.0338897, -0.050238773, 0.011769501, -0.07159473, 0.03374451, -0.060425535, -0.019153284, 0.018791499, -0.006197799, 0.0488656, -0.013243812, 0.022069227, -0.028468681, 0.004115439, -0.0022082815, -0.02545652, -0.041663036, -0.064534694, -0.03975211, 0.056184467, 0.0046003936, 0.060956296, -0.015561561, -0.043041084, -0.04206821, -0.07628338, -0.1090029, -0.039197195, -0.02349039, -0.04303778, -0.09652996, -0.0835417, -0.060893077, 0.0075547076, 0.036308814, -0.035535485, 0.005342911, -0.10363299, -0.0056402856, -0.017736796, -0.017984906, 0.06564453, -0.08612767, 0.059865892, 0.06586575, -0.022951711, -0.05207452, -0.06370736, -0.00028436372, -0.03296954, 0.05403854, -0.07640839, -0.05283592, 0.01688639, -0.045462985, -0.06620077, 0.04439665, -0.045292784, -0.06665123, -0.048905894, -0.09299745, -0.09599112, -0.054453272, -0.07618837, -0.13489988, -0.12185288, -0.10944167, -0.13738061, -0.14448331, -0.059163947, -0.038286712, -0.039550167, -0.09741901, -0.0067390846, -0.023117058, -0.06511287, 0.047790717, -0.03312557, 0.044223543, -0.08967314, -0.044999514, 0.012779712, -0.016292248, 0.05562145, 0.0017742036, 0.019307202, -0.086647354, 0.004009671, -0.013724849, -0.06500902, -0.018180447, -0.054224078, -0.07332093, -0.048016425, -0.07442355, -0.024040226, -0.06589076, 0.049090683, 0.009004544, 0.044439178, 0.04470671, -0.044946957, -0.0018650579, -0.07322564, 0.04639102, -0.03469516, 0.063568406, -0.06572935, 0.052824434, 0.032266676, 0.0018376304, 0.009257602, -0.041683376, 0.049368948, -0.035537384, -0.047943197, -0.053841397, 0.01651264, -0.06571776, -0.010068833, -0.056760743, -0.08558547, -0.06493705, -0.075157456, -0.043194085, 0.01579933, 0.012844018, 0.0349416, -0.08491734, -0.001654185, 0.05752409, -0.0047795232, -0.047792863, -0.011732781, 0.053517826, -0.037500214, -0.030839425, 0.021120492, -0.02231675, 0.054149937, 0.053339787, -0.033228595, 0.017684026, 0.009506724, 0.022590758, -0.03876182, -0.027146835, -0.04916227, -0.075309075, -0.07867319, 0.048287593, 0.023249622, -0.014423888, -0.017588949, -0.010083137, -0.011328957, -0.04476817, -0.065324955, -0.017645605, -0.0378053, -0.012417927, 0.029320251, 0.004377325, 0.037980676, 0.06063909, -0.06692195, -0.023453632, -0.063445136, 0.059445187, -0.07630153, -0.03229009, -0.04748713, 0.01677834, 0.0465769, -0.04996899, -0.022820817, 0.027986722, -0.061755996, 0.0348682, -0.0003691466, -0.06236413, 0.04740813, -0.051465522, -0.015139436, -0.026591327, -0.07100318, 0.047531065, -0.059299745, 0.045487564, 0.018931502, 0.018878782, 0.05299001, 0.029643144, 0.14478227, 0.2560663, 0.095905766, -0.042237062, -0.11936442, -0.08879894, -0.022757208, 0.0061987415, 0.036733113, 0.067432806, 0.11538708, 0.12476435, 0.07230869, 0.12525031, 0.12647592, 0.12062527, 0.07724006, 0.106947206, 0.0016396139, 0.0321437, 0.032781456, 0.022072623, 0.040677816, -0.050370652, -0.022699568, 0.12178081, 0.12535433, 0.12191559, 0.07129048, 0.0717434, 0.094528124, -0.0077812634, 0.00085809606, -0.004212611, 0.08115075, 0.09075295, -0.08939154, 0.0596138, 0.14398168, 0.044923466, -0.13248397, -0.10262721, 0.11364124, 0.02909668, 0.059885673, 0.054409545, 0.092807315, 0.10931895, 0.02010196, 0.09035883, 0.08334391, 0.14425205, 0.046396837, 0.11103173, 0.1642478, 0.08030049, -0.0017284618, 0.15687142, 0.102675706, 0.17562315, 0.08355408, 0.06600777, 0.006505358, 0.011182262, 0.033462677, -0.003887136, -0.031232202, -0.05397021, 0.05538924, 0.09758691, 0.019204028, 0.16506995, 0.08801326, 0.0920647, 0.07495508, 0.036768943, 0.06375047, 0.13198082, 0.14969854, 0.0047228276, -0.03334808, 0.12691268, 0.028127892, -0.05716085, -0.22557335, -0.8242293, -1.13976, -0.42773187, 0.08807474, -0.12447706, -0.13862109, 0.09648753, 0.16199566, 0.22770685, 0.29516843, 0.22583868, 0.00740102, -0.11525017, 0.00035416594, 0.147999, 0.17893203, 0.089246504, 0.15513694, 0.18314914, 0.16609415, 0.11817624, 0.13153043, 0.0248471, 0.1687908, 0.13881941, 0.3103168, 0.27035066, 0.35800514, 0.02494669, 0.07944141, 0.19883423, 0.0012138688, 0.17135014, 0.1942908, 0.2130453, 0.11526886, 0.13839851, 0.09600496, 0.14144854, 0.052286364, 0.09955578, 0.16571791, 0.2689789, 0.32599485, 0.51458603, 0.44654447, 0.4786643, 0.25267664, 0.045957226, 0.06807434, -0.021510605, 0.22306857, 5.2724936E-05, 0.18500721, 0.14371982, 0.2534326, 0.2512184, 0.1256285, 0.03862541, 0.124588236, 0.08242733, 0.07070706, 0.13775766, 0.049328055, 0.13767825, 0.13026258, 0.0059986203, 0.032180957, 0.016758202, 0.09019579, 0.09492777, 0.03918207, 0.08237005, 0.123126425, 0.025102459, -0.10443668, -0.06096766, -0.026353694, -0.0033114129, -0.0024300676, -0.051498085, 0.013459632, -0.0408339, 0.010418311, -0.041393265, -0.016407195, -0.042377915, -0.105101, 0.018809628, -0.07626097, -0.022040743, 0.064909436, 0.07456564, 0.041502375, -0.020547107, 0.026578113, 0.01957831, 0.016856283, 0.033071607, -0.06586803, 0.031639498, 0.08661929, 0.06856783, 0.10777714, 0.18340416, 0.018592564, -0.020439692, 0.009088012, -0.081626184, 0.072143674, 0.0018199537, 0.019183904, 0.094797164, -0.039491992, 0.0125610605, 0.0407154, 0.060320858, 0.10169429, -0.04076375, 0.12371882, 0.02541366, 0.03178711, 0.17752932, -0.10695002, 0.24354456, -0.088344544, -0.0024177013, 0.0072409716, -0.18645911, 0.02901487, -0.091435835, 0.09510358, 0.06318117, 0.055869877, 0.11762796, 0.18329927, 0.24117075, -0.102165855, 0.22595808, -0.26819935, 0.08806601, 0.06480342, 0.17673184, 0.17898962, 0.168652, 0.107296996, 0.17897291, -0.08091521, 0.11227966, 0.16192098, -0.049519945, -0.12968536, 0.057120305, -0.01597837, 0.10447194, -0.12888233, -0.17250626, -0.29793048, -0.25615475, -0.4633782, -0.2999542, 0.010242786, -0.33351108, -0.097967975, -0.006631181, -0.027569823, 0.14466874, 0.0960927, 0.19517168, 0.11116258, -0.17799917, -0.20729211, -0.2077672, -0.2111916, -0.21335208, -0.11243967, -0.16135643, -0.06999548, -0.16749884, -0.16239582, -0.10723732, -0.15331535, -0.0067323344, 0.07439043, -0.11735579, -0.05376526, -0.065924056, -0.029427756, -0.13245162, -0.018920938, -0.13919766, -0.15227868, 0.0017480534, -0.044795603, -0.07982182, -0.14069946, -0.015737101, -0.03817762, -0.1298858, -0.010987434, -0.023648128, -0.011066997, -0.061562978, 0.041269504, 0.026471587, 0.002775957, -0.0862085, -0.035085298, 0.048911765, -0.10463397, -0.119631946, 0.04691803, -0.004055422, -0.10674144, -0.08049993, -0.09097582, -0.085692726, -0.06266577, -0.07329499, 0.021810284, 0.0007044265, 0.053055957, -0.032047544, 0.11293389, 0.058900904, 0.18385461, 0.18672803, 0.2378537, 0.32764888, 0.19349344, 0.23389122, 0.07964449, 0.055595875, -0.07070375, 0.10328995, 0.08508137, 0.043971077, 0.043854225, -0.0049391827, 0.005914013, -0.056291442, -0.007206525, -0.089272246, -0.028003316, -0.06347939, -0.08169625, -0.016751656, -0.025570946, 0.075936444, 0.068415746, -0.026499907, 0.031568658, -0.064836204, 0.057517562, 0.08778914, -0.040885568, -0.0017211593, -0.11463058, -0.06718767, 0.011084211, 0.061355066, 0.07643698, 0.002174099, 0.014199028, -0.038997192, -0.034396227, -0.034708876, 0.04177116, 0.0048370855, 0.050227147, -0.043715812, -0.008039862, -0.07719309, -0.025530878, -0.009080749, -0.0067175664, 
	0.0032720612, 0.056229416, 0.02555334, -0.03278432, 0.042113405, -0.026137067, 0.03636087, 0.056046184, -0.004694659, 0.053018045, 0.060565237, 0.05746854, -0.06330075, -0.0056247353, 0.021688852, -0.03525286, 0.010414975, 0.08323044, 0.01407683, 0.049220093, 0.0048323283, 0.027958548, -0.010217515, -0.033081617, 0.005733913, -0.01627489, -0.033965304, 0.008812792, 0.0011112388, 0.04536369, -0.038257726, 0.0025541447, 0.040205173, -0.049010184, 0.04315249, -0.058166686, 0.012295284, -0.005874076, 0.07424334, 0.012103937, -0.045297157, 0.024201678, 0.042929787, -0.016517948, 0.073422976, 0.017524479, -0.02302076, 0.019048646, -0.032666665, -0.05782616, -0.06269491, -0.03977408, 0.06652439, 0.022456959, 0.012335773, 0.047700524, 0.045383453, 0.054704085, 0.018659344, -0.00787994, 0.042068355, -0.03264865, -0.016020233, 0.039562833, 0.0031652485, 0.07768025, 0.06501194, 0.03157301, -0.046000388, -0.0060756374, 0.035470188, -0.001475566, -0.025901597, 0.032745168, 0.022863148, -0.036459666, -0.06096036, -0.067649, 0.0026590682, 0.001760663, -0.022497151, -0.10665813, -0.043654606, -0.009016052, -0.13181409, 0.0018514493, -0.09371143, -0.12261451, 0.006174087, -0.01546631, -0.1127029, -0.052977618, -0.00937057, -0.044311993, -0.027694259, 0.008385872, -0.10152898, 0.00093420094, 0.01038517, -0.047849588, -0.014847732, -0.023515357, -0.10511406, -0.054143548, 0.034656256, 0.001289514, -0.11183117, 0.03741856, -0.006257789, -0.04060818, 0.041742064, -0.010074882, 0.12823714, -0.06260716, 0.018772975, -0.11902861, -0.0057885614, -0.058265846, -0.032622863, 0.026711522, 0.14168434, 0.089349076, 0.008925126, -0.028280618, 0.013347434, 0.040981505, -0.09720078, -0.02533086, -0.009268636, -0.010340946, 0.052519817, 0.05077928, -0.002457014, -0.0034026578, -0.031850908, 0.09550703, 0.017988442, 0.044476517, 0.050341986, -0.05500571, 0.04065496, -0.060296655, -0.0005045294, -0.0019017183, 0.006610839, -0.009682728, 0.014674518, -0.030954508, 0.037329264, -0.051662073, 0.050486952, 0.048190918, -0.070930034, -0.0119824195, 0.0001651387, -0.00398379, -0.032134224, 0.014635194, 0.02846793, -0.083991304, 0.046437867, -0.075817116, 0.047196697, -0.011142004, 0.087599464, 0.033303324, 0.007885758, -0.017219083, -0.024498932, 0.003507101, 0.049362767, 0.04920503, -0.06469589, -0.08300348, 0.04144455, 0.028851455, -0.015209718, -0.04659106, 0.015758462, -0.011981743, 0.018988075, -0.07403983, -0.054820627, 0.0137537345, -0.04510954, 0.0055221184, 0.061111443, -0.06979029, -0.02907715, -0.044978727, -0.000760506, 0.06935169, 0.04642324, 0.013539829, -0.05951688, -0.034783464, -0.0012216552, -0.0151057225, 0.02081382, 0.05301031, 0.06368931, -0.06581378, -0.06330419, -0.040722296, 0.074503615, -0.02859154, 0.09229917, -0.008067066, 0.03882051, 0.03403758, 0.09571643, -0.0501901, 0.005157022, -0.10444275, -0.079607725, 0.0065391115, -0.10396583, -0.07957515, -0.07411276, 0.06312701, 0.0813945, 0.0067811715, 0.077489704, 0.019689597, -0.028114462, -0.042411506, 0.0011751929, 0.06931583, -0.0067894133, 0.017595923, 0.0609189, 0.023370322, 0.036349647, 0.043547302, 0.063262746, 0.022499686, 0.0054996577, 0.022519484, 0.0042033372, -0.085510015, -0.069918506, 0.057382006, -0.0148709705, -0.013638861, -0.047147192, -0.037196476, -0.020107917, -0.05213024, 0.0616759, 0.066363335, 0.010425699, 0.051835515, -0.03190505, 0.016918536, -0.06843083, -0.010422864, -0.05893918, 0.025106022, 0.04623432, -0.04465771, 0.052221924, 0.019054316, 0.075647116, 0.03233633, -0.031983953, 0.04479849, -0.07097152, 0.05470394, -0.050313406, 0.057764016, 0.035422496, -0.044543896, 0.04728588, -0.0013708941, 0.009764144, 0.02083624, 0.06752197, 0.02277087, 0.07794184, -0.010528673, -0.031792242, 0.030318232, 0.040306024, -0.057936795, -0.02481199, 0.021377837, -0.02534806, -0.069407426, 0.0076604676, 0.029270768, -0.016886026, -0.0017055047, 0.0381118, 0.07131243, 0.031105088, -0.030356491, 0.034691595, 0.07406043, -0.03836864, 0.050012704, -0.049065646, 0.04394908, 0.016333494, 0.0677038, -0.045875195, 0.029225893, 0.0619683, -0.008866531, 0.08128236, -0.0450902, 0.008635383, 0.0076383734, 0.051940396, 0.062889, 0.03753128, 0.03099317, -0.015979867, 0.039899435, 0.01598474, -0.01854004, -0.032107558, -0.013280727, 0.062051274, 0.07215647, 0.035093077, -0.020744063, -0.01813748, 0.07787331, 0.028758902, -0.014341356, 0.09260862, 0.0612067, -0.053894013, -0.008847335, -0.0585142, 0.052402932, -0.015092554, 0.037950497, 0.028935842, 0.04395187, 0.019130858, -0.018035622, 0.06382639, -0.037611194, 0.0520561, -0.017009104, 0.08897529, 0.06007356, 0.06718615, 0.14205119, 0.07714701, 0.11587402, -0.010152324, 0.06956623, 0.058601595, -0.038487393, 0.049727082, 0.028884206, 0.0696074, 0.072830774, -0.020767922, 0.065279335, -0.025850506, 0.004073481, 0.08600916, -0.01979864, -0.028465195, -0.018748052, -0.023820398, 0.052413408, -0.015366977, 0.089637235, 0.0010403441, -0.022987252, -0.039064392, -0.0016172016, 0.020379275, 0.059665542, 0.026981527, 0.03333279, 0.0410212, -0.00069037464, -0.012105345, 0.0072410163, -0.043213278, 0.013727933, 0.0026202009, 0.033644035, 0.062985286, -0.028108781, 0.030892074, -0.003092019, -0.008750573, 0.031919636, -0.035058435, -0.025451371, 0.054683566, -0.023483044, -0.019634025, -0.013075168, -0.030889459, 0.07588339, 0.031300023, -0.042245917, 0.021964753, -0.01172425, -0.02476502, 0.058153052, 0.0030733906, 0.04580148, 0.024187945, -0.031229854, 0.06555032, 0.021168862, 0.014758837, 0.09074237, -0.020825805, 0.074627765, 0.075451635, -0.021022335, 0.02133267, 0.0429507, -0.05549439, -0.03141333, 0.07740467, 0.060981024, 0.09022017, 0.016026102, -0.01733468, 0.08068787, 0.0830021, 0.08748858, 0.08840769, 0.07452799, 0.08400451, -0.018365888, 0.0938486, 0.095975526, 0.1041222, 0.12966661, 0.14684974, 0.16466734, 0.14819993, 0.12333409, 0.043566905, 0.15684219, 0.11643052, 0.12536544, 0.08382375, 0.11960569, 0.12504685, 0.0025674459, 0.14871038, 0.23468497, 0.12646578, 0.20633316, 0.1410702, 0.098010086, 0.17221577, 0.17747833, 0.16887623, 0.02665822, 0.03778265, 0.12895273, 0.05055385, 0.08743398, -0.03838265, -0.04198076, -0.026810233, -0.037754245, -0.054639302, 0.05006051, 0.025631197, -0.07024095, -0.009244359, -0.03071711, -0.0064748614, -0.042771198, 0.07082639, 0.05191693, 0.0204888, 0.034578502, -0.010592625, 0.09330414, 0.03583841, 0.02080751, 0.030190395, 0.014666487, -0.026054783, -0.0037023625, 0.031397343, 0.02992166, -0.0018917227, -0.054317035, 0.057139505, 0.07059885, 0.0017997457, 0.04928821, 0.065428644, 0.06509488, 0.06895835, 0.010081994, -0.029323317, -0.017016571, 0.054756176, 0.07958345, 0.018690515, 0.0005527399, 0.019196946, 0.068817936, 0.03325938, -0.07080244, -0.020852985, 0.03155345, 0.071232855, 0.061447807, -0.0081961015, -0.02300452, -0.047822308, -0.060771033, 0.022542043, 0.0030278303, -0.007328507, 0.04395976, -0.025381248, 0.087284796, 0.015027779, 0.059201963, -0.015967727, -0.012986014, 0.029144004, -0.020442119, 0.05810462, 0.08571309, 0.08974981, -0.02205496, -0.034364205, 0.011075895, 0.08453107, -0.02116016, 0.06279744, -0.020645726, 0.06035535, -0.044227686, 0.0625714, -0.0321412, 0.02040974, 0.023132335, 0.03948307, 0.07094136, -0.006625606, 0.06809607, -0.0409695, -0.062604845, 0.037635185, -0.00017313928, -0.024843866, -0.007885462, -0.028833944, 0.015911723, 0.002689536, 0.07509478, -0.06492472, -0.038429346, 0.025203265, -0.012870561, -0.005496918, -0.063797496, -0.011797479, -0.05672008, -0.039681267, 0.044420455, 0.021637926, 0.042561695, 0.02699584, 0.060977038, 0.020820685, 0.0032254118, -0.039949864, -0.054390877, -0.024068277, -0.06400446, 0.04823691, 0.040270522, -0.025846828, 0.05200103, 0.06396718, 0.026332937, 0.010243315, 0.01437642, -0.04031803, -0.0160585, -0.034043893, 0.055143606, -0.04038372, 0.11850743, 0.02495617, -0.019458383, 0.084363624, 0.0007554814, -0.02641407, 0.04036937, -0.0032673294, -0.044791877, 0.025449319, 0.030219434, -0.041313414, 0.044084366, -0.034552198, -0.04785234, -0.0660832, -0.0012752949, 0.003226051, 0.009064636, 0.059358705, 0.011818174, 0.08014534, 0.0046004574, -0.029227346, -0.03694124, -0.07248662, 0.045146946, 0.0052273083, -0.039348524, 0.06180987, -0.02738704, 0.06554557, 0.00030524784, 0.0052808626, 0.016628303, -0.051200975, 0.08972691, -0.018442847, 0.035584845, -0.05495347, 0.057687916, 0.0011520841, -0.029513052, 0.049212094, 0.016310174, -0.00094644795, 0.04382776, 0.018520925, 0.03501373, -0.0067931334, -0.05466662, 0.010638905, -0.0035973927, -0.017447587, 0.04319439, 0.036294475, 0.0678076, 0.021057287, -0.017905833, 0.07596983, 0.030811986, -0.007448938, 0.07604465, 0.0063067214, -0.036474507, 0.020593122, 0.023099184, -0.019884761, 0.093958616, 0.14093779, 0.1053798, -0.0013426121, 0.12199425, 0.07435346, 0.10131202, 0.033215128, -0.028208066, 0.022229116, -0.048244394, -0.009076538, 0.055996593, 0.03639064, -0.1016524, -0.067494735, -0.122231506, -0.08901255, -0.12619236, -0.11664979, -0.044807114, -0.044951405, -0.0703287, 0.0582596, -0.027040493, -0.07833578, -0.021035802, -0.06575797, -0.13102765, -0.08667929, -0.12814415, -0.10807768, -0.005562356, -0.038376395, -0.11649626, -0.1558157, 0.002587243, 0.11797476, -0.17231551, -0.011258646, 0.02730907, -0.11607067, 0.038930915, -0.09847349, -0.11727501, -0.06523866, -0.04083287, -0.12788345, -0.09489613, -0.034928225, -0.086104065, -0.12676135, -0.23914471, -0.16505782, -0.13022062, -0.070059545, -0.067295775, -0.103223644, -0.108174294, -0.18417841, -0.2056434, -0.13495217, -0.01824861, -0.13467987, -0.22152331, -0.24463838, -0.32436323, -0.2475752, -0.17889579, -0.072059326, -0.015294721, -0.03409333, -0.057395555, -0.042875648, -0.1354597, -0.10515682, -0.12395434, -0.013603212, -0.10239919, -0.036012895, -0.06426453, -0.12311143, -0.018202592, -0.10342312, -0.12653908, -0.11618478, -0.21160391, -0.17997926, -0.18863253, -0.10404015, -0.13362409, -0.16915755, -0.1026557, -0.16707672, -0.13114555, -0.14457944, -0.13195062, -0.12728374, -0.12961403, -0.11999188, 0.03350671, -0.06590786, -0.042530444, -0.09505678, -0.05234775, -0.008664648, -0.074232146, -0.11881027, -0.21522982, -0.13987276, -0.09610314, -0.06464562, -0.097406626, -0.020909987, -0.09679029, -0.10972537, 0.02849602, -0.16877191, -0.0046602436, -0.13279025, -0.028766247, -0.13929988, -0.0071734237, -0.0950344, 0.021624804, -0.031108847, -0.05373727, -0.12907714, -0.016027661, -0.16815849, -0.051602412, 0.01262964, -0.09996799, 0.0007939583, -0.032406885, -0.03990537, -0.1303444, -0.11606611, -0.13704717, -0.070415646, -0.014676987, -0.08882546, -0.11177935, -0.12766264, -0.013617788, -0.08795389, -0.02503398, -0.101213835, -0.07432371, -0.033808324, -0.14245504, -0.13911553, -0.059399247, -0.16977951, -0.12272737, -0.19970231, -0.20396318, -0.1181218, -0.1434092, -0.14580712, 0.032674693, 0.11532173, 0.09269968, -0.016628897, 0.032580562, -0.035600837, -0.06745478, -0.13854936, -0.08895032, -0.072232015, 0.10036991, 0.11087285, 0.07532616, 0.11502474, 0.13230711, 0.089446194, 0.05085914, 0.041534685, -0.039853163, -0.028964223, 0.031665772, -0.041109838, -0.086420886, -0.12819834, 0.030271437, -0.024335118, 0.0023853786, -0.06251119, 0.028898053, 0.029374877, -0.03353016, 0.03452779, 0.066971414, 0.06446191, -0.011909525, 0.09034141, 0.012467222, -0.09518881, -0.059478592, -0.090970635, 0.017956806, -0.014783807, -0.079835795, -0.10494719, -0.05605803, -0.009452318, 0.049563438, -0.09282864, 0.02768628, -0.087859996, -0.03944182, -0.11828363, 0.0008499557, -0.049563423, 0.07778024, 0.06449419, -0.031997416, 0.05116621, -0.0028472373, 0.14268105, 0.031590533, 0.44031873, 0.34389257, -0.12575711, 0.026994621, -0.17338581, -0.27801353, -0.42580003, -0.065100394, -0.16657293, 0.15437558, -0.057022985, 0.37613705, 0.35869536, 0.10738176, -0.09095303, 0.053225115, -0.17074405, -0.12571049, 0.07677534, -0.09679157, -0.28077123, -0.0535686, -0.071208715, 0.004802917, 0.11609966, -0.33745724, -0.054902174, -0.31171855, -0.2796953, 0.3187162, 0.13874353, 0.0033894363, -0.13402249, 0.08481887, 0.007827662, -0.040846184, 0.02291297, 0.078388505, 0.056340326, -0.053682458, -0.16147098, -0.058628548, 0.046037775, -0.002460645, 0.040410805, 0.05178904, -0.11644541, 0.04508777, -0.04029273, 0.03517673, 0.0858286, -0.012116842, 0.12518147, 0.09530983, 0.19382286, 0.047180288, -0.027937304, 0.05930577, -0.03177095, 0.035004012, -0.11998627, -0.103239104, 0.013530768, 0.120339006, 0.043023422, -0.0075143203, -0.061542988, 0.046250433, 0.033711985, 0.005945703, 0.108041905, -0.010605894, 0.003036013, 0.10115745, 0.06048043, -0.11154354, -0.09988341, -0.12949571, 0.17772955, -0.1534744, -0.003978629, -0.07848432, 0.057817332, -0.01238185, 0.021556918, -0.07443337, 0.07686317, 0.046726733, -0.020376787, -0.04424927, -0.09225955, 0.048599206, 0.0177829, 0.06784061, 0.01579444, -0.011937338, -0.09423579, 0.10709668, 0.024930013, 0.006581499, -0.027582383, -0.0044519566, -0.08237135, -0.0030491417, -0.041498218, -0.025216943, 0.025172472, 0.0014293389, -0.08866508, -0.011853362, 0.049716696, -0.04850789, -0.02538234, 0.051127825, 0.026471727, 0.07345725, 0.11119285, 0.004754145, -0.028336767, -0.005547611, 0.0812237, 0.057611305, -0.0154925445, 0.08723116, -0.033367705, 0.06905484, 0.087842286, -0.043272402, 0.04395437, -0.008014069, 0.041685406, -0.03387611, -0.0616186, 0.038422886, 0.04124301, 0.08402486, -0.014486189, 0.11544328, 0.068745784, 0.109202355, 
	-0.048144303, 0.011063678, 0.019929042, -0.017653411, -0.0670039, -0.083030716, -0.043473307, -0.041425098, -0.009013862, -0.085114054, 0.035423905, 0.0077660982, -0.016855383, -0.054395396, -0.07556191, 0.051526148, -0.032392588, -0.062260013, -0.038443826, 0.048716865, -0.082136475, 0.012006819, -0.051839374, -0.037196524, 0.025462082, -0.0631588, 0.057184435, 0.038730837, -0.046547215, 0.0019835348, -0.06986617, 0.030494157, 0.003094051, -0.06893724, 0.058833648, -0.014974052, -0.034074027, -0.0528649, -0.06395341, 0.03260357, -0.07064607, 0.044055626, 0.0067477273, -0.022136522, 0.029034778, 0.061074246, 0.06854395, -0.018935885, -0.060328957, 0.06290143, -0.02281488, -0.03422001, 0.046652395, -0.051989585, 0.05914578, 0.072655685, -0.047180053, -0.046935707, -0.07655847, -0.019453034, -0.04320229, 0.0422365, -0.062041353, -0.083397105, 0.0031215108, -0.0078703975, 0.004372251, 0.045633342, 0.03215997, -0.042530023, -0.03679447, 0.03604838, -0.012649621, 0.011200199, -0.06776058, 0.058896475, -0.0053525786, 0.050759107, -0.049582716, -0.011459185, -0.060095776, 0.05771304, 0.009144608, -0.03745431, -0.023255168, 0.021598378, 0.043976787, -0.03195376, 0.050272897, -0.021277174, 0.008877688, -0.083320774, -0.11398797, -0.1921144, -0.32558963, 0.057477895, 0.04755468, -0.05144098, 0.00628461, 0.019901989, 0.07320017, 0.06888777, 0.09819441, 0.07212899, 0.023139294, 0.039905224, -0.04321659, -0.036585737, -0.03426967, 0.024218392, -0.09166554, -0.05383826, -0.02687724, 0.031274196, 0.059032768, -0.039445266, -0.006082161, 0.011808715, 0.07419746, -0.03966168, 0.0039674416, -0.07857235, 0.018471364, 0.01241315, -0.0137197515, -0.0041987295, -0.018765643, -0.034320496, -0.024582366, -0.083302, -0.03606481, -0.008682893, -0.038059197, -0.04776652, -0.012368578, 0.043125212, -0.0026682173, -0.07209463, -0.09787143, 0.039658234, -0.014325287, 0.05000349, -0.0071318178, 0.004004611, -0.080729015, -0.030427054, -0.09731555, -0.0123054795, -0.045414876, -0.011677173, 0.015811982, -0.054573506, 0.042975534, 0.010618196, 0.019560914, 0.06828459, -0.10732197, 0.0760704, -0.06147469, -0.012668396, -0.005253828, -0.07624554, -0.031042702, 0.03730874, -0.041127473, -0.055202745, -0.01017703, 0.0072006155, 0.00936043, -0.058137108, -0.061140247, 0.008711644, 0.0364234, 0.03102463, -0.0469616, -0.015687129, 0.038678933, 0.057135753, 0.037828233, -0.033638384, -0.001640215, -0.020687351, 0.085726194, 0.05663692, -0.046739183, 0.041001864, -0.077714875, -0.041028246, 0.04444615, -0.023397576, 0.02170443, 0.0080289375, -0.04112921, -0.035606604, -0.08481772, -0.05011749, 0.044501323, -0.070386626, -0.06347291, -0.04625628, 0.066444665, 0.021376489, 0.03439498, -0.027893625, -0.070165046, 0.0052547823, -0.075309806, -0.05224543, -0.00029630068, -0.07871384, -0.13989373, -0.028573766, 0.052084547, -0.06401655, -0.019161608, 0.0015547995, 0.078364484, 0.00040986793, 0.0490124, -0.055144694, -0.07399417, -0.00645827, 0.03339805, -0.01054859, -0.02318468, -0.06819421, -0.011625714, 0.06603029, -0.07387419, 0.040573053, -0.018141462, 0.07370252, -0.033798434, 0.021256283, -0.050254375, -0.054922152, -0.017057396, 0.019373588, 0.023866631, 0.03152945, -0.024943272, -0.07012641, 0.07350624, -0.05820608, 0.02451394, -0.07883071, 0.035479248, 0.0024230927, 0.021567162, -0.07490982, -0.04979931, 0.030147873, -0.046584878, -0.053609625, 0.014209085, 0.019031255, -0.00214756, -0.009401207, -0.03546646, 0.0069183605, 0.014049379, -0.038726553, -0.05740837, -0.098134354, -0.063205376, 0.013607303, -0.06763229, -0.057184074, -0.058895756, -0.038494445, -0.037167333, 0.015980843, -0.05648417, 0.0010688722, -0.047087766, 0.06283628, 0.05156362, -0.049716637, 0.009118415, -0.03379289, -0.013536947, 0.044842865, -0.013813366, -0.07954091, 0.022673303, -0.056151625, 0.07368959, -0.024777409, 0.038962606, -0.07014502, 0.01515724, -0.073229745, 0.008670343, -0.048955657, -0.013496193, -0.08862548, -0.040191017, -0.051519476, -0.033885546, -0.008990972, 0.023290053, 0.0472956, 0.026621478, -0.029555105, -0.025571669, 0.023613865, -0.031949744, 0.00029809496, -0.069219336, -0.0070102406, 0.013687132, -0.013042856, -0.07603152, -0.0492862, 0.05144447, -0.01852687, -0.055604212, 0.013183491, -0.011980068, 0.058029182, -0.06424208, 0.041138407, 0.030848471, -0.017978676, 0.00948282, -0.01614645, -0.053698726, 0.03469514, -0.0657823, -0.064965494, -0.06196906, -0.008337766, 0.008212364, -0.026413374, -0.054764304, -0.014907391, -0.07693496, 0.050049704, -0.0485796, -0.064812355, -0.006802503, -0.05715945, -0.03850071, 0.04895028, -0.0041430634, -0.04110204, -0.017259477, -0.023186587, -0.033677682, -0.10885508, -0.0016126494, -0.08286828, 0.002117975, -0.099257044, -0.08884526, 0.03376815, -0.08415477, -0.06968467, 0.023447547, 0.038349297, -0.056666173, 0.036225755, -0.045652777, -0.1312516, -0.12782782, -0.05632855, 0.020089652, -0.008508327, -0.025082568, -0.08745194, -0.12850145, -0.10337669, -0.090622865, -0.14334235, -0.13943419, -0.108748645, -0.03163509, -0.12639837, -0.012305586, -0.09148399, -0.11732463, -0.07356042, -0.0088343425, -0.016943868, -0.10615614, -0.010558187, -0.01793812, -0.0030432602, -0.105221316, -0.13792567, -0.06934236, -0.0322038, -0.09127311, -0.0021303636, -0.060820222, -0.036772344, -0.10717419, -0.06447685, -0.104947574, 0.03404484, -0.011439018, -0.0723342, -0.037521627, -0.048102587, -0.057610583, 0.009194257, -0.069249846, -0.008455606, -0.028034689, -0.031200254, 0.036864854, -0.04415685, 0.0066608475, -0.009682653, 0.022758272, 0.047370914, 0.017136162, 0.008199469, 0.046896305, -0.07590037, -0.009964385, 0.016674204, -0.021920092, -0.025167605, 0.019966869, 0.030205095, 0.017732346, -0.020572634, -0.07614704, -0.09013017, -0.025112739, 0.0003345288, 0.030857518, -0.094503194, -0.031099606, -0.08391525, 0.035884872, -0.10601002, -0.002685362, -0.099207856, -0.15708321, -0.14010538, -0.111744836, -0.13698903, -0.13533023, -0.07805332, -0.17509064, -0.067089416, -0.11996761, -0.15149643, -0.09931698, -0.0168862, -0.21509199, -0.15700373, -0.17568502, -0.22985427, -0.22366887, -0.04876596, -0.09927867, -0.15191376, -0.14279205, -0.04222638, -0.12610994, -0.035375744, 0.0148482565, -0.09117606, 0.03387801, 0.0047391257, 0.052642796, -0.04582802, -0.036645617, 0.04018714, -0.007659114, 0.019912386, 0.03405472, 0.06754693, -0.053908765, -0.072208144, -0.043221027, -0.02044379, -0.07698139, 0.0026698217, -0.10484957, -0.007491596, -0.06175924, 0.008362249, -0.07923522, -0.04735471, 0.057528652, -0.07117889, 0.010535679, 0.008669753, -0.018006243, -0.063816644, 0.053947568, 0.028939804, 0.00028771732, -0.009172155, -0.06325623, -0.046312287, -0.0076941107, -0.017092114, -0.028439902, 0.0016022995, -0.059885293, -0.027157728, 0.06785192, -0.056875743, -0.07255611, -0.1045731, 0.038080852, 0.04178364, -0.06624003, 0.04615527, -0.052880686, -0.066807725, -0.038498174, 0.07065336, -0.058144316, 0.063487045, 0.026843093, -0.0054068044, -0.01857138, 0.014865493, 0.05814108, -0.04519988, -0.03560035, 0.05735802, 0.0324258, -0.075752504, -0.012643468, -0.032962076, 0.00480814, -0.055169627, -0.065023035, 0.012140675, 0.011658362, -0.022388676, -0.09035375, 0.03182618, -0.08363642, -0.07243839, -0.069343895, 0.03991311, -0.012858677, 0.07113464, -0.076730475, 0.00074536854, 0.041413218, -0.028679928, 0.04728867, -0.03394417, -0.03246901, 0.047907714, -0.040711187, 0.017183764, 0.035646256, 0.032049306, -0.07470839, 0.056282897, 0.0011631317, 0.04516747, -0.01596996, 0.00041969356, -0.029482406, 0.00756086, -0.0019500419, 0.03746279, -0.072113715, -0.044107772, 0.022832246, 0.06898782, -0.019379476, 0.036733303, 0.02344793, 0.0053366427, -0.0024641275, 0.039258793, 0.06427689, -0.031401675, -0.024526304, -0.043630116, 0.03243178, 0.012665714, 0.034274347, -0.030821368, 0.012505537, -0.06440683, -0.044942845, 0.005935965, -0.06487193, 0.05463721, -0.07571941, 0.009713752, -0.029557548, -0.024033207, -0.032372262, -0.030738728, 0.0589237, -0.051628556, 0.0109776985, 0.032537278, -0.052230544, 0.06394377, 0.040601816, 0.046670046, -0.028987665, -0.022195261, -0.009324803, -0.035323553, 0.044149227, 0.056671377, -0.03222404, 0.06194809, 0.024045808, 0.05116464, 0.0051790155, -0.027330715, 0.039320827, -0.06611495, 0.045482203, -0.061217777, 0.02429182, -0.05756864, -0.009392395, -0.008564733, -0.0036822634, 0.023686122, 0.041024007, -0.033039365, -0.059742995, 0.0016284079, 0.016802987, 0.001770982, -0.06422198, 0.0272988, 0.031109853, -0.033238567, 0.03231681, -0.016726883, 0.009284465, 0.03678619, -0.025188325, -0.030113645, 0.012157476, -0.0456314, -0.028727556, 0.014140416, -0.06430427, 0.018835803, -0.060064692, -0.0716011, -0.025042148, 0.0128819095, 0.05908225, -0.0059482125, -0.010379735, 0.066046536, 0.0100454865, -0.0113019105, -0.081840105, -0.09257631, -0.11496509, -0.13308004, -0.036665816, -0.14294514, -0.15739053, -0.19976707, -0.086476915, -0.06795758, -0.10238184, -0.032417454, -0.037331916, -0.061297603, 0.041365065, -0.09822309, -0.030851625, -0.056578346, -0.02185868, -0.067167334, -0.045608945, 0.050860718, -0.05802743, 0.012323749, -0.05829654, -0.07506218, -0.11504703, -0.09058862, 0.09675942, 0.07477967, 0.10764263, 0.06696767, 0.03969416, 0.09462076, 0.1431562, 0.035780694, 0.06913356, 0.03477363, 0.1107884, 0.12625937, 0.0953342, 0.14939335, 0.09155087, 0.15038507, 0.06358807, 0.08523315, 0.014969682, 0.022374496, 0.000885331, 0.046067078, -0.07367588, -0.030859241, -0.019954264, 0.07927348, 0.08370348, 0.07063363, 0.11010443, 0.112340085, 0.15329482, 0.10470797, 0.031102203, 0.18363024, 0.21200861, 0.15576194, 0.17156476, 0.11478555, 0.11572425, 0.042636912, 0.055752307, 0.12954977, 0.2345226, 0.21146713, 0.1770924, 0.20821968, 0.33635512, 0.14540914, 0.11865602, 0.16151607, 0.13415638, 0.035931382, 0.016523253, -0.028377775, 0.012881214, -0.00917903, -0.1340325, -0.13585943, -0.15273225, -0.032084126, 0.028623603, -0.2317196, 0.061195903, 0.1068683, -0.4509874, -0.5892241, -0.3091836, -0.06646891, 0.0021326954, -0.123338155, 0.16852619, -0.25180307, -0.4086522, 0.022012576, -0.36349046, -0.80798644, -0.5860735, -0.057586953, 0.04169793, -0.016713973, -0.09612883, -0.025452055, -0.068441935, -0.061299257, -0.08787759, -0.036687206, -0.03754355, 0.20661053, 0.15588418, 0.0599457, 0.11461559, -0.057252787, 0.012583068, 0.015758298, -0.030370124, 0.045990694, -0.08332638, -0.114616595, -0.14439948, -0.15044314, -0.050496776, -0.11490179, -0.024123056, 0.0058426266, 0.14555976, 0.13028191, 0.32183257, 0.28702143, -0.047336172, 0.076165475, 0.15910505, 0.049320072, -0.21681492, -0.034823455, 0.11448476, -0.06774662, -0.19967543, -0.07385419, 0.041824922, 0.069630064, -0.07707372, -0.115381725, -0.09554624, -0.04430418, -0.113973156, -0.029219963, -0.067195594, 0.016660098, 0.01077742, -0.08304452, -0.04763594, -0.10438696, 0.0041044774, 0.042574517, -0.019070787, -0.11741825, -0.16806552, -0.20746481, -0.14486408, -0.060936555, -0.09963458, -0.039926894, 0.07481542, 0.0048463764, -0.0110539915, -0.035108678, -0.018343145, -0.002826475, 0.014259191, -0.02734695, -0.006470016, -0.08772338, -0.06227578, -0.0076289633, 0.034592107, -0.043167148, 0.014272546, -0.09031792, -0.08160516, -0.072821036, 0.02551148, -0.12682053, -0.14053649, -0.15615399, -0.05318444, -0.047965806, -0.14447545, -0.053991515, -0.06567516, -0.039042197, -0.14077412, -0.058965478, -0.08726971, -0.17020753, -0.102087475, -0.006894531, 0.059699684, -0.008315449, 0.12215456, 0.12905523, 0.021262402, -0.06873703, -0.045371253, -0.058943115, -0.02086729, -0.11483386, -0.13860334, -0.008108413, 0.033268027, 0.012497187, 0.06380823, -0.0022627178, -0.030174835, 0.11608152, 0.38568878, 0.271865, 0.04751843, 0.025768528, 0.14950445, 0.120684065, 0.25992668, 0.26154572, 0.2719361, 0.093036234, 0.17034245, 0.2867655, 0.21425726, -0.08455294, -0.15879637, 0.05572351, 0.06127873, 0.031856544, 0.053184774, 0.0666334, -0.010749882, 0.25453684, 0.38602072, 0.18090306, 0.12076749, 0.0375702, -0.0694306, 0.39952403, -0.1365434, 0.30735782, -0.0531036, -0.29475474, -0.25991848, 0.3392118, 0.09936081, -0.059481468, 0.07225425, 0.18437827, -0.019447314, -0.1025818, 0.0009644029, 0.08453041, 0.046328686, 0.05295551, 0.06291855, -0.008535447, -0.09059742, 0.12112555, 0.23726144, 0.14446288, 0.084936, 0.005261968, 0.05674062, 0.022833707, 0.07346672, 0.04791124, -0.018972514, 0.052231316, 0.12380329, 0.05144132, 0.008573963, -0.0069826264, 0.0051475037, 0.053498957, -0.013816538, -0.021129861, 0.079413526, -0.02184376, -0.004767195, -0.050214052, 0.09790391, 0.02263578, 0.072347745, -0.014156258, 0.09101748, 0.025480425, 0.03959542, 0.118702956, 0.061124187, 0.034469683, 0.062040895, 0.051501546, 0.0072402186, 0.11628979, 0.02989121, 0.050920073, 0.04009172, 0.09015885, 0.015610319, 0.022917435, -0.01564166, -0.0048263003, -0.07269161, -0.03330028, 0.06458048, 0.040681064, 0.050231334, 0.1748313, 0.14092968, -0.11665623, -0.055986095, -0.007128786, 0.0769251, 0.061182313, 0.057922654, 0.049994275, 0.122458786, 0.13698816, -0.11084, 0.109399185, 0.13767007, 0.0781914, 0.044145856, 0.04743378, 0.043370802, 0.008248217, 0.10475245, 0.053669825, 0.05418504, 0.046300072, -0.019857146, -0.0220773, -0.0342782, 0.003685494, -0.037933502, 0.08515836, 0.061734736, 0.036952123, 0.0090359505, -0.056670345, -0.053801924, 0.011712633, 0.032174006, -0.040071327, -0.06540675, -0.004126918, -0.16254945, -0.06048421, -0.048183188, -0.10969095, -0.14307602, -0.1628985, 
	-0.09648351, -0.031473637, -0.063599624, -0.051009092, -0.06399038, -0.101138145, 0.044887595, 0.037074473, -0.10258682, -0.02018723, -0.004316439, 0.010213534, 0.005919054, -0.053063307, -0.00080030976, 0.003714566, -0.03842155, 0.005003112, 0.020119576, -0.04663983, -0.100927666, -0.008259607, -0.002147286, -0.021179134, -0.045789577, -0.058322217, 0.012574489, -0.07501514, -0.07578292, 0.04804287, -0.01093305, 0.023330634, -0.0054421206, 0.027561294, -0.07239618, 0.0020812852, 0.025510883, -0.035451084, -0.050442938, -0.012932278, 0.0506434, 0.024162788, -0.06810917, -0.01812606, 0.02088801, -0.052248735, -0.035308264, -0.0057038185, 0.00838676, -0.03322271, -0.007899734, 0.012094163, 0.037452437, -0.03990728, -0.06432097, -0.030177962, -0.03346889, 0.039579984, -0.06577882, -0.057155464, -0.00449237, -0.08544013, 0.030414402, 0.006289014, -0.076511264, -0.071375266, -0.06338916, 0.013227751, 0.007283869, -0.099169284, 0.05986393, 0.016895397, 0.037398435, -0.1048667, 0.028976627, -0.041413516, 0.09223145, 0.014224987, 0.031201154, 0.006129454, -0.0018167375, 0.096482575, -0.02566275, -0.12701857, 0.068353616, 0.03278836, 0.1280448, 0.05259833, 0.098370135, 0.13050073, 0.031330172, 0.0050042486, 0.03625009, -0.12948887, -0.20892735, -0.010033675, 0.0023004012, -0.007453127, -0.005802191, 0.06388199, -0.021681573, 0.06986971, 0.13184172, 0.08889113, -0.06733372, 0.06707755, 0.038022544, -0.010971491, -0.0137826465, -0.017672392, -0.1310992, -0.068357185, -0.008379008, -0.047587126, 0.04318506, 0.09463934, 0.12514041, -0.017716872, 0.09860161, 0.05407814, -0.052697055, -0.025421407, 0.04607434, 0.072953746, -0.04444, 0.073189005, 0.1000121, -0.020072838, 0.06959851, 0.015152914, -0.044168964, 0.028550927, -0.0583144, -0.013865039, -0.023449408, 0.070971124, 0.081470184, -0.032446288, -0.025015939, 0.07350767, 0.08125399, 0.05689517, 0.0646057, -0.04554901, -0.0004888373, 0.040363748, -0.047165662, 0.019988017, 0.015015516, -0.04593434, -0.030144617, -0.067066036, 0.058614098, -0.054935187, 0.061060924, 0.03344616, 0.009991865, 0.0010890698, -0.03893849, -0.045418255, -0.039766584, 0.064871974, 0.023467278, 0.063937485, 0.00065471255, -0.057415437, -0.085697465, 0.044115387, -0.00455239, 0.086875856, 0.059247237, 0.0642391, 0.023997445, 0.072240174, 0.014066793, 0.020754315, 0.078892335, 0.06214187, 0.0006466135, 0.11251629, -0.01112982, 0.03231731, 0.050653715, -0.054160208, -0.090421945, -0.048838735, 0.029710902, 0.044995487, -0.03559788, 0.017116021, 0.033448324, -0.005861294, -0.014076745, 0.07493425, -0.054516803, -0.058269832, 0.022968046, -0.12026221, -0.044589393, 0.0019664364, -0.039796136, -0.061239343, -0.043304425, 0.044926196, 0.042861916, -0.052145008, -0.0370242, 0.06056565, -0.014215534, -0.029602382, -0.14787994, 0.04560748, 0.0024187828, 0.057641555, 0.008183036, -0.039843164, 0.10222131, 0.073737755, -0.057043303, 0.047536314, -0.023070244, -0.057528082, -0.037497494, -0.031111365, 0.07151593, -0.0055479975, -0.0080484245, -0.013302464, 0.03131211, 0.027760012, 0.01070266, -0.04039381, 0.014806516, 0.019844996, -0.0715174, 0.016618986, 0.021848476, 0.06739564, 0.008080317, -0.03415305, -0.003648374, 0.08197311, 0.005007192, 0.06074389, -0.04552896, -0.009927375, 0.015596564, 0.0118718855, -0.0532994, -0.04259974, -0.06842815, 0.08253751, 0.0072413394, 0.0046814103, -0.010728257, 0.066007674, -0.028828694, 0.07503662, -0.06907538, 0.054162614, 0.015579886, 0.05100001, -0.08740162, -0.027216753, 0.0081262, 0.055556163, 0.054165706, 0.097015806, -0.047442216, -0.0062964153, 0.005345348, -0.035503857, -0.007970729, -0.015141053, 0.021435032, -0.03597608, 0.04323367, -0.04361992, 0.047561046, 0.045908276, -0.09445594, 0.0018899291, -0.039589748, -0.04160887, -0.03417876, -0.009679907, -0.017170526, 0.04814573, 0.060552932, -0.071643196, -0.053407375, 0.04916667, 0.058163404, 0.02533402, -0.04753404, 0.023090295, -0.06611079, -0.0903403, -0.11723791, -0.0008135288, -0.016576089, -0.08728426, -0.020228943, -0.0027469965, -0.05692229, -0.08270347, -0.023776064, -0.02349079, -0.05790705, -0.045593575, -0.007510624, -0.0313977, 0.016008746, 0.012618329, -0.07774432, -0.018865021, -0.07332611, -0.017298343, -0.0070230216, 0.055056896, -0.006243968, -0.05320092, 0.02742609, 0.023307482, -0.07508965, -0.03514932, -0.11633777, -0.09953338, -0.081904486, -0.07782014, -0.05149503, -0.08899256, 0.048063554, 0.006764944, -0.033168063, 0.019150933, -0.059520487, 0.008464605, 0.05250914, 0.029311007, -0.031291544, -0.07096858, -0.06661107, 0.01019559, 0.056470245, -0.009754877, 0.011747003, -0.026743997, -0.14977919, -0.2283299, -0.10226739, -0.06998317, -0.07100637, -0.06137417, -0.020191636, -0.016140224, -0.021765029, 0.021386998, 0.037694283, -0.012224668, -0.07150605, 0.0058532683, -0.0932496, -0.14533496, -0.07297048, -0.10578079, -0.05521103, -0.06410161, -0.10359413, -0.12161457, -0.19633135, -0.1084586, -0.15820768, -0.14036907, -0.04714162, -0.07570802, -0.08920245, -0.111862324, -0.10760203, -0.022019545, -0.08901985, -0.04532483, 0.021720594, -0.053604804, -0.034503523, -0.096248865, -0.12719071, -0.14679675, -0.23558566, -0.25270197, -0.083993964, -0.14473675, -0.18120565, -0.0018656041, -0.017992983, -0.06315588, -0.04935741, -0.14897616, -0.05639767, -0.04756211, -0.009727979, -0.020514313, -0.12247754, -0.098578654, -0.049629014, -0.025483575, -0.10770983, -0.13875133, -0.085140124, -0.064318016, 0.00852533, -0.0280887, 0.014160188, -0.07347668, -0.06410755, -0.015874052, 0.013831722, -0.06596969, 0.023700226, -0.071180806, -0.048306067, -0.03501637, -0.03815602, -0.024620693, -0.051664658, -0.043969624, -0.06300095, 0.05391634, -0.07923557, 0.022264961, -0.0063959225, 0.020842204, -0.09425539, -0.08119863, 0.0027623135, -0.0098913945, -0.0062516173, -0.14255328, -0.14464067, -0.15763769, -0.12105923, -0.17487377, -0.06659013, -0.062931485, -0.016782956, -0.09809928, -0.029479317, -0.06334675, -0.06537246, -0.016469115, -0.047893185, -0.08641081, -0.097410865, -0.06446685, -0.02354107, 0.00859909, -0.043454796, 0.041062307, -0.027952097, 0.054391228, -0.0376544, 0.022646077, -0.006120907, -0.0087554585, 0.05490853, 0.040925466, 0.013414612, -0.05397855, 0.019582616, 0.04129089, -0.07418624, -0.037177898, -0.04655584, -0.026741248, -0.057491373, 0.028340962, -0.07505899, -0.046134327, -0.036655195, -0.054205306, -0.029198792, -0.044543233, -0.045903385, -0.04840089, -0.101752274, 0.010476012, -0.040701263, -0.011617173, -0.035645086, -0.029172465, -0.020660222, 0.01195845, -0.0489546, -0.0798134, -0.061829567, 0.025002684, -0.010695995, -0.092022456, -0.016175969, -0.044964306, -0.039943915, -0.10887241, 0.031903546, -0.020407574, 0.012529908, -0.048488855, -0.0049236165, -0.1319766, -0.020013342, -0.067834444, -0.055036884, 0.035050735, -0.08934009, 0.041403864, -0.06743925, -0.029622477, 0.073351555, -0.030075409, -0.042455163, 0.043439575, -0.013842892, -0.024889315, 0.04449278, 0.040966164, -0.01878133, -0.06833512, -0.057871927, 0.0060390523, -0.06856807, 0.0062232115, -0.033413444, -0.0075300024, -0.07435271, -0.08102352, -0.096657835, 0.0034244342, -0.061354507, -0.08062632, 0.0038740535, -0.070230775, -0.0700185, -0.043507624, 0.028651128, -0.04239421, 0.049072117, -0.050096657, 0.021330122, 0.03557893, -0.013547695, -0.1097425, -0.05729925, -0.109185286, 0.015266002, 0.031195749, 0.026403358, -0.06583529, -0.062141445, -0.033283237, 0.0067054178, 0.0528303, -0.011113277, -0.049457256, -0.027226308, 0.022759723, 0.02136664, -0.047119915, 0.025620773, 0.057407368, -0.02591218, 0.009601799, 0.07216849, 0.01675486, 0.0100064, 0.063561395, 0.04291139, 0.023997728, 0.070414454, -0.05540573, 0.034016, 0.018537756, 0.00030113087, 0.030553194, -0.037855454, 0.019091457, -0.056197476, 0.023073338, -0.01801326, -0.022687059, -0.009566875, 0.010954365, -0.07168971, 0.037292544, -0.09314903, -0.02465087, 0.004170923, -0.10640937, -0.034702986, -0.03388082, -0.037162412, 0.021000344, -0.04389281, 0.05604601, 0.06211066, -0.07073559, -0.055969346, -0.045773543, -0.02021601, 0.045135323, 0.0075469916, 0.058674496, 0.04969189, 0.06842498, 0.05041006, 0.052172218, 0.011570657, 0.028628783, -0.04114016, 0.02043364, -0.039564457, -0.0045333784, -0.0090413075, -0.08027765, -0.02839636, -0.006324576, -0.011047603, -0.045462053, 0.033756193, -0.06305459, -0.049103167, -0.0031472973, -0.0464047, -0.08501219, 0.024452148, 0.007162818, -0.06851233, 0.04368644, -0.026368702, 0.00090306636, -0.047631733, 0.05577148, -0.064891025, -0.06666722, -0.012314769, 0.032014374, 0.0045631854, -0.036396757, -0.0572842, -0.05341201, -0.069825925, 0.0054492257, -0.0731704, 0.058189332, 0.027930822, -0.03858633, 0.0621634, 0.042658426, 0.051960167, -0.09198391, -0.0093850745, -0.04869998, 0.053530257, -0.010536259, -0.053275537, 0.16532977, 0.12748016, 0.0194592, -0.16215488, -0.15179473, -0.28594398, -0.21097662, -0.086371556, -0.14387104, -0.0795392, -0.06478824, -0.11244528, -0.28427118, -0.22541754, -0.14584808, -0.1617326, -0.1113157, 0.0005105184, 0.021523897, 0.051472872, -0.0015146361, -0.07687906, -0.18024704, -0.15972969, -0.14891802, -0.024775008, -0.057239007, 0.11834707, 0.09501081, 0.0099710375, 0.036509976, 0.0709328, -0.06798446, 0.043176502, 0.014591271, 0.09074121, -0.05169948, -0.15021524, 0.025741491, 0.12481554, 0.23080498, 0.23038897, 0.14943852, 0.2368909, -0.011309395, -0.13124777, 0.027279021, -0.2749809, 0.040845796, 0.13739903, 0.007436128, 0.07864006, 0.18408604, 0.041479997, 0.0065792557, 0.05982997, -0.03152121, 0.0342498, 0.04502557, -0.011540865, -0.001271431, -0.008771717, 0.0007500878, 0.044143137, 0.0007965068, -0.0848403, -0.06595391, -0.046805706, -0.049820554, -0.035034183, -0.034502365, 0.05064869, 0.052992456, -0.104149655, -0.024109982, 0.013129711, -0.01064713, -0.21076496, 0.016425854, 0.07070872, -0.04357282, -0.12101291, -0.14507869, -0.020902295, -0.11926967, 0.061144855, 0.0029071514, -0.24076383, -0.49248087, -0.55045736, -0.29317862, -0.41247004, -0.39082208, -0.07790566, -0.13293907, 0.08160691, -0.08235413, -0.23638384, 0.008618149, -0.3386326, -0.7772958, -0.64558834, -0.1564588, -0.077146314, -0.066710785, -0.026487859, 0.0729171, 0.13233186, 0.13251992, 0.026147557, -0.07015342, -0.09423164, -0.07627041, -0.2634341, -0.32935345, -0.03964669, -0.014755868, 0.1002789, 0.01542758, 0.0885636, 0.004604753, -0.03133694, 0.10682247, 0.3702504, 0.29948708, 0.118947424, -0.10179519, -0.18054779, -0.24499644, -0.11410235, -0.15050317, 0.049523577, 0.07524824, -0.10090971, 0.07519755, -0.15999864, 0.15653272, -0.12541571, -0.10161643, 0.03868988, 0.082151964, 0.0047797826, -0.02936615, 0.03589054, 0.062820576, 0.11664593, 0.08459164, -0.0066069695, 0.118363366, 0.16009909, 0.13853578, 0.038013175, 0.09589095, -0.027782034, 0.070851654, -0.0029781114, 0.03531, -0.08805405, 0.107802056, 0.023752289, -0.09281464, 0.11340565, -0.013333322, 0.014138243, 0.006264983, -0.050738454, 0.017746037, -0.033628613, 0.10593716, 0.030827278, 0.12391933, 0.0377001, 0.007930305, 0.066951655, -0.03616151, -0.06295243, 0.020942466, -0.033726256, -0.035477653, -0.051542476, -0.14289188, 0.004596846, 0.016642295, -0.050138876, -0.07136749, 0.04101066, -0.028592585, 0.14804198, 0.18306045, 0.20898245, 0.11557689, 0.050252646, 0.0036592025, -0.049428314, 0.039857123, 0.09611961, 0.14799175, 0.079152845, 0.13385123, 0.20009655, 0.024526862, -0.023718385, 0.15148395, -0.05320292, 0.19368614, 0.03631349, -0.015143153, 0.08453793, 0.06264692, 0.09943031, 0.021768421, 0.013593009, 0.07658762, -0.07203718, -0.028683683, -0.0024194815, 0.051022634, 0.22617656, 0.07227795, 0.15984437, 0.113921, 0.11675264, 0.089071244, 0.12132391, 0.18154715, 0.07355779, 0.16433826, 0.06472223, 0.038691856, 0.059502706, 0.12247878, 0.06524432, -0.02232826, 0.20465735, 0.20434234, 0.23511466, 0.10773281, 0.11997303, 0.085380964, 0.11348748, 0.09450915, 0.0047967504, 0.021943292, 0.114700265, 0.13932765, 0.25996444, 0.26726663, 0.3355556, 0.33605856, 0.20216303, 0.061371416, 0.13764136, 0.10202821, 0.15674369, 0.119705185, 0.20451356, 0.08231107, 0.064668775, 0.07197503, 0.058930494, 0.08064997, 0.12803456, 0.11633612, 0.12576473, 0.09530782, 0.11694523, -0.009066122, 0.016194534, 0.06903554, 0.016997624, 0.06516773, 0.11165965, 0.05540366, 0.117981635, 0.1006004, 0.05107773, 0.080557756, 0.022989767, 0.10534769, 0.0979123, 0.08873814, 0.021757307, 0.07820615, 0.07482652, 0.082523905, 0.10859498, 0.12950855, 0.12225079, 0.14479852, 0.0113805225, 0.09847109, 0.09335019, 0.10270165, 0.077646546, 0.13903709, 0.15984417, 0.10895162, 0.10490948, 0.02499773, 0.0019721263, 0.058213815, 0.06344193, 0.024047282, 0.16626431, 0.10941081, 0.08514785, 0.09463177, 0.19105212, 0.13480589, 0.07524481, 0.097118974, 0.15695302, -0.005581429, 0.020708086, 0.02910662, 0.1296529, 0.06529941, 0.0807503, 0.16479108, 0.0688509, 0.081053995, -0.05946402, 0.17083457, 0.06001926, 0.09160078, 0.0333406, 0.105719805, 0.14108323, 0.11129878, 0.08620565, 0.051807996, 0.108068965, 0.052871153, 0.09393919, 0.08447722, 0.054212827, 0.045312732, 0.094196044, 0.095658995, 0.085417055, 0.03569838, 0.100314125, 0.09417328, 0.07407547, 0.12329404, 0.07889445, 0.10583996, 0.078888096, 0.15439676, 0.14647703, 0.11189396, 0.10107878, 0.15557222, 0.1403486, 0.10940887, 0.15534167, 0.1076904, 0.12801817, 0.073687434, 0.16316885, 0.1663028, 
	-0.043627813, -0.046168894, -0.029848926, 0.016813107, -0.019763406, -0.08903659, -0.02095068, -0.05094452, 0.032343235, -0.0076764203, -0.033289015, 0.008185068, -0.04661708, -0.009139129, 0.050468985, -0.016315917, -0.049714904, -0.07100162, -0.021353291, 0.019820586, -0.07911565, 0.036425006, -0.061987367, -0.05520896, -0.040305432, 0.015805027, 0.074114926, -0.03418429, -0.008020364, -0.06541711, 0.05698348, -0.021219874, -0.022826897, 0.045775555, 0.034174003, -0.019990338, -0.052230634, 0.030904505, -0.014218816, -0.067818515, -0.0703956, -0.023659471, -0.034949455, 0.008425535, -0.023148393, 0.06599922, -0.00052179187, 0.050956327, 0.012425908, -0.03845653, 0.0083511835, 0.013427314, 0.003285146, -0.029979397, 0.017793966, 0.043774936, 0.007868239, -0.06828794, -0.05760221, 0.058369916, -0.042409852, -0.003151301, -0.08643128, 0.027518518, -0.033687368, -0.08516827, -0.06266171, -0.0141711, -0.10447052, 0.007534352, 0.053398073, -0.050813425, 0.023850027, 0.0076467143, 0.059074048, -0.016040921, 0.04415075, 0.025790563, 0.04714289, 0.04920711, -0.00013952711, 0.006891659, -0.09974641, -0.042301215, 0.09720851, 0.041433066, 0.0985293, 0.072617605, 0.09776178, -0.0045901234, 0.072745055, -0.11805392, 0.049383335, -0.09848494, -0.22273804, -0.017131401, 0.096644744, -0.037938964, -0.014772896, 0.06171005, -0.019149909, 0.08168411, 0.05944501, 0.040503096, 0.07825037, 0.036900613, 0.058969844, 0.017800143, -0.03322404, 0.0030902738, -0.13898037, -0.04189474, -0.098109104, 0.042036347, -0.041893363, -0.026433673, 0.08436503, 0.045031738, 0.05522538, 0.018950932, 0.029586524, 0.04671573, -0.011986898, 0.04490556, 0.012897666, -0.06534141, 0.0067028976, 0.04883217, 0.09785172, -0.009563369, 0.038029347, -0.0011489207, -0.0405533, 0.057355065, -0.02506702, -0.0723312, -0.04605917, -0.0038627763, 0.027906483, 0.10734317, 0.07147835, 0.039927773, -0.014694741, 0.057062276, 0.07006059, 0.05865029, -0.10034715, -0.018674305, 0.0050364933, -0.01139993, -0.030954983, -0.0044321334, 0.079629675, -0.048482183, 0.023707611, -0.01981572, -0.016493762, -0.034313984, 0.01826211, 0.00302402, -0.063014984, 0.0016941968, 0.021411411, -0.039175317, -0.054148175, -0.024991486, 0.013264188, -0.06774322, 0.023269469, 0.085550286, 0.074731976, 0.0651083, 0.04801835, -0.0056621195, 0.009249045, 0.013975896, 0.058441658, 0.0060994136, 0.067626104, 0.06722698, -0.040194597, 0.03232761, 0.08152652, 0.066518955, 0.0034248568, 0.047231976, -0.063731454, 0.06692434, 0.026103163, -0.019675503, -0.0014262849, 0.033333402, -0.023222243, -0.038944595, 0.047925998, 0.016575243, 0.027209109, -0.07239726, -0.038977098, 0.009432953, 0.0703531, -0.04471083, 0.042369757, -0.07801094, 0.02875939, -0.01988411, -0.03167208, 0.019268053, -0.06598923, 0.040162437, -0.044990562, -0.015973292, -0.04244783, 0.045612946, 0.042015705, 0.019090705, -0.03538021, 0.07237631, 0.050378878, -0.04106645, -0.014863871, -0.026180355, 0.0087230215, -0.035856616, -0.009240387, 0.023330573, 0.05162766, 0.05810393, 0.061762135, 0.06891517, -0.012165808, 0.03939675, 0.036599822, 0.027671352, 0.02996015, -0.064055294, -0.058819804, 0.033298634, 0.055414904, 0.00454317, 0.02886641, 0.053291414, 0.062132593, 0.045944802, -0.014429873, -0.050652977, 0.061389953, -0.046580482, 0.04980602, -0.037598062, 0.055124033, -0.024196144, -0.029435065, 0.05803687, 0.07552902, -0.027585842, -0.002071412, 0.017875884, 0.073608376, 0.051347636, -0.061044026, -0.0167433, -0.050229482, 0.04134118, 0.0013010452, 0.0028674642, 0.040660203, 0.023602132, 0.018432377, 0.011366368, -0.009460338, 0.06863853, -0.0053976513, 0.034124263, 0.024114419, 0.019438924, 0.04010954, 0.017769039, -0.0038182654, 0.041874282, -0.030756863, -0.07247856, 0.003328205, -0.04747072, -0.025236072, -0.059953973, 0.038772486, -0.06251926, 0.049368076, 0.035303682, 0.04247458, 0.007997798, -0.02575301, 0.04238113, -0.0338389, 0.033041857, -0.115689754, -0.01546411, -0.11206922, 0.0284907, -0.0023244424, -0.11621776, -0.09634004, -0.038555365, -0.022921752, -0.026721327, -0.05698245, -0.025579669, -0.097599134, -0.0070591625, -0.09485869, -0.090074636, 0.005826777, 0.044290535, 0.0013320384, -0.075287774, -0.07936868, -0.003531481, 0.00905282, -0.078761324, -0.035041347, -0.083657674, -0.067549855, 0.0010528944, -0.101559915, 0.04211754, -0.12233684, -0.07930497, -0.08902448, -0.0047058617, -0.10765142, -0.05614424, -0.03733383, 0.03526383, 0.02204826, -0.030286565, 0.00421034, 0.024286987, -0.03942631, -0.030949773, -0.024086948, 0.041887753, -0.05239594, 0.036713205, -0.0037675542, 0.0046965345, 0.035813723, -0.09766871, -0.07161048, -0.19158535, -0.16992944, -0.10450486, 0.016634498, 0.012959035, 0.02366374, -0.014989297, 0.011114541, -0.0729863, 0.029735763, 0.00092381577, -0.016509805, -0.039151747, -0.056506537, -0.05574528, -0.10103761, -0.12359568, -0.1183281, -0.02764844, 0.015684169, -0.050023668, -0.09274651, -0.07135106, -0.0728912, -0.1650042, -0.06792877, -0.14101449, -0.14256075, -0.07152172, -0.14223568, -0.14965767, -0.083253995, -0.1002825, -0.003823792, 0.001731093, -0.031903476, -0.06598414, -0.02706075, -0.040958766, -0.13948901, -0.07382715, -0.058753688, -0.12108222, -0.08987439, -0.1449199, -0.015298312, -0.14413351, -0.115088984, -0.15779987, -0.035853267, -0.0749164, -0.007371767, 0.00043604762, -0.057768285, -0.13203458, -0.10866619, -0.0135167595, -0.12805451, -0.05179979, -0.13958585, -0.029915074, -0.080578364, -0.06581276, -0.00844425, -0.07212831, -0.09750196, -0.019108493, -0.028346939, -0.038165238, -0.09616554, 0.037523966, 0.020668276, -0.011614824, -0.029194776, -0.13386615, -0.09136078, 0.0021221184, -0.08292235, -0.012654403, -0.13945365, -0.17717493, -0.10405982, -0.028684491, -0.10108257, -0.08902424, -0.043535195, -0.045366846, -0.11614386, -0.15695962, -0.11851985, -0.113975346, -0.10497866, -0.21371785, -0.04908032, -0.0066357437, -0.065254845, -0.039646767, -0.10452727, 0.00815715, -0.023823246, 0.009213474, -0.0095262695, -0.077423945, -0.103198364, -0.070673704, -0.08110769, 0.02865353, -0.0963729, -0.0036506997, -0.014909003, -0.031144222, -0.011371517, 0.008712211, -0.014928522, -0.019724268, 0.06566393, 0.035530787, -0.015485196, -0.059566326, 0.06552788, -0.0004352969, 0.01595202, 0.022336246, 0.061167248, -0.00372431, -0.02710622, 4.284558E-05, -0.029775206, -0.06188393, 0.038828284, -0.08437827, 0.050197884, 0.007818746, -0.021392496, 0.016317531, -0.096300915, -0.06213799, 0.04903974, -0.057033867, 0.039845977, 0.0035078374, 0.034270044, -0.03374249, 0.022466125, 0.010022878, 0.02586417, -0.046805907, -0.00867176, -0.051699243, -0.06414398, -0.006549974, -0.047637444, -0.010764505, -0.010763133, -0.021380272, -0.050924167, -0.011475907, -0.037731815, -0.06484277, -0.004000465, -0.011185046, -0.05960292, 0.021709466, 0.0075980606, -0.025085637, -0.050556917, -0.025947241, 0.03363613, -0.0017301383, -0.06718683, -0.01841575, 0.004614105, 0.0074508837, 0.03436051, -0.09437124, 0.009038421, -0.061944794, 0.014154101, -0.02875715, -0.03983241, -0.00540512, -0.06796785, -0.009972535, -0.030382743, -0.07418023, -0.0120159015, -0.13781318, -0.11614506, -0.056843515, -0.055526644, -0.12233025, -0.076420195, -0.09978379, -0.12187656, 0.020976055, -0.054624904, -0.04409816, 0.02031842, -0.012116971, 0.03898196, -0.08133031, -0.049400475, -0.010524801, -0.007089721, -0.050733786, 0.002104756, 0.024886766, -0.027371641, 0.027523683, -0.016608782, -0.07342403, 0.05504758, 0.057926033, 0.027052967, -0.046324734, -0.020017456, -0.03251563, -0.053518802, -0.022277517, -0.048597395, -0.016060002, -0.035534956, -0.018059066, -0.0070290947, -0.010561507, 0.012430765, -0.008754999, -0.06683426, -0.06964071, -0.0112462845, 0.063913755, -0.032607727, -0.030390078, 0.047908563, -0.030673496, -0.06763642, -0.062815785, -0.053929668, 0.019016441, 0.045409158, -0.04815864, -0.031255107, 0.013095816, -0.041258004, 0.0074506053, -0.013146693, -0.08393406, -0.088455826, 0.040544007, 0.033698473, 0.022590816, -0.046744134, -0.046966575, -0.05905556, 0.02280514, 0.013971798, -0.08897821, 0.03509116, -0.026888309, -0.09277265, -0.06699971, 0.037986778, 0.039454266, 0.039190114, 0.034090083, -0.076509036, -0.059374604, -0.012696694, -0.04321559, -0.019697474, 0.015934534, -0.07013424, -0.010863563, -0.041982785, 0.009807443, -0.016493673, -0.04314416, 0.012718768, -0.02539307, 0.041962203, 0.032265004, 0.018211486, -0.017274251, -0.0375998, -0.0037788276, -0.04438415, 0.028384378, 0.014237406, -0.010345086, 0.014334265, 0.053905755, 0.023334429, -0.017066501, -0.037488833, 0.04076595, 0.026006933, -0.0039172103, 0.04173678, -0.039192807, -0.013893059, 0.0043265754, 0.017155321, 0.057291206, 0.032182287, 0.0005975543, -0.018942762, -0.063041374, -0.03899256, -0.029507456, 0.024604712, -0.042573467, -0.0014850306, -0.08317429, -0.059321113, -0.13898294, -0.11445657, -0.13167214, -0.07445328, -0.12109637, -0.11309412, 0.025342029, 0.02591313, -0.04585291, -0.045589976, 0.012831692, 0.015713355, -0.07220304, -0.0009224276, -0.04458385, -0.033698, 0.007594524, 0.04433081, -0.018990936, -0.0168785, 0.06974716, -0.014207796, -0.023362571, -0.15640873, -0.10982226, 0.077794366, 0.027674466, 0.08165458, 0.06964552, 0.10638364, 0.012663955, 0.023451738, 0.089551054, -0.03585439, 0.019134432, 0.032673806, -0.06549437, 0.015678238, 0.018226957, 0.1125269, 0.04464796, 0.050420284, -0.05218736, 0.04700006, -0.06724646, 0.022870867, 0.031879634, -0.14747857, -0.058762167, -0.0047422317, -0.0073993844, -0.031481523, -0.023016447, 0.043665066, 0.04532372, -0.08176146, -0.041334614, 0.015324992, 0.018828522, -0.008703915, -0.08598825, -0.031429347, 0.046879217, 0.1127865, 0.013452551, 0.057436436, -0.21227822, -0.13547258, -0.12275382, -0.06570636, -0.06343884, 0.08556921, -0.1004293, -0.09443192, -0.077457674, -0.057909086, -0.117399596, -0.118102364, -0.06365864, -0.043594345, -0.0020984488, -0.003564972, -0.0058466, -0.08939225, -0.17316769, -0.63249886, -1.0803443, -0.13555448, 0.47993523, 0.33510116, 0.17983769, 0.14090957, 0.16686377, 0.092487685, 0.102825165, 0.14658704, 0.11416455, 0.17533153, 0.24179937, 0.16996518, 0.06157932, -0.1395285, 0.009670123, 0.11608245, 0.24758206, 0.028573731, 0.06534521, 0.1423221, 0.124068685, 0.094805166, 0.08207335, 0.01087907, 0.078877345, -0.040900867, 0.042069323, -0.0147316335, -0.07039908, 0.07805944, 0.058268517, -0.019165747, 0.072491795, 0.030413907, 0.019152528, -0.0492222, 0.05277467, -0.03291089, 0.06591752, -0.01950894, 0.037439965, -0.041643523, 0.042739946, -0.066451214, 0.0016061754, 0.14026779, 0.16403258, 0.05899447, 0.1105014, 0.040866267, 0.013373774, -0.046339374, 0.041434195, 0.041840177, 0.0435767, 0.065016225, 0.08729634, 0.028265025, -0.011989437, -0.013843407, -0.03779994, -0.0147149805, 0.01788117, -0.0046005948, -0.010982967, 0.12133103, -0.0061107986, 0.06877261, 0.041034352, -0.0077137183, 0.04919436, 0.22490183, 0.076910585, 0.060790442, 0.038097315, 0.06691768, 0.034783237, -0.0017507842, -0.0651646, -0.016718213, 0.026655685, -0.0025081823, 0.073586844, 0.047455218, 0.013656862, 0.10821797, -0.015435205, 0.06928574, -0.021719687, -0.0017323466, 0.06145444, 0.11165843, 0.0756048, -0.04577584, 0.116648056, 0.013191012, -0.0065836688, -0.028968401, -0.013904384, -0.037895054, -0.021944579, -0.05370352, -0.018331464, -0.0671362, 0.0090392325, 0.007684457, 0.117472455, 0.06867858, -0.049707334, 0.08135887, -0.029235369, 0.15076582, -0.015512102, -0.04246522, 0.16149417, 0.046807062, 0.17176233, 0.16390425, 0.13487816, 0.1613355, 0.014307253, 0.0022367213, -0.1501592, -0.10284886, -0.10003499, -0.3006542, 0.06182803, -0.084920704, -0.0028309997, 0.054645266, -0.009807543, 0.023222638, 0.024133809, -0.016280236, 0.096451856, 0.16421069, -0.009133814, 0.022029486, 0.21498081, 0.16620246, 0.1923077, 0.28896978, 0.086628385, 0.24849238, 0.00060711126, 0.17340335, 0.16347124, 0.014857166, 0.082652256, 0.13519268, 0.18045138, 0.20319799, 0.17931992, 0.16378343, 0.12242912, 0.09454446, 0.01669586, 0.07072436, 0.10982636, 0.07959749, 0.061151728, 0.09100583, 0.085053205, 0.08318891, 0.0884666, 0.17489465, 0.17995064, 0.12254005, 0.09682739, 0.09318622, 0.023679668, 0.113808274, 0.14807458, 0.011485906, 0.07921766, 0.021923583, 0.02782799, 0.03160105, 0.010356732, 0.059277922, 0.011812302, 0.024744507, 0.05701733, 0.070488885, -0.02770925, -0.049439833, -0.01990778, -0.015345403, -0.024736103, -0.014340959, -0.03827024, 0.07185626, -0.060386416, 0.065727875, 0.09064747, -0.043405723, 0.076237045, 0.014037122, 0.015409285, 0.012790174, 0.028947486, 0.10621647, 0.041796956, 0.056817945, 0.028482752, 0.03362414, 0.08148543, 0.077221505, 0.0120923165, 0.0060743745, -0.024638684, -0.08934188, 0.1024734, 0.093073145, 0.007899059, 0.021395825, -0.013848191, 0.05811723, -0.016564166, -0.040919777, -0.031862564, 0.027275607, 0.09132354, 0.022141375, -0.09707305, -0.03800473, -0.0030050373, -0.03622516, 0.059992243, 0.055620644, 0.0012420901, -0.06408762, 0.071216956, -0.024438463, -0.011789479, 0.0028445148, 0.08050736, -0.015034454, -0.016878653, 0.07190351, 0.053716753, -0.059720505, 0.043498915, 0.030468961, -0.10226666, 0.01577193, 0.07566388, 0.0178557, -0.036801223, -0.04945229, -0.04268934, 0.042721577, 0.026733067, 0.04355372, 0.071169086, 0.05921133, 0.0007787734, -0.047988087, 0.06569981, -0.008367514, 0.031043379, 0.06376751, -0.018472131, 0.11228647, 0.05646465, 0.11528803, 0.0028509332, 0.11150507, -0.0131172445, 0.031149348, 0.03683756, 0.0050954497, -0.0460246, 
	0.060577147, -0.031672426, -0.039042808, -0.049629565, -0.05998273, 0.0068891807, -0.084505, -0.016035762, -0.011549969, -0.025379468, -0.076731615, 0.0518853, -0.014522103, -0.082588, 0.016538167, -0.06363752, -0.05107715, -0.069017984, 0.057844058, -0.031410787, -0.065095425, 0.04803137, 0.05165264, 0.032072715, -0.0556117, 0.008236079, 0.036669176, 0.0091085015, -0.0062713767, -0.061941326, 0.05675741, -0.007030057, 0.019431507, 0.032261577, -0.05411983, -0.0057776924, 0.030343598, -0.07748655, 0.010141805, -0.032960266, 0.02980866, 0.038274903, 0.04062434, -0.04322276, -0.07178542, -0.052257814, 0.048172057, 0.031869076, -0.071282975, 0.01994302, -0.050779488, -0.070342824, -0.003626932, -0.0067666112, 0.007865669, 0.031362567, -0.06670774, -0.00801083, -0.0703427, 0.034015793, -0.030021854, -0.059771344, -0.022033207, 0.055458385, 0.042230874, 0.01484853, 0.04901204, 0.07968286, 0.064368024, 0.06551094, 0.060899243, 0.023857346, -0.02796646, -0.013005849, -0.034037467, 0.048568506, -0.00538589, 0.055464663, 0.053670414, 0.015539182, 0.09484984, 0.11400152, -0.014838309, -0.01460308, 0.023735255, 0.08922618, 0.025983592, 0.07381408, -0.018545639, 0.080078244, 0.0061224485, 0.12673585, 0.024285797, 0.03445828, 0.049263086, 0.0024417082, 0.13907656, -0.035541877, 0.006116862, -0.0032627056, 0.0028626337, 0.06533293, -0.009050369, -0.0252139, -0.04183975, 0.037322596, 0.080157585, 0.01731687, -0.025929388, 0.0939982, -0.060124714, -0.04912585, -0.10028838, 0.042426087, 0.040234268, 0.092537254, 0.1212044, 0.10711623, -0.04218684, 0.0568934, -0.04182897, -0.12814415, 0.056003794, 0.033703845, -0.052692857, -0.06011667, -0.025410313, 0.087579265, 0.08559563, -0.074243896, -0.080297664, 0.026047075, -0.030180953, -0.021671219, -0.092350066, -0.039219383, 0.027129347, -0.0031358737, -0.012906535, -0.03740945, 0.07629582, 0.0022775475, 0.015007622, -0.006812649, 0.06006188, 0.057161354, -0.009025363, 0.077878796, -0.04084403, -0.06264274, 0.07216384, 0.03411336, 0.04943202, -0.0025998685, -0.050868094, 0.008617284, 0.054166563, -0.032595936, -0.026614763, 0.07219243, 0.051453322, 0.06939028, 0.07448679, 0.026910486, -0.020705886, -0.041229405, -0.011620073, 0.039254047, 0.008852444, 0.071482345, 0.07149556, 0.03674933, -0.01873552, 0.05417142, -0.028910452, 0.032976642, 0.115305156, 0.021449057, 0.040879834, 0.07022695, 0.016674358, 0.0038591672, 0.029498562, 0.004249782, -0.025748143, -0.028420964, -0.002253904, 0.040348347, -0.00076197786, -0.05410673, -0.030077793, 0.02332718, 0.005025628, 0.08485186, -0.01613252, 0.06423333, 0.006293177, -0.058379784, -0.07277613, 0.04443664, -0.033307053, -0.073246956, 0.018166643, -0.048906714, -0.16374597, -0.039940767, -0.025723537, -0.054125026, -0.083526626, 0.084478214, -0.06767152, 0.017563187, 0.018040542, -0.033418573, 0.08145373, 0.07617784, 0.029292194, -0.021482747, 0.0290589, 0.05630961, -0.041531004, 0.004220455, -0.078150705, -0.051016197, 0.06654165, 0.07868701, 0.05223441, -0.052471638, -0.03711564, 0.061917968, 0.07142796, -0.051692735, -0.0627575, 0.032375343, 0.011950564, -0.03721833, 0.018743515, -0.060347576, 0.04667765, 0.005016002, -0.05414706, 0.017709382, -0.036934983, -0.0035403902, 0.038877785, 0.037284866, -0.017685354, 0.034820475, -0.030729456, 0.08575309, 0.026598804, 0.030288426, 0.07784482, -0.014405816, -0.048625067, 0.009674236, -0.06553084, -0.027204165, -0.0033085789, 0.013429274, 0.046200838, -0.036772475, 0.030187765, 0.020286888, -0.032316137, -0.012951947, 0.01356658, 0.043351237, -0.0541039, 0.08966955, -0.04926521, 0.062295612, 0.040729146, -0.050094694, -0.052910015, -0.0316807, -0.027802892, -0.032573007, -0.01905381, -0.076383166, 0.03956899, 0.07003095, -0.055076517, -0.06445026, -0.04037623, 0.083933815, 0.041628648, 0.07043483, 0.09070597, 0.012587077, -0.059095003, 0.06729935, -0.054947656, -0.00037151264, -0.03850517, 0.009201844, -0.05328806, 0.028405748, -0.024967339, -0.047907952, 0.046145935, -0.022087332, 0.035599194, 0.0058969813, -0.060440596, 0.01669822, -0.0074954326, -0.030431073, 0.055170942, -0.04850493, -0.002751623, -0.06540302, 0.03860019, -0.036019787, 0.005636298, -0.023048, -0.052468017, 0.05803396, -0.064522214, 0.059624374, -0.06452199, -0.03972942, -0.006204655, 0.012058591, -0.06603892, -0.07051929, -0.08763425, -0.03696112, 0.059374694, 0.019304764, -0.0036508478, -0.041303515, -0.026468758, -0.020221837, -0.016973346, -0.04300872, 0.011066659, -0.074909404, -0.022646239, -0.061301243, -0.02408356, -0.012686704, -0.025602952, 0.0010859318, -0.04835948, -0.016525079, -0.0072555784, -0.018651659, 0.019562177, -0.048051786, -0.08577969, -0.036827546, -0.06034124, -0.08565965, -0.015235168, -0.061838564, 0.020318855, -0.065119155, -0.05535391, 0.019031964, -0.031575862, 0.041277695, -0.03138666, -0.078710556, -0.12979665, -0.01743229, -0.05863128, 0.04094599, -0.05696767, 0.009576629, -0.14696077, -0.09953428, -0.04551015, -0.07774636, -0.03201048, -0.04624677, -0.07074185, -0.062079597, -0.118668295, 0.0085763605, -0.033121724, -0.04806519, -0.06344843, -0.047457937, -0.0309171, 0.040587872, 0.010898076, 0.041104406, -0.088578485, -0.048196785, -0.029880704, -0.08690449, -0.08109424, -0.063626215, -0.010484306, -0.0260671, -0.048910763, -0.01854406, -0.029530238, -0.08555129, -0.031686507, 0.04273317, -0.055961765, 0.018576073, 0.048117436, 0.008928749, -0.045699168, -0.05955351, -0.03090501, 0.0034824386, -0.06401481, -0.027252626, 0.04893954, 0.014793824, 0.018341163, -0.032327987, 0.032236166, 0.011686497, -0.036589164, 0.033242412, 0.006385885, 0.03540624, 0.03735961, 0.015007304, -0.09330656, -0.0018568002, 0.038174134, 0.01281842, -0.012460669, -0.007674989, 0.008245796, 0.0057392735, 0.022138396, -0.12624647, 0.045622565, -0.040494617, -0.06358349, -0.06744008, -0.044036474, -0.08689948, -0.11410012, -0.15982738, -0.054478895, -0.13231774, -0.064838775, 0.022886228, -0.055781797, -0.10860814, -0.076434724, -0.044229478, -0.0705326, 0.044914983, -0.10193047, -0.037417546, -0.05596571, 0.016716318, -0.048684705, -0.06950339, -0.11132287, -0.017272094, -0.03251659, -0.08940874, -0.090456754, -0.004274303, -0.0791497, 0.05827204, 0.038216982, -0.06675192, 0.008712228, 0.0129841445, -0.0645982, -0.07358728, -0.017692769, -0.037712947, 0.04197297, 0.07982716, 0.0711063, -0.075584665, 0.07376107, -0.038263988, 0.058975477, -0.04462658, -0.041993912, -0.024676632, -0.0357698, -0.05321504, -0.026939927, 0.005580058, -0.0347709, -0.0027122684, 0.00037609632, 0.04738339, -0.06027314, -0.07811011, 0.02588827, 0.047347825, 0.003785242, -0.022869257, -0.06976764, 0.0005399328, -0.08561672, 0.03844885, -0.035771564, -0.051964734, 0.036411464, -0.0023262997, -0.035813205, -0.054922517, -0.009898115, -0.020325813, 0.010441597, -0.055597644, -0.0047957157, -0.018356662, -0.06205375, -0.042585142, 0.005415768, -0.034471553, -0.06886328, -0.07429741, -0.02957703, 0.028672624, -0.062378787, -0.05244294, 0.048148803, -0.029136162, 0.017945198, 0.0007241086, -0.04928416, 0.010568206, -0.08849811, -0.06309722, 0.038708996, -0.07001276, -0.07466183, -0.05023625, -0.06523694, -0.042743303, -0.053847935, 0.020058338, -0.06661613, -0.07291961, -0.10437098, 0.004820322, -0.037525773, 0.03170332, -0.05602955, 0.056645963, -0.028296275, 0.014466625, -0.043152593, -0.0966616, -0.057410754, 0.021267718, -0.07303432, -0.06374652, 0.064790145, 0.019332191, -0.07548977, 0.06881453, 0.037549738, 0.068822905, -0.07111188, 0.02614756, 0.033270337, -0.023714004, 0.012536904, -0.040199313, -0.054375976, 0.032599088, 0.04200308, 0.06764354, -0.022528388, 0.008918847, -0.059867676, -0.07570924, -0.048161574, -0.03329247, -0.07581943, 0.0046837484, -0.020081563, -0.03865926, 0.034509033, 0.022631017, 0.05585058, -0.07826958, 0.046759646, -0.03684944, 0.055887174, 0.01054571, -0.02969874, -0.057724085, -0.039136145, 0.015671404, 0.001212985, -0.04953637, 0.0072894488, -0.04843008, -0.027561717, -0.011291326, 0.06390314, 0.023678754, -0.029262887, -0.021055337, 0.028575229, -0.04468949, -0.05712243, 0.059002243, -0.014321762, -0.06909897, 0.03835549, -0.017629609, -0.0052282712, 0.06703252, 0.07067324, -0.022995405, 0.014612241, -0.052343044, 0.04541385, -0.022279922, -0.05562108, 0.06423805, -0.055555098, -0.020824984, 0.05650413, -0.02098778, -0.06241436, -0.021949606, -0.056693245, -0.0025712175, 0.050937545, 0.059474055, 0.028586548, 0.019446684, -0.004393325, 0.029531488, -0.021600565, 0.0156154595, 0.06200711, 0.010307677, 0.0047433684, 0.06269748, -0.015255247, -0.07411718, 0.03149986, -0.032288983, 0.05290383, 0.015688004, 0.009572538, -0.02027886, 0.06945682, -0.04398477, -0.05017537, -0.013643661, 0.04684727, 0.03204646, 0.059889093, -0.021918675, 0.055007692, -0.059967145, 0.018169256, 0.005481441, -0.03344638, -0.09828975, -0.13627733, -0.08237837, -0.044463784, -0.10361403, -0.07393598, -0.06198739, -0.11623673, -0.020042198, -0.00048402481, -0.06685242, -0.09909135, -0.07084745, -0.067022145, -0.013777124, -0.07797735, 0.017122883, -0.05784518, -0.06079317, -0.06955579, 0.007993398, -0.09462571, -0.15493223, -0.003523762, -0.09087368, -0.06714898, -0.026467873, -0.004500626, -0.029959045, 0.043783307, -0.06170291, -0.07320473, -0.0045105037, -0.03806181, -0.0660629, -0.056420177, 0.047104575, 0.009367736, 0.0011093157, 0.044293754, -0.012564618, -0.038798876, -0.05470473, -0.025515608, -0.075764984, -0.023940114, 0.10416266, 0.022281304, 0.008330491, -0.059593488, 0.03635507, -0.07233498, -0.06253955, 0.044374064, 0.008252474, -0.016438318, -0.036616586, -0.020411678, -0.06519395, -0.022446772, -0.06646082, 0.0475284, 0.0014642259, 0.045771774, -0.13621579, -0.13898799, -0.13552514, 0.062478565, 0.042265967, -0.007963494, 0.11021791, 0.07827579, 0.10785594, 0.01604125, 0.0061221994, 0.15986896, 0.110117696, 0.06026928, 0.019325802, 0.12479322, 0.017343568, 0.12030652, 0.07576992, 0.07507249, 0.018703083, 0.015526068, 0.10072032, 0.25960493, 0.2120743, 0.10998001, 0.09398765, 0.101532005, 0.1598544, 0.09683099, 0.21062352, 0.2727969, 0.113042794, 0.050373375, 0.15784861, -0.0016865111, -0.11940222, -0.06332957, 0.11699119, 0.32765925, 0.23055875, 0.3443298, 0.3188718, 0.2506882, 0.1824152, 0.32343695, 0.32583627, 0.54120547, 0.67759717, 0.6673013, 0.45644024, 0.33402362, 0.21882416, 0.40416956, 0.4748691, 0.48532692, 0.46132287, 0.34544134, 0.115604065, 0.038209748, 0.009740834, 0.07989569, 0.06459588, 0.24906132, 0.11464028, 0.14716174, 0.062647596, 0.060178716, -0.08720414, -0.20651524, -0.09764199, -0.15683748, 0.010167011, -0.119323224, -0.055820193, -0.05849048, -0.15002184, -0.04233086, -0.16414051, -0.04625533, 0.008048954, -0.14020808, -0.10286025, -0.009618302, -0.013084092, -0.10374532, -6.218377E-05, -0.03057925, -0.16890924, -0.17271645, -0.0055444534, -0.036096293, -0.120758355, -0.048983507, 0.08728984, -0.06653031, -0.10196067, -0.1039875, -0.039657094, -0.10438487, -0.023623966, -0.10052537, 0.0131426, -0.13513483, -0.007980085, -0.054113112, -0.030225175, 0.013269788, 0.008046052, 0.0020134146, 0.038770147, 0.12096704, 0.06614703, -0.028961243, 0.03651932, 0.023700077, 0.066450424, 0.073673815, 0.03861848, -0.028254272, -0.09559593, -0.0595838, 0.028111534, -0.011201306, -0.10334161, -0.033342946, 0.01182134, -0.12465583, -0.11066859, -0.10228629, -0.0044241017, -0.14389318, 0.027297255, 0.059374336, -0.068437204, 0.021738963, 0.034461997, 0.11645123, 0.102466315, 0.13332906, 0.24523999, 0.32762033, 0.15370323, 0.25826105, 0.14391017, 0.2351894, 0.029496336, 0.12353128, -0.013039538, -0.08813029, -0.11281659, -0.11028965, -0.08991885, -0.19569008, 0.081912026, -0.2790477, 0.058260467, -0.28078777, -0.36410993, -0.13675751, -0.4705899, -0.16682117, -0.2700897, -0.081459336, -0.15284604, -0.19442981, -0.18914428, -0.18311985, -0.36580858, -0.37552854, -0.13725385, -0.15583272, -0.1688574, -0.23012942, -0.19424063, -0.22170858, -0.28745016, -0.20312183, -0.13616303, -0.1930884, -0.2445764, -0.2013587, -0.09805063, -0.36147597, 0.105274715, -0.37737948, -0.08579059, -0.18779014, 0.036648363, 0.021042237, 0.006031281, -0.02200886, -0.040471986, -0.069448784, 0.02196971, -0.015947001, 0.15179598, 0.18901116, 0.15182322, 0.19264585, -0.012374345, -0.023716679, 0.0023790153, 0.15309349, 0.040390156, -0.094609916, -0.00090306083, -0.0030514244, 0.028387906, 0.047770187, 0.04508929, -0.019759482, -0.07929108, -0.07313582, -0.02166049, 0.006561687, -0.034009166, 0.07389345, 0.053291418, -0.0332671, -0.033209424, -0.055848036, -0.036206856, -0.03176622, -0.019636434, 0.054089114, 0.07041521, -0.019524656, 0.008480843, 0.09836761, -0.08578386, -0.022735696, 0.040938888, 0.019620545, 0.051277176, 0.07847243, 0.066810384, 0.07420459, 0.16520682, 0.0387232, 0.07490601, 0.011188561, -0.0322329, -0.07490544, 0.004867824, 0.113494724, 0.18036728, 0.07639177, -0.07100004, -0.0474471, -0.009022042, 0.03457519, -0.054259453, 0.020140886, 0.121727526, 0.13951439, 0.028876549, -0.0021924914, 0.043686196, 0.15939444, 0.10994117, 0.0731352, -0.06571732, -0.024568187, 0.1014921, 0.19004142, 0.14505598, 0.029640561, -0.037658315, 0.09648282, 0.3426929, 0.60856223, 0.6948128, 0.5772477, 0.49077854, 0.27017048, 0.008319196, 0.010464096, -0.08902159, -0.053576253, -0.14027806, -0.08589599, -0.066641584, -0.080795825, -0.112485185, -0.13012947, -0.084566206, -0.006515542, -0.05727042, 0.013772095, -0.06306038, -0.11680494, -0.114372544, -0.13093598, -0.09385573, -0.13223597, -0.18985228, 
	-0.0020482424, 0.025801942, 0.016860744, -0.04473941, 0.027169462, -0.013494011, -0.045033947, 0.07677347, 0.10704199, 0.0062160427, 0.016678136, 0.020643339, 0.10249443, -0.018226873, 0.046399854, -0.02894856, 0.09355747, 0.030015985, 0.03886989, -0.027966559, -0.0022307716, 0.06046606, 0.10139334, 0.099226244, 0.02528981, -0.048001226, 0.03262189, -0.040652618, -0.037251852, 0.03374073, -0.015535437, -0.02447587, -0.038240552, -0.07250763, 0.068314835, 0.0054736324, -0.061284848, 0.022232464, 0.037401374, -0.06746404, -0.07149197, -0.054716945, -0.06848171, 0.009547626, 0.057207618, 0.039720315, 0.037581954, -0.05057979, 0.07162615, -0.027897434, 0.013677242, -0.04520778, -0.078703284, 0.0017275006, 0.023887947, -0.068450175, -0.0534055, 0.050935064, 0.02328515, 0.06969698, 0.018859578, 0.09484176, -0.005125895, 0.036386758, 0.06840062, -0.0130952755, 0.0074989153, -0.035769273, 0.101697594, 0.065481834, 0.0038512114, -0.006684229, -0.03774303, -0.002271164, -0.049732793, 0.058098413, -0.053215805, 0.011611182, 0.0011450711, -0.084567524, -0.026839525, -0.020520292, 0.0060725515, 0.013368575, -0.08576998, 0.012985438, -0.013376024, -0.06307753, -0.08253598, -0.07001261, -0.011063046, -0.08154835, -0.028397832, -0.09319008, -0.09300801, -0.11550881, -0.039798766, 0.0013476617, -0.002039497, -0.06100989, -0.035719573, -0.09708853, -0.14237438, -0.13507041, 0.0068187243, -0.058053147, -0.1324271, 0.041838374, -0.10045299, 0.007013757, 0.09869042, 0.029333366, 0.039784882, -0.05343787, -0.07349722, -0.1264866, -0.09559259, 0.02528868, -0.051711865, -0.064456, 0.025157418, -0.06758211, -0.043900777, 0.06856474, 0.039995633, -0.03282766, 0.022448821, -0.05204557, -0.13859756, -0.08003093, -0.026076462, -0.0067875003, 0.017467804, -0.06835629, -0.06705097, -0.0071733505, -0.0147931175, 0.0010403434, -0.079022825, 0.003813401, -0.084430546, 0.03032703, -0.036559664, 0.01627338, 0.039197017, -0.08821312, 0.04186693, -0.012034881, -0.065106384, -0.041080195, -0.0019302513, 0.03104979, 0.025309267, 0.009755475, 0.045228865, 0.009122699, -0.078419454, -0.027535396, -0.021479104, 0.009441266, -0.0674236, 0.05259015, -0.010103264, 0.07078647, 0.05622778, 0.0231538, -0.004437878, 0.061652265, 0.019153168, -0.10973182, -0.059169248, -0.044948775, 0.03372683, 0.03175227, -0.020533115, 0.048710227, -0.040229443, -0.0731739, -0.11153988, -0.031146096, -0.055430822, -0.06716205, -0.010541798, -0.08390255, 0.08888837, 0.05860277, 0.0023102385, 0.027816253, 0.0038551262, 0.014006152, 0.014279429, -0.021849984, -0.09657548, 0.025948318, 0.057597697, -0.036696333, -0.048184328, 0.08381123, 0.04230102, 0.08972707, -0.004602303, -0.034672044, -0.0012490054, 0.050401498, 0.021832768, 0.0262358, -0.013949524, -0.06554208, 0.08787112, 0.038392622, 0.1813848, 0.06754655, 0.014305176, 0.03129701, 0.01823377, -0.037315056, 0.00212953, -0.07697828, -0.048886977, -0.026264071, 0.030632755, 0.0624398, -0.012168681, -0.039821353, -0.0344594, 0.0426739, 0.014749476, -0.010569998, 0.069910966, 0.014939029, 0.024138993, 0.020440757, 0.039744973, 0.07855179, -0.0018904482, 0.06946098, 0.0008329221, -0.033434995, 0.0108900955, 0.027170585, 0.057084724, -0.017390639, 0.02387035, -0.036020532, -0.018960651, 0.04885677, -0.065837145, -0.020401614, 0.085264936, -0.070143476, -0.032430165, 0.005923144, -0.0074310247, 0.022760857, -0.04118461, 0.046221726, 0.019659866, -0.083046794, -0.008655343, 0.051332727, 0.053155728, 0.026841844, 0.028427513, -0.010836169, -0.03992198, 0.0025502336, -0.06607633, -0.082612656, -0.057493243, -0.023185348, -0.0381986, 0.034298778, 0.04187365, 0.022502948, 0.032109074, 0.06439346, 0.006363593, 0.06405373, -0.051391035, 0.061374653, 0.04980122, 0.08954462, -0.06044743, -0.038455978, 0.0074839904, 0.033773914, -0.07036909, 0.055815164, 0.015857717, 0.016312208, 0.09517177, 0.05817409, 0.00962939, 0.02229085, 0.07948247, -0.0071517485, -0.0017993394, 0.0043179677, 0.04481834, 0.06900979, 0.09878908, 0.07848428, 0.16219379, 0.09420739, 0.01296599, -0.0028497998, 0.03310885, 0.028157035, 0.017619643, 0.086864226, 0.11267145, -0.0024114042, 0.008773422, -0.06692782, -0.009833004, 0.019741453, -0.033820063, -0.055628203, 0.01467111, -0.027883386, -0.049681142, 0.008897011, -0.018018262, 0.077579856, 0.08646867, -0.028718514, 0.027675029, 0.07389037, 0.0115945665, 0.0003247854, 0.111927055, 0.05451672, -0.0019088379, 0.07528669, 0.013409972, -0.022495924, -0.011999732, 0.006447221, 0.0010425533, 0.02843119, -0.008346263, 0.026485793, -0.033099014, 0.099463575, 0.1031126, -0.010425496, -0.0201512, 0.016701985, 0.06424022, 0.16063748, 0.048291042, 0.096601725, 0.035907697, -0.022872467, -0.026001772, -0.03842814, -0.04437146, 0.059788868, 0.048564028, -0.034860384, -0.015683794, 0.077150784, -0.015218208, 0.039841615, 0.00024946875, 0.07636433, 0.06052127, 0.042755738, -0.028304864, 0.057030182, 0.16762656, 0.08285889, 0.13149649, 0.17518987, 0.13419117, 0.1450836, 0.072224446, 0.1577721, 0.121600546, 0.07661369, 0.0013580646, 0.1036759, 0.062489294, -0.043140445, 0.039021403, -0.03220782, 0.09027122, 0.07276558, 0.18229201, 0.13083202, 0.04801304, 0.11352623, 0.0682856, 0.1124192, 0.1295619, 0.06505265, 0.020942902, 0.038008668, 0.12928434, -0.012611541, 0.04415937, 0.056220032, 0.120813504, 0.012468181, 0.12316386, -0.020089522, 0.08867315, 0.1082149, 0.111416504, 0.064116046, 0.10842695, 0.091972634, 0.03264045, 0.12563856, 0.06980479, 0.102286346, 0.10097588, 0.05376706, 0.07997369, 0.06706803, 0.07694462, 0.006120668, -0.005833526, 0.022248453, 0.07365525, 0.09760005, 0.060445957, 0.0064492617, 0.11286162, 0.05345878, 0.083783455, 0.13317357, 0.13179927, 0.107874915, -0.045884203, 0.05041097, 0.069549665, 0.12226954, 0.1287928, 0.08762455, 0.16986223, 0.1407113, 0.15498938, 0.023048382, 0.0970775, 0.051309034, 0.13711523, 0.01710966, 0.040464118, 0.11040613, 0.013566843, 0.08219999, -0.009606615, 0.118514664, 0.061269227, 0.038057532, 0.12825915, 0.05188938, 0.11605196, -0.01225212, 0.068701655, 0.06228988, 0.066453755, 0.08507217, -0.025194941, -0.052797373, -0.027022522, -0.02334112, 0.075659625, 0.046841435, 0.058830727, 0.03571438, 0.023904575, 0.009813188, -0.003512784, -0.041663084, 0.011168824, 0.0763583, 0.05738844, 0.10122599, 0.020372586, 0.03669097, 0.0594019, 0.077031985, 0.15983748, 0.09985941, 0.05416132, -0.0032895952, 0.030637456, -0.053764727, 0.05019931, -0.01679342, -0.00069770246, 0.05694157, -0.055690527, -0.018027235, -0.009797435, 0.055127326, 0.025295155, 0.06547678, 0.03460337, 0.09373162, 0.022127183, 0.025640247, -0.029989516, -0.034170374, -0.033097092, 0.04359399, 0.049899016, -0.05661775, 0.014084614, 0.0674952, -0.004455239, 0.0793445, -0.03207464, 0.05788868, 0.011639595, -0.00752997, 0.07088583, -0.017130964, 0.06443853, -0.011155447, 0.01607658, 0.03853153, -0.03526598, 0.062547386, 0.13727672, 0.043780662, 0.12428978, 0.025377713, 0.05289522, 0.11015467, 0.1313486, 0.086964786, 0.21368296, 0.20822246, 0.27622372, 0.21134646, 0.22926965, 0.15558356, 0.1461204, 0.0932114, 0.12244233, -0.0063525136, 0.07064186, 0.03297132, 0.08822989, 0.08165922, -0.01657396, 0.0899865, 0.07862728, 0.15236612, 0.022397256, 0.09260152, 0.091237046, 0.0842315, 0.027849661, 0.06212515, -0.056457918, -0.042269014, -0.0073076547, -0.035380095, -0.06357391, 0.061926063, -0.045819744, 0.023819925, -0.074760504, 0.06099978, 0.0045904364, 0.05965281, 0.018653365, -0.03765137, -0.0052761314, 0.024014032, 0.07620893, 0.04862005, 0.04523525, -0.04471153, 0.04473989, -0.026789898, -0.014627199, -0.055748813, -0.06205819, 0.089159064, 0.0866435, -0.04420756, -0.022203932, 0.066659704, -0.01520122, 0.059411403, -0.02953373, 0.07534622, -0.017103555, -0.006261608, 0.08260258, 0.047618072, 0.10406819, 0.07454438, -0.042886626, -0.011500509, 0.06610416, 0.026850123, -0.058821272, -0.027470022, 0.066378586, 0.07343894, -0.021421863, 0.02565669, 0.029069912, 0.090287715, 0.02103771, -0.046380468, 0.078185536, 0.03850601, -0.049774397, -0.03681032, -0.06573336, 0.054721482, 0.03890365, -0.0146438405, -0.05809266, -0.04750157, -0.04908301, 0.05503833, -0.004319863, -0.063301384, -0.04413595, -0.010692428, 0.039495107, 0.040582407, 0.036376942, -0.061802242, 0.057823353, 0.03833394, 0.06850096, -0.010635653, -0.005152994, 0.018636439, -0.029065844, 0.0568198, 0.011513187, 0.031155441, 0.05837222, 0.027512887, 0.07933661, 0.06513119, -0.06981697, 0.077207156, -0.0147242, -0.06003852, -0.024004173, 0.004154155, -0.0021271422, 0.004751418, -0.04815988, -0.05763869, 0.08934409, 0.099318035, 0.0849748, 0.020247588, 0.021129832, 0.20146257, 0.12644285, 0.1661131, 0.26525593, 0.34343353, 0.13630834, 0.19720872, 0.20818023, 0.16775228, 0.13755415, -0.019548738, 0.038788453, 0.040841464, 0.102574155, 0.110729866, 0.18851839, 0.13137758, 0.09315165, 0.1815888, 0.022520065, 0.108475365, -0.011608354, 0.107763566, 0.12963352, 0.25248095, 0.32518983, 0.09670717, 0.09478078, -2.46334E-05, -0.081290185, -0.0013932385, -0.061742626, -0.039196823, -0.036555745, -0.09191394, -0.08507105, 0.014115576, 0.0348512, 0.01748222, 0.14747258, -0.025259675, -0.04464292, 0.019179177, 0.13640295, -0.081056565, -0.066886194, 0.11209107, -0.038233686, -0.05359089, 0.0035320062, 0.0030621407, -0.040643934, -0.031378806, -0.13985513, -0.041716687, -0.15793876, -0.028030219, -0.074444786, 0.014380281, -0.06060982, -0.07284149, -0.15465918, -0.041287202, 0.04446904, 0.019185303, -0.03521173, 0.08635839, 0.07581554, 0.17486139, 0.12471202, 0.006315788, 0.015440836, -0.05270748, -0.021578085, -0.035633434, -0.04495309, -0.1189025, 0.042018797, 0.009204901, -0.032376207, -0.05627776, -0.02034903, -0.08247729, -0.101026125, -0.06641305, 0.0065524396, -0.030477794, 0.023987694, -0.03162836, 0.089422844, 0.4061763, 0.36275807, -0.039226975, 0.067018166, 0.18907154, -0.0063138753, -0.30835795, -0.29477248, -0.06418735, 0.103750706, -0.11607971, -0.22368413, -0.14437932, 0.049739342, -0.15242283, -0.25238007, -0.2967212, -0.26015082, -0.17094499, 0.21410239, 0.24683918, 0.0031802251, 0.06514597, 0.113868125, -0.059435844, 0.10269369, 0.21778256, -0.18654951, -0.021374332, -0.36203155, -0.03229586, -0.11890129, -0.03889391, -0.14412774, -0.06187934, -0.21422563, -0.06352872, 0.0664662, 0.3818996, 0.38367873, 0.3722624, 0.14487661, 0.23649238, 0.09622788, 0.031725332, 0.15418616, 0.08415698, 0.17128842, 0.014239249, 0.20317706, 0.19863085, -0.07085339, 0.16313303, 0.19555093, -0.054856665, -0.07785001, -0.12240449, -0.11341251, 0.010595215, -0.05534494, -0.13752805, -0.047582287, -0.11274613, -0.12619515, -0.04428271, -0.053340368, -0.019706089, 0.08719265, 0.13450924, -0.004516632, -0.11297321, 0.023121774, 0.015728671, -0.104781464, -0.0019085071, -0.14282525, -0.029581059, -0.005547074, -0.13870636, -0.14959809, -0.10989511, -0.11137195, -0.15680486, 0.005549992, -0.066314645, -0.08583195, -0.06598254, -0.049740102, -0.17800607, -0.10120241, -0.26844534, -0.13765167, -0.18305604, -0.15156446, -0.08759943, -0.22644235, -0.046951376, -0.19119442, -0.10676675, -0.19791582, -0.062838204, -0.079094276, -0.15139768, -0.10260537, -0.08077727, -0.053840466, -0.07166974, 0.06292478, 0.13326041, 0.12333385, -0.051070105, -0.09712414, -0.21086271, -0.2045045, -0.17556776, -0.1378062, -0.18405652, -0.21485026, -0.13882908, -0.07772513, -0.23994246, -0.11843778, -0.23623258, -0.07885021, -0.07994476, -0.099377826, 0.15664469, -0.011991301, 0.02849852, 0.049954258, 0.20512609, 0.13440426, -0.06538307, 0.14674024, 0.025445882, -0.21002653, -0.10784863, -0.17756851, -0.0758531, -0.09102782, 0.17781864, -0.01445531, 0.053065438, 0.18372597, 0.281643, 0.29950264, 0.21556923, 0.11242516, 0.15087013, 0.0670589, 0.16949219, 0.24534366, 0.52895355, 0.45541152, 0.35329875, 0.1615133, 0.47153276, 0.4726998, 0.10537278, 0.23584217, -0.08567779, 0.06610544, 0.18582718, 0.0652816, -0.13311507, -0.042931575, -0.17566963, -0.0067089796, -0.21735658, 0.004075507, -0.0687776, -0.2110908, -0.31308126, -0.07925932, -0.24813816, -0.20517959, -0.07730447, 0.087660015, -0.120605566, -0.206728, -0.18167822, -0.16762145, -0.2739308, -0.15602396, -0.19316988, -0.2176052, -0.2167451, -0.25070146, -0.19686225, -0.34504285, -0.21060413, -0.25413847, -0.20234145, -0.27896607, -0.3264922, -0.19415998, -0.21879517, -0.21510603, -0.18322562, -0.23944707, -0.15891817, -0.15727358, -0.23455137, -0.1463252, -0.10635785, -0.16072986, -0.14933234, -0.13759872, -0.11688551, 0.108309455, 0.07490163, 0.15416797, 0.10114236, 0.12300354, -0.035962418, -0.058572788, -0.06966598, -0.19485055, -0.18060543, -0.24875951, -0.09235704, -0.20598456, -0.14542495, -0.16494069, -0.08093843, -0.070171304, -0.033089604, -0.068729036, -0.074903786, -0.04456041, -0.17922853, -0.19962159, -0.13670005, -0.17249532, -0.16457368, -0.1590804, -0.046076927, -0.0880855, -0.017171523, -0.09252985, -0.031686675, -0.05416558, -0.11668714, -0.13266134, -0.16325533, -0.13230689, -0.17927195, -0.11355276, 0.0063906456, -0.08291051, -0.12189637, -0.04211115, -0.04294636, -0.08402633, -0.019396769, -0.06536597, 0.0084457155, -0.01443705, -0.104013816, -0.11894361, -0.15614574, -0.07162756, -0.12868044, -0.19165409, -0.19866961, -0.13941032, -0.123323224, -0.21479958, -0.13381544, -0.19120786, -0.21574214, -0.17098114, -0.21313778, 
