// ==============================================================
// Vivado(TM) HLS - High-Level Synthesis from C, C++ and SystemC v2019.2 (64-bit)
// Copyright 1986-2019 Xilinx, Inc. All Rights Reserved.
// ==============================================================
# 1 "/home/gigo/neural_net_HLS/solution1/mylib.c"
# 1 "/home/gigo/neural_net_HLS/solution1/mylib.c" 1
# 1 "<built-in>" 1
# 1 "<built-in>" 3
# 149 "<built-in>" 3
# 1 "<command line>" 1
# 1 "<built-in>" 2
# 1 "/home/gigo/neural_net_HLS/solution1/mylib.c" 2
# 1 "/home/gigo/neural_net_HLS/solution1/mylib.h" 1








extern const float w1[];
extern const float b1[];
extern const float w2[];
extern const float b2[];
extern const float w3[];
extern const float b3[];
extern const float w4[];
extern const float b4[];
extern const float w5[];
extern const float b5[];
# 2 "/home/gigo/neural_net_HLS/solution1/mylib.c" 2
const float w1[] ={
 0.052209232, 0.13380703, -0.015345627, 0.018534316, 0.029386243, -0.018613303, -0.06323415, 0.038436998, 0.257378, 0.23222145, -0.0054044975, 0.10020744, -0.0651582, -0.054017797, 0.10561324, -0.082180895, -0.07794384, 0.034796666, -0.027112301, -0.008986629, -0.058477327, -0.018055972, 0.08556328, -0.079250894, 0.082320355, 0.0015816394, 0.11785587, 0.017498653, 0.1001342, 0.02125693, 0.10727575, 0.07405944, 0.0027027293, -0.0802402, 0.09250097, 0.087342, -0.003857898, 0.04176617, 0.0469712, 0.10165272, 0.097097084, -0.0401643, -0.047213305, -0.0019850584, -0.048051756, -0.018240333, 0.0354428, -0.03740376, 0.09876029, 0.12327034, 0.03453324, 0.09600219, -0.030394088, 0.07147665, -0.00028152185, -0.0077087423, -0.057153236, 0.051258616, -0.042837784, 0.08713478, -0.06582527, -0.07430466, -0.048390776, 0.06417853, 0.051265594, -0.081718445, -0.026231334, -0.07763022, -0.1166424, -0.10085338, -0.12081396, 0.056699447, 0.039069463, -0.075916484, 0.02996332, -0.024077145, -0.014996064, -0.14776689, -0.07845445, -0.1199994, -0.13517152, 0.030100698, -0.008155639, 0.06703554, -0.18273419, -0.111200474, -0.12840901, -0.062086772, 0.025390785, -0.079981886, -0.088557735, -0.08052909, -0.045494255, -0.10838084, -0.1759078, 0.020952813, -0.14500953, 0.08564312, -0.0042701056, -0.019828048, -0.021081153, -0.06803328, -0.045553558, 0.02341505, 0.026827088, 0.06258815, 0.014303071, 0.07025767, -0.13335443, -0.001544886, 0.08659397, 0.09283629, 0.07444444, -0.04249893, 0.0021202, -0.0114060445, -0.120508395, -0.11223149, 0.02341894, -0.11370972, 0.07869842, -0.063503355, 0.1132345, 0.05096324, 0.04758944, -0.11017942, -0.00048069618, -0.062658414, -0.050992206, -0.12768383, -0.013136048, -0.018932078, 0.024412014, 0.024686625, 0.031950336, -0.15203252, -0.014373216, -0.01340646, 0.024299374, -0.061450902, -0.06366719, 0.011584473, -0.029490214, -0.033416715, -0.08088062, 0.08811898, -0.018711392, 0.012012388, 0.096416704, 0.04173779, -0.09882951, 0.064163186, 0.024426997, -0.05675112, -0.063931614, -0.11868058, 0.06831422, -0.10055319, 0.0056747226, 0.06110076, -0.052775066, 0.08354477, 0.042165015, 0.009703969, 0.0428566, 0.06594408, -0.025020145, 0.016915342, 0.015736334, 0.071053885, -0.043934282, 0.015201835, 0.0125833005, -0.08084577, -0.089321405, 0.121960774, -0.045914847, 0.064753726, 0.010172378, 0.04624283, 0.05381763, 0.080716416, 0.0325575, -0.03412865, 0.0038355235, -0.027172083, 0.111474484, 0.050277784, -0.058683254, 0.0048656478, -0.048871756, -0.059320733, 0.083789356, -0.06660453, -0.026170736, 0.034977484, -0.0021762822, 0.07840034, 0.07357431, 0.18154377, 0.18020542, 0.099550635, 0.038890786, 0.014479655, 0.062579274, 0.019046662, 0.021417255, 0.032447394, 0.003499131, 0.07080251, -0.014539696, 0.06551387, -0.08022227, 0.061760526, 0.050930027, 0.0035395543, -0.067611665, 0.12374062, 0.06761684, 0.07238801, 0.061899267, 0.028726812, 0.040995765, -0.05028853, -0.0740888, 0.07574317, -0.013575419, -0.015114115, -0.09529975, 0.07378993, 0.0024943957, -0.048229102, -0.119976595, 0.00091992406, 0.0921927, -0.03747792, -0.046467118, -0.032942254, 0.089228965, -0.031020926, -0.10203619, -0.008643994, 0.00544209, -0.02043888, -0.07577047, 0.060716096, -0.061056033, 0.017220372, 0.041159857, -0.062271196, 0.11973157, -0.013936653, -0.053628836, -0.038561434, 0.07370887, 0.06673935, 0.00921665, -0.09282134, 0.07409811, 0.039289694, -0.035427757, -0.053166024, 0.02413898, 0.01914381, 0.108247794, -0.065663755, 0.095106624, 0.055310912, 0.023552272, 0.0016352201, 0.014936081, 0.07691804, 0.0691853, -0.008388567, -0.09335476, -0.071821794, 0.1141329, 0.09590078, 0.07697035, -0.01239135, -0.078573756, 0.11076046, -0.024982514, 0.02360558, 0.028180089, 0.017889744, -0.031977594, 0.036349777, 0.10113777, 0.12099203, -0.06833788, -0.07471077, 0.050440274, 0.0036595073, 0.015568008, -0.06453074, -0.005909266, 0.10516811, -0.027335037, -0.09256716, -0.06175829, 0.110825844, 0.004163312, 0.08927132, 0.0910677, -0.088818766, -0.08471185, 0.04634711, 0.11379939, -0.06842433, -0.04581331, -0.06633825, -0.025884863, -0.023086125, 0.052097585, -0.018287912, -0.030598681, 0.07093415, 0.005387713, 0.04353569, 0.09293728, -0.08836376, -0.040078867, -0.06183692, 0.112703584, -0.010700061, 0.05523932, 0.081002414, 0.028109381, 0.11862446, 0.090150446, 0.12944055, 0.1363028, -0.06513705, 0.031459864, -0.0043633822, 0.029843727, 0.043440536, -0.017446814, -0.06276068, 0.060460296, -0.086694665, 0.09624727, 0.07624588, 0.08800064, -0.06386412, 0.03926109, -0.025413616, -0.045826524, -0.03170002, 0.10210992, 0.13441886, -0.01802362, 0.07682606, -0.01128012, -0.013295275, 0.03744564, 0.0003708118, 0.043342397, 0.04583388, 0.110457264, -0.018174676, -0.053551666, 0.041903727, 0.023114879, 0.025061835, -0.06829328, 0.011559926, -0.08648678, 0.027599594, 0.007325257, 0.083925486, 0.040514704, -0.013221965, 0.042839598, 0.017119814, 0.060084544, -0.047890745, 0.08692228, 0.0972116, -0.004222028, 0.04348332, -0.008520797, 0.039729867, 0.10884477, 0.11095698, 0.08657039, 0.0028795605, 0.06691571, -0.0640195, -0.043376695, 0.21692486, 0.08164598, 0.03639382, 0.034937743, -0.025677843, 0.056799863, -0.0023488, 0.013919443, 0.054971177, 0.10182075, -0.037206225, -0.012840117, 0.08385475, 0.095697656, 0.10376851, -0.05483814, 0.108434565, -0.08448753, 0.01809373, -0.07854627, 0.08885168, 0.13583636, 0.120552495, 0.04612912, 0.07038538, 0.018817952, 0.025045356, -0.04408703, -0.014485464, -0.09174064, 0.072754845, -0.0049750106, -0.094191164, -0.069973424, -0.030340396, -0.06274938, 0.06787228, -0.047001105, 0.099399574, -0.05783949, 0.02006216, 0.034103148, 0.09324976, -0.085880086, 0.021587623, 0.10524498, 0.07536919, -0.009291788, 0.025416695, 0.11690723, 0.017106025, 0.1362198, 0.10590422, -0.014740325, 0.048464466, 0.11156567, 0.0221588, 0.06464568, -0.08293581, 0.08147031, 0.06676941, 0.017219199, 0.002630797, -0.0741339, 0.007778053, -0.021620454, 0.0260827, 0.10556728, 0.06870449, 0.019841896, 0.058555994, -0.09252918, -0.0030391845, 0.029379843, -0.040030643, -0.02587186, -0.08156616, -0.04226868, -0.07452848, -0.08224458, 0.0028166838, -0.0017934616, -0.023056714, -0.074851654, 0.052935347, 0.10018735, 0.11734514, 0.07290926, -0.02458253, -0.07809223, -0.06393367, 0.114285834, 0.047704816, -0.022129769, -0.06843671, 0.13963968, 0.0014450424, -0.05050108, 0.015532194, 0.08699573, 0.10181476, -0.056842387, -0.055115685, 0.023441445, 0.086824566, 0.14585415, 0.09344412, 0.09071743, -0.009530079, 0.03578286, -0.030829873, -0.028907068, 0.10012669, 0.08784508, -0.012190971, 0.1603482, 0.14503501, 0.112230316, 0.028079014, -0.06316289, 0.13016546,
 -0.081832536, 0.065123245, 0.16062069, 0.006866307, 0.04405468, 0.07387377, 0.13052563, 0.14557053, 0.2941836, 0.1404979, 0.14062566, -0.033500314, -0.05388343, 0.09315256, 0.01171069, -0.08498202, 0.020684479, 0.012416494, 0.11738745, 0.07500667, 0.06627565, 0.05391526, -0.08310918, -0.019424116, 0.038763348, 0.059861086, -0.001125673, -0.021148967, 0.03374073, -0.007879289, 0.02672718, -0.052007988, 0.017678753, -0.0006823701, 0.09659476, -0.0038724649, -0.027435223, -0.038860235, -0.08819278, -0.052013874, -0.08177718, -0.091322176, 0.037209682, 0.05853241, 0.0075167893, 0.039101068, -0.0018781561, -0.061993103, 0.06788489, 0.122001454, 0.031681884, 0.019220283, 0.066019304, 0.020554958, -0.06893944, 0.056176327, 0.100186296, -0.089870885, -0.021693746, -0.052721404, -0.0030111966, -0.042613085, -0.031887162, -0.068825886, -0.071384914, -0.015513276, 0.054086097, 0.057992116, -0.018094067, 0.035941143, 0.026804695, -0.106378324, -0.11868318, -0.041162055, -0.047992036, -0.053658277, -0.042902116, -0.008048529, -0.05395896, 0.05059136, 0.009296013, -0.02358793, 0.034652177, 0.07744846, -0.06814649, -0.1340544, 0.035676368, -0.09403912, 0.006360548, -0.041564316, 0.02179582, -0.019841602, -0.11040056, 0.020883866, 0.063580126, -0.12332958, -0.11914683, -0.15932329, -0.14516826, -0.02476151, -0.07906046, -0.15847251, -0.0020704523, -0.04701091, -0.0020915463, -0.10643435, 0.03563357, -0.030610554, -0.050659996, -0.025097173, 0.110079885, -0.010723718, -0.072616726, 0.0049981126, 0.06522184, -0.07076534, -0.0007768214, 0.049562566, 0.017551247, -0.13765821, -0.006904297, -0.01557511, -0.022086535, 0.061435793, -0.0707163, -0.11813953, -0.04027222, 0.010572421, 0.04351109, -0.11708114, 0.04218471, 0.02094309, 0.0022456478, -0.08457894, -0.019405652, 0.06155566, -0.060482014, -0.027486965, -0.092585854, 0.015678203, 0.005231007, -0.09991965, -0.0020999203, 0.07502168, -0.07517397, -0.029700698, 0.09345085, 0.05896463, 0.08322316, -0.036655046, 0.024769127, 0.014048493, -0.07934555, -0.013566772, -0.08716935, 0.07741289, 0.089290276, -0.060944796, -0.042869564, -0.061229628, 0.029699877, -0.076338984, -0.012701213, -0.042565107, 0.050359484, 0.11823206, 0.11618101, 0.06056406, -0.10484496, 0.011777446, -0.09906605, -0.099322066, -0.06065098, -0.034414373, 0.02184104, 0.00653562, -0.009149742, -0.06265342, -0.047365047, 0.045824893, 0.07747144, -0.11187682, -0.039657578, -0.048128936, -0.045281816, 0.0009912901, -0.0022033218, 0.11012439, -0.080876574, -0.07928636, -0.024941811, 0.0015230781, 0.026489925, 0.032983806, 0.021535173, -0.04596161, 0.12887275, -0.0213188, 0.108219594, 0.16752994, 0.11618594, -0.0451606, -0.062561296, -0.034945156, -0.034492075, 0.03807035, 0.11892729, -0.04090057, -0.021744797, 0.11600436, -0.0039083157, -0.042548053, 0.011834857, 0.09384342, -0.041355133, 0.023459872, -0.08850124, 0.118303835, 0.009183565, -0.058114, 0.14412022, 0.020354394, 0.07412403, 0.07242504, 0.016711442, -0.073540084, -0.019695727, -0.04930655, -0.042684276, -0.05719926, -0.09538594, -0.04284458, -0.06467223, 0.011788573, -0.082674354, 0.033439886, 0.100295, 0.08472199, 0.033994474, -0.11280743, -0.045284636, 0.038529947, 0.032477316, 0.072573066, 7.814309E-06, 0.09635824, 0.10327857, 0.036883503, 0.034751303, -0.06537938, -0.044077538, 0.071725704, -0.017718568, 0.040451072, 0.013883175, 0.03909126, -0.010645274, 0.002424638, 0.048323423, 0.041825797, 0.0439585, -0.0010799594, 0.016244387, -0.060183886, -0.05866966, -0.098005205, 0.09147636, 0.07532149, -0.080059275, 0.07933222, -0.04014042, 0.071711265, -0.018277446, -0.01073785, 0.09014122, 0.07784164, -0.028886797, -0.027302632, 0.09717718, -0.022388285, 0.1085494, 0.035269465, 0.07200178, 0.020083437, 0.036300704, -0.042612903, -0.068356946, 0.05692718, 0.008835878, -0.07045805, -0.036319572, -0.06344555, 0.07151726, -0.030607946, 0.120460644, -0.020438075, 0.075121, 0.0067309993, 0.077687904, 0.086614504, 0.004568269, -0.0012940279, -0.08898231, -0.076389216, 0.073996074, 0.08402486, 0.08873603, 0.026377643, -0.008177736, 0.03382403, 0.021526106, 0.12094901, -0.06082359, -0.060200233, 0.09570642, -0.0596028, -0.0886946, -0.082239054, -0.060673825, 0.0029966368, 0.006862631, 0.06849603, -0.0056105643, -0.029457109, 0.12913643, 0.07770085, 0.07423081, -0.021922078, 0.04178135, 0.075430125, 0.062758185, 0.1408958, -0.03417719, -0.04838021, -0.041314043, 0.03862196, 0.00938354, 0.10830747, 0.11868323, 0.07770607, -0.04568307, -0.0035480862, 0.06800364, -0.047769833, -0.097445175, 0.0057435893, -0.031654533, 0.108538106, 0.13461916, 0.07320473, 0.0076985513, 0.08114814, -0.0071352134, -0.029052574, 0.09806331, 0.03494037, 0.1007095, -0.04314741, 0.107407644, -0.09480072, 0.06953334, 0.105825245, -0.06761137, -0.08903265, -0.07955086, 0.031149572, -0.065222435, 0.08079395, 0.069753624, 0.08395521, -0.048235487, 0.06789914, -0.024012877, -0.07216785, 0.09856883, -0.087914914, -0.074545816, 0.012152803, -0.03510186, 0.047325194, 0.09706566, 0.053581435, 0.05124886, 0.10137888, 0.10411695, -0.077083476, 0.07341072, -0.08072236, -0.037342414, 0.11469834, -0.010219101, 0.116493076, 0.112365104, 0.0757412, 0.13012324, 0.07619515, 0.059819736, 0.0017917271, 0.08120015, 0.10353314, -0.029829636, 0.052974433, -0.012411468, 0.030236116, -0.086079344, -0.08738854, 0.086563736, -0.09441291, -0.017611042, 0.023222668, -0.06394141, 0.09989808, -0.008272586, 0.013601842, 0.112068616, -0.049719676, 0.029678004, -0.056398686, -0.09922392, 0.050052434, -0.02363452, 0.0042454503, -0.092206776, 0.042815745, 0.003307118, -0.039887674, -0.021677965, 0.045228288, -0.05964453, -0.047574855, -0.06444557, -0.08234282, 0.09509907, 0.048762035, -0.02997894, 0.035518613, -0.047147747, 0.023622042, 0.06699452, 0.06357704, 0.024721418, 0.12311788, 0.12788731, 0.0800495, -0.054398164, -0.049350526, -0.020186046, 0.09227215, 0.015326528, 0.0035979007, -0.015628748, -0.051823393, -0.05284432, 0.09760742, 0.06341592, 0.04084194, 0.069548294, -0.0053799613, 0.015338963, -0.009749168, -0.01544525, 0.04288195, 0.098999925, -0.075545326, 0.016777635, 0.07076375, -0.07285974, 0.06467005, 0.096023865, -0.052688405, 0.078926764, -0.014121764, -0.048171267, 0.096830025, 0.10395556, 0.052647036, -0.07125135, -0.044824556, -0.058769945, 0.0067026014, 0.09927789, 0.0495463, 0.022272084, 0.07574534, -0.04925927, 0.08869735, -0.050257597, 0.082003176, 0.0645426, 0.098938495, 0.12815164, 0.08530619, 0.014223849, -0.013028068, 0.07333759, 0.060077555, 0.018339273, 0.05015479, 0.09574762, -0.0369122, 0.12816925, 0.11049408, -0.035944015, 0.084449634, 0.035744533, -0.045771368, 0.13770816, 0.08243106, -0.044862702, 0.020960135, -0.04240847, -0.0374029,
 0.036863882, -0.10036081, -0.18060333, 0.011873998, -0.06838947, -0.10634212, -0.1269955, -0.13161622, -0.43129718, -0.20152386, -0.21843442, -0.13789733, -0.012780835, -0.08481633, -0.029090207, 0.044700257, -0.11708633, -0.03688416, -0.018615728, 0.08592223, 0.018013624, -0.06953794, -0.12481199, -0.12891449, -0.08877545, -0.03783015, 0.046413697, -0.091379024, -0.072955295, -0.023141168, 0.018735804, 0.0077903913, 0.05599797, -0.061749578, -0.02839619, -0.1047812, -0.10045974, -0.06110548, -0.05021978, -0.065994576, -0.12397177, -0.10601738, -0.03363353, -0.058041874, 0.05883398, 0.015092495, -0.039307598, 0.062174007, 0.07447442, 0.0049072234, -0.12635843, -0.09103961, -0.046276532, -0.030192045, 0.005160821, 0.03986428, -0.063481, -0.013980571, -0.023408452, 0.093384326, 0.0060832864, 0.055042904, 0.07747703, 0.030142304, -0.022504333, 0.124237195, -0.03510165, -0.004027986, -0.0004351846, 0.031092374, 0.13550857, 0.022865772, 0.11818898, -0.075686544, 0.041729018, 0.12603007, 0.1348049, 0.07385711, 0.13373944, 0.15502326, 0.07651059, -0.026737107, -0.033347923, -0.020385424, 0.031064518, 0.0032524918, 0.195559, -0.03655141, 0.06641569, 0.12229453, 0.08392286, 0.11603554, -0.059504427, -0.046992544, -0.024332715, 0.08697667, -0.030606722, -0.0561645, -0.021905996, -0.0108452225, 0.0804084, 0.0067379945, 0.08714528, 0.14345482, -0.019583387, -0.033284694, 0.04365687, 0.05912543, 0.0073584793, 0.115182936, -0.07524056, -0.04393555, -0.08083277, 0.054172352, 0.14240652, 0.025249695, 0.116748825, 0.18174337, 0.09200211, 0.13658193, 0.0847693, -0.019628558, -0.023168553, 0.16682123, 0.022139316, 0.12520294, 0.16557093, -0.089087404, 0.003497813, 0.02666034, 0.059329443, 0.02765975, 0.044655588, 0.16453685, -0.029955994, 0.053273592, 0.1268124, 0.10350747, 0.16854759, 0.051975835, 0.018886637, 0.1333735, -0.08221721, 0.018661782, -0.07122822, 0.05565466, -0.018347047, 0.010162088, 0.037457947, -0.08867268, -0.021988267, -0.018378275, 0.03066425, -0.043793127, -0.008092769, 0.06592169, 0.086830534, 0.073777705, 0.05180699, -0.015265237, -0.0023623945, -0.072858065, -0.12439911, -0.06206292, -0.08265769, -0.029250799, -0.085751556, -0.09357075, -0.07242536, 0.12361589, 0.122298844, 0.09272557, -0.06468397, -0.007260504, 0.06282276, -0.11289357, 0.06894619, -0.1023841, 0.012631265, 0.007071426, 0.12166746, 0.023256319, -0.025437431, 0.055259965, -0.038655177, -0.035387315, -0.07435401, -0.06154259, -0.088700615, 0.13114242, -0.04480959, -0.09565585, -0.07467336, 0.05336271, -0.07787072, -0.07213598, -0.015972614, 0.0061614616, 0.017570786, -0.24463041, -0.07385134, 0.096800074, -0.10211958, -0.07850238, -0.107825436, -0.010814108, -0.1894411, -0.053857047, -0.051123288, 0.051038675, 0.010146586, -0.079770416, 0.07666955, -0.11689523, -0.07672296, -0.15702099, -0.05186226, -0.11794153, -0.038729914, -0.028226728, -0.11322101, -0.04307051, -0.056039415, 0.07178823, 0.082807235, -0.058867507, -0.002468232, 0.08908644, -0.054432, -0.031418663, 0.12076383, 0.048337724, 0.07624483, -0.05293321, 0.09497813, -0.05554683, -0.086632736, 0.016108885, 0.109658174, 0.021210201, 0.0079781795, 0.030167509, -0.05981514, -0.028340647, -0.040879685, 0.0019343095, -0.04117803, -0.17527568, 0.013346317, -0.029447144, 0.070899464, -0.03070524, -0.031060249, 0.06348963, 0.081860945, -0.09575866, 0.06767745, -0.020394403, -0.0155571615, -0.11597848, 0.011438628, -0.057005107, -0.1079371, 0.07078077, -0.06919348, 0.025489062, 0.0045403605, 0.005257535, -0.078100294, -0.0087433215, 0.035480324, -0.015563845, 0.03281429, -0.01882039, 0.02277329, 0.0642642, -0.100551955, -0.10230291, -0.022085318, -0.039375775, 0.01844873, -0.06040002, -0.10596585, -0.025875844, -0.105902344, -0.11689056, -0.071164794, 0.06206624, -0.07346314, 0.042725924, 0.02862764, -0.058025263, -0.1059482, -0.06551339, -0.06702436, 0.0114611965, -0.06704082, 0.072838, -0.08880773, 0.060132273, -0.01904236, -0.015625142, -0.0994422, -0.057314355, -0.05952761, -0.08327646, -0.072235644, 0.0015843806, -0.09313838, -0.03138835, -0.016162906, -0.115702815, -0.06209684, 0.052181147, -0.023526963, -0.10336952, 0.020771658, 0.024935782, -0.011303933, 0.067362085, -0.068353094, -0.04615127, 0.053837404, -0.09470872, 0.033569578, 0.030671434, -0.023986444, -0.15095277, -0.08702072, -0.1712879, -0.05737711, -0.18960299, 0.023202503, -0.14450482, -0.027622359, -0.09519935, 0.030092984, -0.08582202, 0.030182406, 0.009475883, 0.024799177, -0.0992425, -0.0076193637, 0.010172353, 0.046837687, 0.037247416, -0.13595732, -0.11932848, -0.13076672, -0.019723706, -0.11544489, -0.03157249, -0.1119493, -0.04480719, -0.009366001, 0.010571557, -0.072726086, -0.10790758, 0.019408733, -0.054513548, 0.07139625, -0.05420744, -0.08589118, 0.033584613, 0.09941258, -0.07970498, 0.02451832, -0.0042783692, 0.009610904, -0.06663564, -0.09586516, -0.028849544, 0.063924894, -0.042733673, 0.058921892, -0.08022345, -0.026937427, -0.10211975, -0.049412787, -0.09308292, -0.08347398, 0.016577743, 0.070350155, 0.019850124, 0.04977787, -0.0678293, -0.022004187, -0.06925824, -0.09689718, -0.103781104, -0.17785878, -0.2101224, -0.1885509, -0.15173925, -0.028268086, 0.010711378, -0.056710877, -0.12380583, -0.055126607, -0.019582596, -0.022281075, -0.09034959, -0.045532227, 0.08641198, -0.046077445, 0.031942468, -0.049929745, 0.08003134, 0.0004062061, 0.041640583, -0.08418455, -0.11617549, -0.13394524, 0.06390126, -0.011231987, 0.031590804, -0.093530074, -0.123612106, 0.04119374, 0.07462607, -0.07952517, 0.029441236, 0.019332865, -0.04281375, -0.08519503, -0.09266549, -0.13146846, -0.0057103136, -0.09461678, 0.030041533, -0.011036323, -0.0048219156, -0.048191305, -0.047768325, -0.058461454, 0.00042640706, -0.016575024, -0.041348916, -0.035364028, -0.16012669, -0.021481534, -0.05462839, -0.08005354, -0.082146734, -0.135347, -0.084655985, -0.1257347, -0.081896156, -0.01496059, -0.008908348, -0.10258663, 0.029809322, 0.017639287, -0.049509317, -0.011910159, -0.041819368, -0.09881654, -0.086909294, 0.012503797, 0.061781146, 0.032080445, 0.03162974, -0.054195672, -0.081777796, -0.027752232, 0.04365407, -0.10565367, 0.0017701344, -0.07468412, -0.11716332, -0.11356512, -0.004787008, 0.01764655, 0.081700094, -0.07209056, -0.1288653, -0.06466295, 0.0008264611, 0.030382687, 0.032508593, -0.0059648976, -0.08828837, -0.08789525, 0.059978336, -0.12328998, 0.023011565, 0.027957276, -0.11304957, 0.07498631, -0.057348624, -0.09017912, 0.015091956, -0.12605308, -0.0077491044, -0.028649988, -0.06204009, -0.16543067, 0.0109568015, -0.17205228, -0.11485513, -0.09202369, -0.16835493, -0.09313798, -0.076578684, 0.05093546, -0.1396393, -0.05392769, -0.14221723, -0.025487464, 0.05073031, -0.09339467, -0.061892044,
 0.020634133, -0.08322184, -0.025696259, -0.021269197, -0.044487417, -0.102440625, -0.04777851, -0.15052046, -0.27353832, -0.023190811, -0.10476032, -0.10638312, -0.004415396, 0.025785377, -0.051677153, 0.01568307, 0.014336944, -0.0030136318, 0.067870714, 0.08421046, 0.01982862, -0.04399996, -0.007462137, 0.079868816, 0.06877222, -0.101755776, -0.08621332, -0.08075765, -0.019278027, -0.08632184, -0.00092599867, -0.06680018, -0.026713643, 0.0746117, 0.055084243, 0.044245277, -0.066018306, 0.05279209, 0.051701903, -0.01667111, 0.074603766, -0.061157126, -0.0051169232, 0.001796228, -0.110392965, -0.0058773337, -0.09890956, -0.030075787, 0.066652656, 0.07672454, -0.08236677, -0.0929087, 0.023126088, 0.037432034, 0.035549805, -0.0889626, 0.09275359, 0.045007393, 0.042023063, -0.028370505, -0.08933655, -0.027152013, -0.052684933, -0.020248806, 0.00031439037, 0.116277374, 0.11983339, 0.13475594, 0.099455416, 0.13423492, 0.06772585, 0.053572576, 0.09915092, 0.055045445, -0.06702922, -0.041327123, 0.032511506, -0.009858003, 0.111424536, 0.14024845, -0.026104525, -0.032236416, -0.05774987, -0.057383165, 0.18746617, 0.074392036, 0.115982965, -0.02261277, -0.08530387, -0.030131333, 0.1344054, -0.005890466, 0.11784119, 0.053846516, 0.13415833, 0.12509587, 0.0145829115, -0.041537628, -0.021877354, -0.07058386, 0.13105129, 0.0005093267, 0.05130337, -8.581113E-05, 0.015586873, 0.0020925829, 0.011010184, -0.055552773, -0.026081739, 0.10980086, -0.10968821, 0.009524936, 0.06499412, -0.032319333, 0.031666312, 0.054303233, 0.111446165, 0.101075806, 0.04247374, 0.11913046, -0.108683504, 0.12425875, -0.09816149, -0.03366973, 0.082425736, 0.044370774, 0.0486934, -0.05711912, 0.14767325, 0.13391234, 0.074690506, 0.06708786, 0.07592606, 0.0037807624, 0.058889654, 0.056412425, -0.044475287, 0.029460797, 0.12343013, -0.007012388, 0.030051759, 0.08787905, -0.026397059, -0.056555882, 0.008156457, 0.09170021, -0.07743023, -0.13430645, -0.022104358, -0.049605086, 0.08382765, -0.05662594, -0.0023804342, 0.045514226, -0.031800527, 0.05474346, 0.1053415, 0.085437916, -0.03603976, 0.010571644, 0.09577602, 0.05384953, -0.06943028, 0.069737844, -0.073810786, -0.11444977, -0.08183538, 0.044518027, 0.0011799324, 0.08263836, -0.015939549, 0.07763238, -0.06560773, 0.06714683, 0.084161855, 0.0017634464, -0.09422952, 0.001964359, -0.026634878, 0.032171905, 0.12197146, -0.023305137, -0.00772743, -0.09014466, -0.120089285, -0.023333887, -0.010323105, -0.10619472, -0.015464612, 0.076178595, 0.092025764, 0.027340366, 0.0074638166, 0.042705096, -0.1221822, 0.04589577, 0.055003606, -0.060571525, 0.033204924, -0.058807194, 0.03295072, -0.044938073, 0.07473318, 0.029502962, -0.055892278, -0.012788292, 0.0053916685, 0.10752664, -0.052673046, -0.12711672, 0.022979688, 0.0045994376, 0.03623641, -0.059113886, 0.01596451, -0.024702659, -0.094705, -0.034567516, -0.080914386, -0.0590296, -0.084112, -0.08979884, -0.0752611, -0.055610582, 0.11829902, 0.06195431, -0.01178194, 0.04513906, -0.021456392, 0.11773823, 0.10081217, 0.01199997, -0.026592132, -0.006197782, -0.02605627, 0.054833762, 0.0051305704, -0.07030085, -0.0857484, -0.07691049, -0.016931647, -0.012495932, 0.00641696, -0.079047404, 0.061074108, 0.032865785, 0.027985966, -0.16431494, -0.007479552, -0.11691507, -0.065235846, -0.11086378, -0.0453473, -0.037270002, -0.031194352, 0.08419287, -0.057817128, 0.05816289, -0.10741713, 0.06248632, -0.029939659, 0.035443295, -0.028015079, -0.008659817, -0.002927889, 0.052786637, 0.06893055, -0.059761133, 0.015361726, -0.038666036, -0.036638, -0.027254963, -0.018255403, -0.005530598, -0.027519152, 0.0032373748, -0.07070029, -0.045516856, -0.05872468, -0.077468745, -0.06363135, 0.03820591, -0.06802658, 0.042757675, 0.039968524, -0.053283308, -0.070741504, -0.02676523, -0.015784182, -0.034327213, -0.100481965, 0.0077544344, 0.03379244, 0.034667235, -0.014946697, -0.033028312, -0.019855501, -0.04164498, -0.088254176, -0.038286738, 0.03796014, 0.047921345, -0.10779733, -0.028702635, 0.06458963, -0.029758684, -0.017206095, -0.11415407, -0.06883378, -0.043265697, -0.090550676, 0.037037004, 0.048148584, 0.088060595, 0.034913, 0.06612393, -0.102763645, 0.06819348, 0.087091625, -0.117583394, 0.06993874, -0.08369396, 0.0558529, -0.11958927, -0.07047597, 0.026925256, -0.016866619, 0.02103952, 0.00208772, -0.11741302, -0.17901465, -0.050900493, 0.0067730523, 0.0072539574, -0.14905559, 0.041512765, -0.08027524, 0.018092886, -0.1230062, -0.10653568, -0.037804026, -0.11700349, 0.025921203, 0.009803803, -0.027119903, 0.029117135, -0.03917494, 0.017723609, -0.14418103, -0.019650016, -0.08608769, -0.0047657895, -0.037553545, 0.0040728142, 0.046758525, 0.024511147, -0.05579559, -0.06631786, -0.02338846, 0.020984374, -0.031496402, 0.068785846, -0.10181074, -0.08485719, -0.026388537, 0.042229686, 0.07186223, -0.074838325, 0.07310141, -0.08825213, -0.054277085, -0.07589826, -0.008369675, 0.021998476, -0.10870778, 0.006012534, 0.00058549433, 0.016951187, -0.1108891, -0.08613713, -0.09059108, 0.091960385, -0.039867613, -0.056856222, 0.0007386181, -0.013282205, -0.013653646, -0.07129296, 0.008092138, 0.0014658242, -0.016976858, -0.16689222, -0.17936347, -0.014679609, -0.096735425, -0.023934625, -0.09775061, 0.03173706, -0.007744976, -0.07479594, -0.065422036, -0.065849766, 0.026375402, -0.0015520534, -0.03396674, 0.08057191, 0.014591609, 0.081763715, -0.08077008, -0.00716464, -0.07350055, -0.11816534, -0.0065231863, -0.08517616, 0.047872867, -0.08322754, -0.0196268, -0.098614834, -0.026934417, -0.007296092, -0.014016376, 0.053950813, -0.03668154, -0.023805318, -0.032045823, -0.005371036, 0.00064105197, -0.1027782, -0.038714554, -0.024193212, 0.040933974, -0.10154608, -0.10819625, -0.035906833, 0.030442484, -0.062448375, -0.069570936, 0.0004947536, -0.10313827, 0.031563517, -0.04761486, -0.11981954, -0.13276166, -0.020865744, 0.024270825, -0.0393967, -0.09382728, -0.092870034, -0.019593662, -0.07347164, 0.09319445, 0.07214758, 0.037503447, 0.0730323, -0.0050972993, -0.017565442, 0.07460201, -0.015450741, 0.06964456, -0.10904038, 0.044788558, 0.029001808, 0.024774587, 0.039516, 0.08077561, 0.028557936, -0.0111960145, -0.07147591, -0.05176901, -0.041937076, -0.061499532, 0.0482316, -0.10008001, -0.115450494, 0.027821558, -0.0042752903, -0.008595852, -0.007371956, 0.039359894, -0.043828968, 0.04670533, -0.055340387, -0.0071547297, 0.04765887, -0.0034722027, -0.04598048, -0.033360414, -0.054775495, -0.115936674, -0.09338482, -0.014143241, 0.04459608, -0.030581279, -0.06975752, -0.12886074, -0.14524736, -0.1287962, -0.06130738, -0.04219097, -0.115575716, -0.06954508, -0.0568435, 0.03762378, 0.0077767204, -0.0445673, -0.061381914, -0.074450485, -0.10971873, 0.02005339, -0.08365759, -0.04555695, -0.0021657099,
 0.072329015, -0.0055640587, 0.15416992, 0.10570097, 0.05343316, 0.0604706, 0.13566402, 0.1656948, 0.44678047, 0.24966621, 0.28152654, 0.056753032, -0.006552081, -0.056149505, -0.025080187, 0.022769047, 0.068559915, -0.02996915, -0.046639416, -0.06541326, -0.021680027, -0.04178357, -0.047302697, 0.08849607, 0.05698032, 0.04372429, 0.084999315, 0.0659161, 0.012217601, -0.008507401, 0.11716832, -0.011465702, 0.08034551, -0.053601958, -0.07015994, -0.04730141, 0.040063757, 0.123115376, -0.04540318, -0.07217938, -0.066193245, 0.07976921, 0.044567063, -0.033226743, 0.10738364, 0.09144259, 0.07644964, -0.041701883, 0.1322135, 0.04442512, 0.09566602, 0.1112527, -0.08031254, -0.030185422, 0.03927663, -0.035084758, 0.05654487, 0.006052184, 0.024475107, -0.070323735, -0.06280889, 0.001047079, -0.10175346, -0.008758237, -0.14231005, -0.14373368, -0.07806672, -0.11101812, 0.022586694, -0.04432363, -0.050152916, -0.090356916, -0.053815432, -0.07403903, 0.08642665, -0.13238165, -0.18804999, -0.08969685, -0.039553635, -0.021821141, -0.17551425, -0.16466707, -0.033105765, 0.090993814, -0.20065178, -0.04154477, -0.20190743, 0.09405964, -0.033288617, -0.17268115, -0.23246197, -0.1254119, -0.00428958, -0.07105257, 0.06767245, -0.04704074, -0.04018735, 0.041500922, 0.065375134, 0.023173468, -0.055144794, -0.09263934, -0.15875544, -0.13609937, -0.1402239, -0.080242865, -0.06560185, -0.11263581, -0.045061536, -0.053172868, 0.1710912, 0.07547637, -0.03717169, -0.0336894, -0.12518883, -0.09565617, -0.18583931, 0.038204316, 0.025238238, -0.10990719, 0.2130108, -0.13286309, -0.016472481, 0.007850402, -0.0055905622, -0.046766568, -0.21686454, -0.12189663, -0.06958613, -0.22767757, -0.0540248, -0.10913068, -0.08417436, -0.064456314, -0.059070863, -0.16982716, -0.034873597, -0.0032787754, -0.13550764, -0.18939218, -0.12353372, -0.057098906, 0.031975333, -0.15829746, -0.0065166694, -0.045512054, 0.015605701, 0.10155652, 0.008687701, 0.13383915, 0.027091354, -0.08545299, 0.081273995, 0.05421501, -0.09129341, -0.013063033, 0.0048650033, 0.020618906, -0.016138015, 0.016120173, 0.10638574, 0.00890357, -0.042924244, 0.047275994, 0.14167875, 0.045397684, 0.18840379, 0.09833994, -0.051860817, -0.03893466, -0.13966763, 0.03341132, -0.05037964, 0.070152424, 0.0050916006, 0.095623374, -0.11096239, 0.09591468, -0.10342671, 0.14092389, 0.021459911, -0.07942806, -0.060091138, -0.07960373, 0.069026046, 0.05204182, 0.13125746, -0.035036165, 0.039363563, -0.09293724, -0.0979056, -0.026193239, 0.06595939, 0.14045732, 0.04926707, 0.13470395, 0.064413756, -0.02130151, 0.045987695, 0.3226891, 0.08260593, 0.036118537, 0.06904763, 0.15489559, 0.11604719, 0.13521178, 0.21719925, 0.015219993, -0.06706449, 0.049556952, 0.1490595, -0.028779166, 0.067035735, 0.04800109, 0.123550475, 0.07126385, 0.08338942, 0.25073695, 0.091949396, -0.005301536, 0.13466965, 0.009893181, 0.10278065, -0.056815304, -0.13488966, -0.118395016, 0.029549826, -0.010011913, -0.06272473, -0.071749255, -0.021906156, -0.0902907, -0.094165854, -0.055881545, -0.07348131, 0.015948875, -0.07812856, 0.050284684, 0.015495088, -0.005126775, -0.074025154, -0.06984588, 0.06400537, 0.06228318, 0.0051337574, 0.1270395, 0.019080482, -0.004088696, 0.040089317, 0.0859055, 0.03236201, 0.069084294, -0.026883952, -0.008148446, 0.02046562, -0.08536809, 0.08466793, 0.06740876, 0.035357688, -0.025386585, -0.054463033, -0.018778043, 0.052056465, 0.0672645, -0.008718892, -0.04559092, -0.038673963, -0.003897821, 0.023707047, 0.008162898, -0.0010621593, 0.07596979, 0.04185819, -0.07992995, 0.06587152, -0.029882556, 0.0871854, 0.043674245, 0.05611702, 0.11597529, 0.011533764, -0.07405506, -0.0160937, 0.001732173, 0.031205429, -0.0008216852, -0.07536794, -0.07998374, -0.0449427, 0.12419861, -0.052459616, -0.03366998, 0.15167631, 0.13159904, -0.05746576, -0.045096256, 0.05455122, -0.06427477, -0.037550297, -0.09209493, 0.017439377, 0.080559075, 0.116541274, 0.084535375, 0.0864143, -0.0063399686, 0.060726233, -0.050199494, 0.012163667, 0.1003414, 0.05666008, -0.031506434, -0.08227198, -0.038266268, -0.054517012, 0.066637166, 0.0049319826, -0.008969086, 0.016142417, 0.08154735, 0.09878071, -0.03354156, -0.06153803, 0.07816868, 0.1640206, 0.057493962, 0.12765884, 0.13089195, 0.13889119, 0.15538727, 0.16263708, 0.17675823, 0.04230854, 0.038821653, 0.058463987, 0.1065491, -0.030483918, 0.009952846, 0.05926151, 0.03791988, 0.11514574, -0.056016903, -0.021413758, -0.03520306, 0.09074649, 0.011537834, 0.05897982, 0.02411819, 0.09078373, 0.120368615, 0.15495698, 0.13636293, -0.064546525, 0.089228325, -0.030379592, -0.07117348, 0.08457824, 0.09873299, 0.06305844, 0.024219137, -0.0020787618, 0.045952063, -0.022835609, 0.0648543, 0.038758997, 0.07614332, 0.09772374, 0.0044258554, -0.0014441031, -0.008243211, -0.046096805, 0.14219435, -0.016415952, 0.037792906, 0.11354713, 0.011827553, 0.04075786, 0.012082425, 0.099915825, 0.088818416, -0.038083427, -0.020646237, 0.01893545, 0.09271757, -0.049669914, -0.048700277, 0.09246484, 0.052082535, 0.12181553, 0.16996107, 0.010785608, 0.18543646, 0.2845019, 0.3115199, 0.17426756, 0.06272972, 0.008631821, -0.021247586, -0.002828367, 0.12221701, 0.1281933, 0.068563715, 0.08368166, -0.06790593, -0.022261959, 0.048205614, -0.021390708, 0.09570407, 0.12703332, 0.05697067, -0.064273246, 0.082640365, 0.15649927, 0.117291205, 0.025165336, -0.043022744, -0.040246338, 0.1207421, -0.07484663, 0.004312588, -0.06907462, 0.027543036, -0.020891666, 0.055802148, -0.0067373537, 0.03320511, 0.061099354, -0.069988385, 0.00021803284, 0.038024012, 0.0734613, 0.057139847, 0.08169634, 0.048168927, 0.04693347, 0.11977741, 0.11291869, 0.09847125, 0.1388204, 0.17315865, 0.03742968, 0.0641493, 0.16867885, 0.08375893, 0.13511011, 0.062780626, 0.0871214, -0.04098275, 0.020636791, 0.0357178, -0.04910894, -0.03693491, 0.06669647, -0.00399256, 0.020856837, 0.026121877, -0.014176821, 0.06162393, -0.016075896, -0.06507336, -0.046096906, -0.022193035, 0.108412474, 0.11195431, 0.00062854047, -0.003306459, 0.04763619, 0.04880699, 0.0017033331, 0.08496628, 0.028587544, 0.07305818, 0.004823121, 0.13526256, -0.001176398, 0.06572645, 0.09112212, 0.00011303571, 0.11752161, 0.09904531, 0.14275098, -0.013628352, -0.043229442, 0.0007018494, -0.0050520436, 0.15201919, 0.1359171, 0.053532276, 0.061658263, -0.007418454, 0.08212448, -0.028977277, 0.005539434, -0.03603423, 0.07264736, 0.010569604, 0.12835574, 0.10142605, 0.18622507, 0.18736386, 0.14923808, 0.05620865, 0.046803847, 0.09759082, -0.016333904, 0.17265102, 0.17114952, 0.043960337, 0.11155373, 0.111119285, 0.1512544, 0.18997732,
 0.036003307, -0.019883676, -0.093858436, -0.08984637, -0.015743399, -0.09237616, -0.09043093, -0.027545651, -0.50274986, -0.2015496, -0.21833389, -0.10076475, 0.03701252, -0.017002728, 0.056921627, -0.014852942, -0.116569534, -0.11460156, -0.07217805, -0.10620164, -0.019918378, 0.022413088, -0.02607497, -0.023305712, -0.036461048, -0.08691606, 0.0033080927, 0.04009783, -0.15609363, -0.07200445, -0.08162978, 0.0024400742, 0.052483138, -0.020932324, 0.034331903, -0.09673522, 0.010468707, -0.00096059334, -0.08679131, -0.0990108, -0.022621535, 0.041287094, -0.110181555, -0.045687146, -0.022790633, -0.035612836, 0.054385293, -0.100970015, -0.05663238, 0.06639807, 0.005527938, -0.043556698, 0.07473695, -0.038104523, 0.103608906, -0.04083944, -0.024372851, 0.08523056, 0.08612545, 0.026584161, 0.0054569836, -0.007331209, 0.041664433, 0.0125085795, 0.06802561, 0.061250627, 0.09722889, 0.028827125, 0.08842049, 0.029802471, 0.116488956, 0.16872926, 0.011864853, -0.000370852, 0.07394561, -0.0034179508, 0.082213394, 0.1608391, 0.12138679, 0.014745407, 0.03302886, -0.0249988, -0.08604489, -0.056059208, 0.05241907, 0.06728286, 0.21187681, -0.04841277, -0.077525415, 0.0610775, 0.21255766, 0.0068051727, 0.13354348, -0.036068555, -0.006690801, 0.038779374, 0.061845038, -0.031417087, -0.004890349, 0.015584494, -0.011201698, 0.16891623, 0.21390884, 0.15630324, 0.01461593, -0.007463158, 0.07703146, 0.107709385, 0.06174516, -0.03546538, -0.11809923, -0.028453372, 0.032689713, 0.12489026, 0.12864381, 0.090343855, 0.21942353, 0.07534774, 0.14324492, 0.07788694, -0.12915392, 0.16253088, -0.085911386, 0.15723369, -0.09551622, 0.14053364, 0.048210498, 0.015206672, 0.0926395, 0.098496564, 0.15035951, 0.12525378, 0.07011558, 0.07612806, 0.16091044, 0.133564, 0.14920194, 0.053725816, 0.07778914, 0.010043136, 0.096007235, 0.03798825, 0.012081308, 0.063582435, -0.04539465, 0.08624708, -0.05097779, -0.069185175, -0.110775374, -0.00680012, -0.0339536, -0.049564548, 0.12718701, -0.055275876, 0.12403734, 0.03342315, -0.04903669, 0.10750675, 0.060442057, 0.018838603, -0.08871054, -0.015281923, -0.081543386, -0.039761335, -0.08179543, -0.07870424, -0.074246295, -0.06624523, 0.08215066, 0.021607857, -0.0682643, 0.089194134, 0.038584325, -0.059772514, 0.051947314, -0.08769434, 0.13589028, -0.01963311, 0.14513128, -0.050710455, -0.015355885, -0.042043347, 0.11708461, 0.041444693, -0.1396701, -0.027974736, -0.15064634, -0.0520868, 0.012334377, -0.053692784, 0.07662844, -0.10187526, -0.038491674, -0.16306357, -0.062687606, 0.019278368, -0.098955855, -0.08789873, -0.024463857, -0.100560576, -0.098631755, 0.0013675619, 0.043401733, -0.12641922, -0.063138284, -0.096045814, -0.28214613, 0.12545036, 0.0006433162, -0.03725295, -0.057006225, -0.053262807, -0.0007761629, -0.06693023, -0.059392985, -0.18353365, 0.0911737, -0.09690026, -0.13842915, -0.06812999, -0.0399618, -0.09664556, -0.14426488, 0.046867974, -0.03352742, -0.053205926, -0.029791452, 0.07439241, -0.014365033, 0.110519335, 0.07869412, 0.006185031, -0.0735374, -0.03822145, 0.0390342, 0.0567081, -0.038552806, 0.059653547, -0.0073529663, -0.0062213866, -0.04373617, -0.03730236, 0.10695923, 0.04780307, 0.015273273, -0.016140774, -0.038120635, -0.026542004, -0.10438596, -0.09717578, -0.11420611, -0.039247867, -0.09681078, 0.019979326, -0.0035698197, 0.004738217, -0.03860288, -0.09089801, 0.039447013, -0.09167279, -0.026827538, 0.0071648126, -0.056014948, -0.018935712, 0.022148162, -0.041756183, 0.042861704, -0.061683044, -0.1091348, 0.041076716, 0.04815648, -0.08545962, -0.055216324, -0.07484151, -0.009357609, -0.101777025, 0.015714705, 0.005063978, -0.056013297, 0.044184536, 0.02897768, 0.024914745, 0.06619929, -0.107439935, -0.07913723, -0.0625963, -0.062753506, 0.08728915, -0.0911616, -0.09019463, -0.010670785, -0.060933005, -0.13618612, -0.048935357, -0.017471852, -0.13338453, -0.04345924, 0.04445156, 0.0011434053, -0.09673457, 0.023858676, -0.028249305, -0.012681615, -0.0025276702, -0.07995608, -0.017024508, -0.05583661, 0.02199666, -0.09228159, 0.031608395, -0.037322547, -0.030447436, -0.086555466, -0.09223484, 0.028320909, -0.11451104, -0.0008882577, -0.022404544, 0.04882812, -0.01280733, -0.052895654, -0.012986198, 0.040369645, -0.05890113, -0.004583832, 0.026904734, -0.090860285, -0.047704637, -0.064672984, -0.19926146, -0.12234326, -0.16812858, -0.013933592, -0.12482238, -0.16666093, -0.018258166, -0.026996253, -0.105807364, -0.054474115, 0.05450342, -0.03635182, 0.061253827, -0.08657909, 0.0040847235, -0.024710461, -0.057196483, -0.012872068, -0.16274814, -0.081606165, -0.061707046, -0.092115, -0.09875391, -0.12271436, 5.99826E-05, -0.06590859, 0.05378703, 0.049521815, 0.033453215, -0.0050196936, -0.096150815, 0.011703709, -0.0021160666, -0.051630784, -0.1029288, -0.04347574, 0.06739589, 0.03642795, -0.08211103, -0.09584959, -0.056150783, -0.12139773, -0.025526727, -0.002114172, -0.06017348, 0.06778844, 0.03283906, -0.019659456, -0.09697425, -0.11392628, -0.001956279, -0.003245891, 0.095106184, 0.086251244, -0.030156443, 0.09087153, -0.08798008, -0.0049390155, -0.05583792, -0.062020727, 0.0067156306, -0.20488209, -0.1591369, -0.31654343, -0.17400716, -0.16137187, -0.10300467, 0.03431277, -0.021299193, -0.10111668, 0.07876503, -0.017331082, -0.103932835, -0.06502253, -0.02029436, 0.052388765, 0.0106120985, -0.084258005, -0.07529563, -0.10137572, -0.07302604, 0.059164234, -0.15014988, 0.03040159, 0.009932603, -0.10829201, 0.067833304, 0.039692335, -0.09068858, 0.04887318, -0.03316578, 0.040135793, -0.06010197, 0.053344797, 0.042040862, 0.043258335, -0.0033005157, 0.05408914, -0.0071983407, -0.13287495, -0.12002905, -0.12932138, -0.09419314, -0.071036935, -0.025562236, -0.109158695, 0.011587854, -0.052074447, -0.08292064, -0.07445703, -0.027988646, -0.11663053, -0.15968253, -0.17099029, -0.025864787, -0.039536234, -0.069042005, 0.027610235, 0.033324704, -0.011178316, 0.06774434, 0.05130237, -0.10289824, 0.013359424, 0.016908415, -0.10453871, -0.106759556, 0.028895864, -0.042753633, -0.0016250721, -0.11376809, 0.08315332, 0.034138836, 0.05710072, -0.10297501, -0.027202284, -0.1139487, -0.029250188, -0.07672529, -0.1056855, 0.023777561, -0.1049753, -0.102725066, -0.13332778, -0.11852299, 0.0297741, 0.014866639, -0.10691156, -0.0027334625, -0.06951843, -0.025771266, 0.05514621, 0.04472338, -0.0062751854, -0.03780422, -0.0802645, -0.06197098, -0.14603163, -0.020746639, 0.043732293, -0.12607996, -0.061326783, -0.055288672, -0.04444284, -0.13410158, -0.114112176, 0.024354158, 0.013468068, -0.11854451, -0.14175664, -0.11916952, -0.05488893, -0.1873555, -0.08171257, -0.038774304, -0.091724664, -0.043551605, -0.06265731, -0.056788635, -0.079089485, -0.052559372, -0.116702236, -0.11811417,
 0.11544577, 0.07989399, 0.14577416, -0.054244217, 0.09383926, 0.023560232, 0.12822948, 0.047444716, 0.38077497, 0.29691353, 0.17802463, 0.10597309, 0.10439584, 0.00040234445, -0.010151745, -0.006010619, 0.11424005, -0.03358814, 0.13964227, -0.05545482, 0.13095097, 0.11949385, 0.008061145, -0.04604135, 0.0352709, 0.17172436, 0.1224764, 0.119452946, 0.03778958, 0.014019831, -0.045365326, -0.075709954, 0.06793137, -0.006858257, -0.06515187, -0.08307771, -0.008539804, 0.09840259, 0.085498706, 0.026092604, -0.019561615, -0.0065520816, 0.045646288, 0.01217601, 0.05947234, -0.027443916, 0.00017432026, 0.0688441, -0.034852214, -0.025876764, 0.058059804, -0.011062072, -0.05928538, 0.041040137, -0.09155479, -0.09037495, -0.10004279, -0.022717237, 0.025842419, -0.12283165, 0.06663577, 0.008908728, -0.13949668, -0.050181396, -0.015665703, -0.13015157, -0.106778026, -0.015625237, -0.001709466, -0.11863718, -0.13023612, -0.14703469, -0.035374317, -0.08064992, 0.033284687, 0.04140715, -0.12945952, -0.07386934, -0.0015616654, -0.11140022, -0.049108606, 0.028943276, 0.039184213, 0.025345093, -0.19853023, -0.087526344, -0.1302701, 0.048496492, 0.071839824, -0.08125924, -0.16532037, -0.057573795, -0.05175481, -0.03817696, 0.067306936, -0.10704125, 0.11739171, 0.51330537, 0.17160782, 0.22128145, -0.02824476, 0.0043125562, -0.06705072, -0.17313924, -0.012438774, 0.027749179, -0.044287987, 0.0316234, -0.08383664, -0.1386592, 0.058307417, 0.009314955, 0.011100301, 0.0035202573, -0.009470987, -0.13549823, -0.17249502, -0.07992968, -0.107014045, -0.004107185, 0.06663663, -0.14636543, -0.026488004, -0.120400324, 0.11253748, 0.023095686, -0.11855171, 0.0060389605, -0.11920305, 0.005461866, 0.038651515, -0.15205772, 0.016635131, -0.06285267, 0.009705612, -0.16560052, -0.16699874, -0.1579082, -0.13587959, -0.027703872, 0.0019010465, -0.07425244, -0.046476323, 0.0133812465, -0.051779788, -0.07338342, 0.08562684, 0.17120115, -0.04857729, 0.13393852, 0.11555054, 0.057631165, -0.06775284, 0.06533666, -0.066957615, -0.15547737, -0.059487212, 0.04601301, -0.008434369, 0.04335203, 0.085108824, -0.0053308583, 0.09099687, 0.08816863, 0.15768974, 0.16079257, 0.18764542, -0.06747385, -0.11342201, -0.0787198, -0.113380514, -0.112700164, -0.05141175, 0.057965238, 0.0051326603, 0.041010376, -0.05833018, -0.081321925, 0.011006318, 0.14261661, -0.085352965, 0.047134772, 0.07537787, 0.05218014, 0.16876249, 0.10136475, 0.11326118, 0.039283685, -0.026356533, -0.06374287, -0.027297182, 0.14856347, 0.008581475, 0.1062754, 0.043792844, -0.014508472, -0.009219298, 0.114028275, 0.015687436, 0.26074758, 0.07740885, -0.04690661, 0.09604739, 0.036427666, 0.14514902, 0.11222672, 0.25502533, -0.10272238, 0.09700767, -0.011034584, 0.13977322, -0.024749381, -0.006373678, 0.04964827, 0.14749396, 0.070553884, 0.14004833, 0.23900864, 0.12000617, 0.08857258, 0.052127983, 0.046677206, 0.09387252, 0.13386804, -0.06352195, -0.0090203695, 0.047090895, 0.03160358, 0.038202222, -0.09831031, -0.06964747, -0.10504015, -0.047139358, 0.014394687, -0.011258748, -0.06028427, 0.021648826, 0.0033619392, 0.011810416, 0.025631988, -0.085413024, 0.06954037, 0.042802084, 0.10265085, -0.021527734, 0.042492513, 0.05578272, 0.0598909, 0.009695666, 0.14772438, 0.10847968, 0.13681984, 0.108362995, 0.050563622, 0.012117103, -0.042942006, 0.065197825, 0.04948174, 0.08962539, -0.042022917, 0.08131273, 0.1528601, 0.033544693, -0.03150467, 0.08530002, 0.10323876, 0.09977995, -0.015793594, 0.14074764, -0.02176633, -0.04510278, 0.116533965, -0.030173123, 0.06831308, -0.027169587, 0.12226069, 0.050897636, 0.04033763, 0.040097486, -0.023106921, -0.066377684, 0.080889165, 0.11112008, -0.016767537, -0.044064805, -0.055197757, 0.027777178, 0.06845587, -0.0246825, 0.08462291, 0.13371502, 0.071417555, 0.118877575, -0.04116009, -0.013963603, 0.12517019, 0.052683145, -0.00038470153, 0.079475395, -0.020745141, 0.09282559, 0.044972613, -0.047084983, 0.019295562, 0.052196097, 0.07958598, 0.03008604, 0.004268368, 0.041842256, -0.057807483, 0.08252216, 0.08060742, -0.02183621, -0.055576682, 0.043489337, 0.06220417, -0.010849619, -0.05725727, -0.004660427, 0.1075725, -0.020517055, 0.10860903, -0.037731364, 0.08568368, 0.05374313, 0.032869507, 0.11326223, 0.14944272, 0.018551372, 0.21391626, 0.1132172, 0.13484187, 0.12676863, -0.025570367, 0.15045841, 0.10614264, 0.034534503, 0.057724364, 0.13381389, 0.10762156, 0.034759067, -0.0416039, -0.0046216743, -0.011501204, -0.02743678, -0.009640882, -0.02230913, 0.1201424, 0.1973796, 0.17913963, 0.0025629923, 0.11049587, -0.004577363, -0.059877783, 0.05669158, 0.05640081, -0.07910245, 0.07597625, 0.06987931, 0.119195834, -0.045047157, 0.043304954, 0.07414071, 0.12701647, -0.07292749, 0.03816149, 0.12031751, 0.11675854, -0.087510206, -0.023061642, -0.04186587, -0.053404316, -0.08815853, -0.03450539, -0.039710157, 0.094427265, -0.031192942, 0.10327045, 0.037828878, 0.11134659, 0.049774308, 0.02662635, -0.024024446, -0.0478002, 0.11997304, 0.0008099476, 0.05479144, 0.12801938, 0.058173887, -0.0027551956, 0.08279469, 0.20681995, 0.2329419, 0.23880187, 0.15135711, 0.15679888, 0.12910467, -0.01192259, -0.0007330231, 0.006186991, 0.102229826, -0.03308227, 0.12686822, -0.007339617, 0.078391135, 0.042515807, 0.043136265, 0.050038397, -0.0681828, 0.09633228, -0.03433533, 0.10596199, 0.09185993, 0.1129824, 0.06763538, -0.05703277, 0.031068766, -0.041383255, 0.07630406, 0.06896565, -0.006095075, -0.07455034, 0.038433276, -0.0067174393, 0.12403666, -0.039767012, -0.017616801, 0.040650465, 0.047388397, -0.004181213, 0.075886816, 0.09763907, 0.057960927, -0.06187779, 0.090214804, 0.06076477, 0.04675772, 0.024207728, 0.094123825, 0.16475673, 0.05712625, 0.07606796, 0.13954854, 0.11188308, 0.021045456, 0.055578884, 0.09569455, -0.07307789, 0.013745532, 0.066359974, 0.0877481, 0.12706013, 0.053148583, 0.020679643, -0.028679412, -0.057526346, 0.07411627, 0.029839782, 0.027130278, -0.060400374, 0.065179564, -0.05475867, 0.012706622, -0.02607568, 0.091531076, 0.11246881, -0.03250508, 0.10263938, 0.04652824, 0.09611518, 0.08257451, 0.014783939, 0.08926571, -0.0054778177, 0.0074111302, 0.056411527, 0.04915811, 0.13409986, -0.056414124, -0.034983467, 0.09088357, 0.14467692, -0.040427633, -0.049135685, 0.08194023, 0.015823288, 0.10596055, 0.10184738, 0.016950225, 0.08605485, -0.01338369, 0.10276868, 0.12968029, 0.1406162, 0.15335964, -0.010987351, 0.059456483, 0.14411247, 0.064905696, 0.021880561, 0.11645759, 0.18705682, 0.07640698, 0.03564403, 0.13457718, 0.0056695696, 0.19037503, 0.02440969, 0.12934321, 0.034650557, -0.0028698044, 0.11861205,
 -0.027988426, 0.045570184, 0.08677944, 0.082591, 0.028393041, -0.057299115, 0.015680706, 0.11444926, 0.36865664, 0.20252518, 0.02193764, 0.069438644, 0.0015371441, 0.044150382, 0.0662011, 0.009643585, 0.049703345, -0.065513894, 0.04102431, -0.054239277, -0.016103145, -0.020594, 0.038027436, 0.091477685, -0.020368984, 0.06260452, -0.006801466, -0.05173973, -0.05513674, -0.006608471, 0.12169611, -0.06929298, 0.014025548, 0.07493557, 0.01994968, -0.033055816, 0.056380667, 0.013819997, 0.10328477, 0.11018608, 0.053560305, 0.021818457, -0.04479257, -0.049314342, -0.076145686, -0.00015966907, -0.042331155, 0.04542462, 0.10471863, -0.01729077, -0.072164804, 0.08247021, -0.09357749, -0.06717064, -0.051801443, -0.08093575, -0.0612919, 0.069403976, -0.025291238, -0.03238631, -0.1172352, 0.004473742, 0.020563396, -0.10572482, -0.049864683, -0.033634376, -0.08060742, -0.05720417, 0.02959266, 0.029048475, 0.01745868, 0.014815415, -0.02657811, 0.04081067, 0.06045221, 0.011505259, -0.14219946, 0.015527946, -0.111122094, -0.1707213, -0.15495014, -0.10054642, 0.102481, -0.06356259, -0.12099334, -0.07336277, -0.1350766, 0.011619932, 0.13420476, -0.17474496, 0.008980392, -0.037013635, -0.0953164, -0.20114344, -0.11652218, -0.105892174, -0.007934444, 0.053367283, 0.019544804, 0.009071915, -0.050349727, 0.0065613105, -0.078153394, -0.14500937, -0.048069, 0.045890372, -0.10602253, 0.071978025, -0.080779664, -0.09294528, 0.102293715, 0.010586077, -0.023208845, 0.016897133, -0.04025409, -0.14144014, -0.1360826, 0.039906535, 0.03816155, -0.06169181, 0.0040081996, -0.06996454, 0.00034993872, -0.021493945, 0.08862682, -0.005181472, -0.07966705, 0.0023468835, -0.14558159, -0.17950027, 0.04087885, -0.09969714, 0.022505922, -0.04063364, -0.08868288, 0.0019353408, -0.030455025, -0.013365655, -0.01733346, -0.1064631, -0.019184925, -0.06548458, -0.04531631, -0.11504126, -0.0930778, -0.086301215, -0.006686377, -0.022964148, -0.040972088, -0.012601538, -0.014625416, 0.016811775, -0.05725828, -0.053939488, 0.00065069494, -0.13243301, 0.04104885, -0.12836586, 0.07006037, -0.09622872, 0.04980615, -0.03588087, 0.08817122, -0.04621829, 0.15137938, 0.040134303, 0.12079984, 0.034729347, 0.06684894, -0.04810189, -0.094220765, 0.03924829, 0.04228667, -0.028057143, -0.05141786, 0.10592632, -0.10274073, -0.07113666, -0.029000582, -0.028875712, -0.037756883, -0.03336268, 0.008768464, -0.018607242, 0.02777893, 0.06356365, 0.1389924, 0.10240501, -0.06263997, 0.06321425, -0.07407792, 0.032509852, 0.12906642, 0.029433148, -0.01993587, 0.06628222, 0.08961152, 0.06845005, 0.02339845, 0.26249227, 0.15392408, -0.05052607, -0.06398339, -0.0017732014, 0.03780536, 0.080737896, 0.25147128, -0.023289701, 0.08482358, 0.05258325, 0.1316351, 0.036385145, 0.022788867, -0.027281769, 0.011354971, 0.0051214527, 0.021443404, 0.15613537, 0.02614568, 0.11551741, 0.068100125, 0.07692864, 0.02215821, 0.079808176, -0.0041297395, -0.07841404, 0.0869397, 0.0878253, 0.0071723033, 0.06738047, 0.011490347, 0.0011042799, 0.016103636, -0.027619304, 0.06661957, -0.03331181, -0.0358209, -0.024540747, -0.014141499, -0.033262283, -0.06928623, -0.051642098, -0.004833106, 0.12669976, 0.074810565, -0.0428918, 0.11797716, 0.12041532, 0.13042776, -0.043853078, 0.01532048, 0.099267945, -0.0026972464, 0.10408386, -0.06679487, 0.034462307, -0.048553944, -0.014502593, 0.0840464, 0.038499873, 0.071638525, -0.042413604, 0.024913374, 0.1223342, 0.09256448, 0.006318218, -0.07334225, -0.03957928, -0.0047145565, 0.07648061, -0.10352276, -0.07882274, -0.07733086, -0.03858946, -0.07916619, -0.076464884, 0.07025001, 0.06782179, 0.057277557, 0.017329792, -0.028162813, 0.11218223, 0.07282173, 0.11801918, 0.06822392, 0.03201495, -0.019939478, -0.07430738, 0.11187278, -0.0014272616, 0.13120945, -0.022239666, 0.036812905, 0.0861778, 0.008286213, -0.02789097, -0.047686104, 0.0032991306, 0.085084245, 0.048486754, 0.08516518, 0.018746145, -0.017674439, -0.05428031, -0.038672, 0.079656966, -0.015090025, -0.07915439, -0.029287344, 0.06495588, 0.045243543, -0.038179193, 0.00914648, 0.07016824, 0.03182035, 0.09199859, -0.0452578, 0.0637889, 0.07213029, -0.02007412, -0.044482116, -0.0003393265, 0.0246528, 0.03202446, 0.09218989, 0.13114019, 0.018823959, 0.031582564, 0.018123945, 0.027888222, 0.15950994, 0.14673132, -0.056429815, 0.095219895, 0.04076784, 0.00089165755, 0.006676568, 0.026810858, 0.047277126, -0.057485946, -0.008824379, -0.04216389, 0.04027223, 0.039156713, 0.09632732, -0.04132428, 0.02176595, 0.023543319, 0.040414676, 0.08157664, 0.014312316, 0.08303055, 0.040252507, 0.07092051, -0.0065902728, 0.031829234, 0.0013158156, 0.06910582, -0.03948145, -0.032579742, 0.014771645, 0.03801636, 0.05896456, 0.03480543, 0.030136947, 0.005707336, -0.0014171822, -0.05899857, -0.07952331, 0.044061586, -0.040787987, 0.09869751, 0.07913569, -0.06399868, 0.036636025, 0.086334296, -0.041508142, 0.07826765, 0.08424025, 0.029507512, 0.047656134, -0.0982932, 0.087467715, 0.04707955, -0.033123367, -0.05781999, 0.07843486, -0.0013153667, 0.11810357, 0.13382955, 0.082874805, 0.13844424, 0.14793749, 0.11969997, 0.18095347, -0.00016573558, 0.05761285, 0.09441515, 0.03017508, -0.05829436, 0.027462022, -0.007218961, -0.022222456, 0.06182346, 0.042435, 0.03446869, -0.076150075, 0.051617276, 0.02390439, -0.037072767, 0.08624098, -0.015572416, -0.030468855, 0.14824867, 0.10042327, 0.102052815, -0.023852775, 0.0067482037, 0.0959579, -0.027848972, -0.060157582, -0.07360749, 0.061240233, 0.01249089, -0.025039222, 0.09934538, 0.12724188, 0.016798021, -0.048112918, 0.010525555, -0.02238891, -0.056019265, -0.0109968055, 0.01710701, 0.07456268, -0.05022583, 0.090731606, -0.0011907245, 0.0012313972, 0.12159152, 0.162112, 0.14551058, 0.100404665, -0.03888094, 0.06385265, -0.017594185, 0.11575295, -0.023613589, 0.012179691, 0.07039748, 0.055508625, 0.10893576, -0.019989109, 0.06975661, -0.07239296, -0.03443181, 0.11589521, -0.037832838, 0.039892927, -0.07544669, 0.121168785, -0.07949607, 0.08432223, -0.0745507, 0.047302246, -0.013678444, 0.12792258, 0.1327044, -0.03967904, 0.081580296, 0.11820282, 0.096522555, -0.036555108, -0.061041355, -0.017544871, 0.02726976, -0.0076258923, 0.049112517, 0.121883586, -0.025232047, 0.08025588, 0.08966401, 0.089318626, -0.016254978, 0.02877809, -0.071994625, 0.11407933, 0.046282493, -0.075269125, 0.0036993907, 0.015403757, 0.08609752, 0.11854841, 0.14493208, 0.09362238, 0.053519152, 0.04115156, 0.08433502, 0.02814885, 0.085902154, 0.052910957, 0.13093832, 0.08352502, 0.028733198, 0.06858184, 0.008218776, 0.031956133, 0.0704571, -0.008162901, 0.032538194, 0.068707965, 0.115250155,
 0.050364595, 0.06081061, -0.098463885, 0.036698557, -0.019800832, 0.071762115, 0.025976108, -0.021288717, -0.21609703, -0.08917708, -0.15032907, -0.04721932, -0.026811501, 0.08816927, -0.01748206, 0.0012142914, 0.0024167257, -0.07128592, -0.023771426, 0.08038208, -0.022721222, 0.009363986, -0.031523935, 0.081970446, -0.06644167, -0.09665612, -0.08706595, -0.046200287, 0.03759549, -0.03712893, 0.020980347, -0.02158135, 0.043035686, -0.05940247, -0.04114343, -0.021893483, 0.012662138, 0.061842576, -0.020870449, -0.061197296, -0.0039460044, -0.0034823718, -0.030660393, 0.042269215, 0.053678386, 0.086599, 0.08002857, -0.016249044, -0.01639724, 0.08578981, -0.0917011, 0.076306306, -0.018842278, 0.05469345, 0.015845848, 0.011769158, -0.035898037, 0.041833658, 0.040780086, -0.06897195, -0.040169194, 0.046954025, 0.1034322, 0.004990772, -0.039986737, 0.09461303, 0.0800329, 0.01668899, -0.04510047, -0.08195648, 0.07426216, 0.059005603, -0.0055188634, -0.086917326, -0.09312699, 0.04599528, 0.10169691, -0.060558904, 0.031388182, 0.113284, -0.06627646, 0.08221667, -0.045348357, -0.007945606, -0.012439035, 0.0019962944, -0.013821566, 0.0134430155, 0.055596415, -0.012768403, -0.061319243, 0.07454749, -0.06730138, 0.03040843, 0.08877075, 0.019568002, -0.047886375, -0.017560087, -0.038021315, -0.008972938, 0.06504336, 0.11044847, 0.13321966, -0.0006407989, 0.058059487, -0.043738697, -0.03494796, -0.021078832, 0.019809034, 0.057579964, -0.02907924, -0.025674557, -0.05896132, 0.10180964, -0.026985943, -0.046622857, -0.016270803, 0.009727394, -0.022092745, 0.07861522, -0.11800198, 0.06957131, -0.058768928, 0.11156038, 0.004972884, -0.072275355, 0.043692045, -0.046863627, 0.018855123, 0.095238514, -0.012319686, -0.018697714, -0.080840185, -0.053619247, 0.023028085, 0.07307475, 0.08047866, 0.11821781, 0.07365313, 0.029712662, 0.09812607, 0.10387238, -0.058815338, 0.018863723, 0.04528224, 0.06534906, -0.09277549, -0.017534828, 0.05175697, -0.05563702, 0.09036748, -0.027150696, 0.0018173187, -0.048735637, -0.05132298, -0.095482334, -0.039706163, 0.05999207, -0.038236722, 0.06744108, -0.041856993, -0.00568425, 0.06982504, -0.07776612, -0.041304253, -0.09632155, 0.04516313, 0.026475994, -0.09709006, 0.0976912, -0.074483976, 0.032854713, 0.08508374, -0.07696151, -0.049573824, -0.065016106, -0.060701203, -0.019488664, -0.012335839, -0.063155495, -0.09495761, 0.059467316, -0.03467003, 0.060107064, -0.04730396, -0.03962005, -0.13998857, -0.11975487, -0.0057786833, 0.055633634, 0.020199437, -0.06604114, -0.06355328, 0.011452971, -0.12115604, 0.041257296, -0.019753907, 0.045527894, -0.030796342, -0.12718056, 0.004539593, 0.025948258, 0.07227808, -0.06594002, -0.072658636, -0.07193759, 0.01874032, 0.033277124, 0.0005521432, 0.028362596, -0.018551685, -0.08922126, -0.009350385, 0.082266524, -0.08709404, -0.07081666, -0.105406806, -0.08995155, -0.024881858, -0.09455403, -0.023799509, -0.03246629, 0.007107814, 0.024176419, -0.01242615, -0.10339033, -0.05199108, 0.10069451, -0.008896001, 0.02304972, -0.05387559, -0.026829483, 0.10408067, 0.009278383, 0.0480029, -0.024494283, -0.097141385, 0.027706664, -0.09682015, 0.0041456656, -0.0949362, -0.045936607, -0.08071874, -0.0034472363, 0.047388617, -0.05652311, -0.01732994, 0.017927712, -0.098127864, 0.018364595, 0.027172662, -0.062398415, 0.06065606, -0.05312464, -0.08544804, 0.031068776, -0.006639184, 0.029580211, -0.084176175, -0.034073155, -0.016716039, -0.09962756, -0.0748218, -0.08549198, -0.08310129, 0.02129621, -0.04314495, 0.015451608, 0.07751303, -0.061000973, -0.062280193, -0.00789667, -0.10755503, -0.0017777649, -0.111887574, 0.06496556, 0.01878889, -0.08730982, 0.037651874, -0.09340315, 0.08364969, -0.10004508, -0.046400685, -0.050492093, 0.050656058, -0.103520736, -0.026051216, -0.090604156, -0.012230189, -0.062395256, 0.059046462, -0.042377684, 0.0059097875, -0.023231875, 0.0029595937, 0.072229475, -0.06937101, -0.11245875, -0.11345026, -0.009207199, -0.018764948, 0.023034764, -0.060292233, 0.069246605, -0.027419405, -0.0832111, -0.06192639, -0.109719984, -0.020366196, 0.058594752, 0.012502378, 0.011015294, -0.07985021, 0.09401487, 0.06269152, 0.017308075, 0.0294218, 0.020096704, 0.028235117, -0.037964154, -0.07403945, 0.08925845, -0.042789802, -0.029590543, -0.072245136, -0.033113927, -0.13328129, -0.08519953, -0.100925915, -0.04570504, -0.14413765, -0.14091924, -0.025262516, -0.03767064, -0.06454258, -0.08492543, 0.06581754, 0.080611125, 0.0018063624, -0.08022895, -0.03183718, 0.03281204, -0.021305183, -0.092776954, 0.0876386, 0.07093814, 0.05056722, 0.06231738, -0.027419096, 0.024823546, -0.12703726, 0.054240063, 0.078901544, 0.029986806, -0.07052371, 0.090394534, -0.061817024, -0.008310909, -0.080843985, -0.05973245, 0.07215921, 0.020544112, 0.07961896, 0.052775003, -0.093204655, 0.05880326, -0.11702576, -0.016876338, 0.07476791, 0.0035508017, -0.02777671, 0.017123947, -0.05430607, -0.055185713, -0.049742922, 0.0004494916, -0.011152566, -0.09007797, 0.06630062, -0.012974362, 0.08253154, 0.032478563, 0.05402015, -0.08799048, -0.029347796, -0.0558412, 0.07387126, 0.067358814, 0.03116986, -0.05012554, -0.055861503, 0.027054448, -0.024488995, -0.16022924, 0.05753177, -0.05561444, -0.064986944, -0.081159525, -0.042336028, -0.030397624, -0.03453203, -0.11239172, -0.032868158, 0.024346106, 0.038579397, -0.026582329, -0.09229066, 0.06576676, 0.09312093, 0.032890443, -0.114374965, 0.026899781, -0.031587914, 0.04246254, 0.04481828, -0.08377344, 0.07742998, -0.023152385, 0.038184665, 0.011178162, -0.10662814, -0.07747088, -0.033604197, -0.09878332, -0.06628041, 0.02064378, 0.057083774, -0.028792316, 0.055820934, -0.119232625, -0.00024590286, -0.0902312, 0.010425282, -0.035536446, 0.05960796, -0.09556003, -0.050203193, -0.040889267, 0.011561631, -0.10627758, -0.018236414, -0.12381423, -0.086364545, 0.0059576877, 0.013359484, -0.040097065, -0.012842917, -0.03254433, -0.0034049274, -0.11149655, 0.07518662, -0.0998196, 0.033936195, -0.07036426, 0.0043218974, 0.063088305, 0.08693318, -0.040978767, 0.023867922, -0.10183689, -0.04657545, 0.029958585, -0.061784573, -0.029294461, -0.10169432, -0.044186115, -0.05012736, 0.07655001, -0.030143728, -0.020486036, 0.024023551, 0.06761604, -0.009390515, 0.010899823, -0.022098606, 0.027574291, 0.06823946, -0.11148634, -0.06994577, 0.06917115, 0.019754376, -0.033849254, -0.06556713, 0.010605058, 0.08261742, -0.10884807, 0.035984553, 0.02274932, -0.0561642, 0.037738577, -0.09680906, -0.025868202, 0.029370423, 0.0008517516, -0.03815837, -0.074691154, -0.043561846, -0.11984857, -0.012678105, -0.09549083, 0.027312513, -0.089549676, 0.011204564, -0.006794866, -0.07228532, -0.021305269, 0.0017343786, -0.10290704, -0.011956567, 0.009636025, -0.05046625, -0.092068225,
 -0.069732256, -0.04499864, 0.105391525, 0.044133745, -0.058500443, 0.025583303, -0.06946145, -0.007595172, 0.17894718, 0.07266844, 0.075462915, 0.12402216, 0.0048629926, 0.07515238, -0.048978206, -0.08472355, -0.009053676, -0.067177474, 0.03528833, 0.040234786, 0.07263027, 0.001867423, 0.1022466, -0.054131415, 0.042957794, -0.06282098, 0.09539795, 0.09004601, -0.0553448, 0.035715558, -0.040534455, -0.03959764, -0.053317342, -0.042239755, -0.062577374, 0.013171025, 0.093299724, -0.036908127, 0.03120155, 0.09562818, -0.002388296, -0.053485416, -0.014122589, -0.092705026, 0.04102282, 0.044872276, -0.066914834, -0.08184591, 0.069836356, 0.019771298, -0.033510946, -0.08302285, -0.062164802, -0.07747165, 0.01256334, 0.047240432, 0.08953847, 0.056415286, 0.08404076, -0.10859858, 0.013687857, 0.010152639, -0.08906437, -0.116551794, -0.018970858, 0.039672375, 0.05338525, 0.07541038, 0.06364439, -0.05738949, 0.008734996, 0.0150912935, 0.025409924, 0.05704012, -0.08199318, -0.062442895, -0.10648738, -0.026237123, 0.0163065, -0.08796798, -0.040917132, 0.007814192, -0.005895386, 0.071895294, -0.090915166, -0.008690143, -0.07663766, -0.029109703, 0.04383361, -0.074325226, -0.100262634, -0.0636644, -0.042224217, -0.16872738, -0.091093615, 0.012391135, -0.07980671, 0.1992425, 0.10735014, 0.11820929, 0.018225394, 0.03553376, 0.025166458, -0.14056939, -0.059521697, 0.022105008, -0.028576097, -0.062621206, 0.012111325, 0.028497767, 0.011020753, 0.07963945, -0.013770022, 0.07983631, 0.030225541, -0.10807004, -0.119851485, 0.09036821, -0.049110275, -0.1052172, -0.0148856025, -0.059808765, -0.05047095, -0.12502013, 0.050636914, -0.119342506, 0.029545395, 0.07914086, -0.08332029, -0.028209396, -0.02145017, -0.028930096, 0.067829266, -0.052318852, -0.059002794, -0.0025682754, -0.034499317, -0.014008303, 0.03697721, -0.02890884, -0.03909072, -0.07125331, -0.086232916, -0.00040879825, -0.0990994, 0.07189115, 0.054057684, -0.0055936854, 0.021882698, 0.07311068, -0.07698973, -0.061805613, 0.08848177, 0.0914677, 0.051006332, 0.04645948, -0.026122522, 0.02047456, -0.013748169, -0.06542477, -0.0027941715, -0.0791155, 0.10198864, -0.03260342, 0.11247325, 0.014671223, 0.05271732, -0.04143335, 0.08898728, 0.06380528, -0.11542107, 0.019105783, 0.050978, -0.09048229, -0.023870852, 0.061917327, -0.05385782, 0.087806, -0.0049981535, 0.034916528, -0.04269713, -0.01804138, 0.07832942, 0.038150292, -0.03320317, -0.07170194, 0.064633235, 0.0030986904, -0.053394616, -0.10371559, -0.031441376, -0.040221866, -0.04952598, 0.045362484, -0.06225938, 0.040303018, 0.024723303, 0.01761639, 0.024906674, -0.016280578, 0.015008226, -0.010297662, 0.047657005, 0.08396161, 0.0887202, -0.04468697, 0.08930824, 0.09268947, 0.0029716038, -0.076346464, 0.12011923, 0.069937795, -0.04673418, 0.04431872, -0.014967104, -0.06452889, -0.010427336, 0.06727656, -0.040573645, -0.03541951, 0.107818685, 0.004599307, -0.05261843, -0.0066836113, -0.005509937, -0.09561245, -0.03385672, -0.0708558, 0.047029775, 0.05289875, -0.082214676, 0.034792107, -0.008486694, 0.096361995, -0.008562297, 0.066949144, -0.10294896, 0.0005374853, -0.047554854, -0.107434675, 0.058952976, 0.047491007, 0.007257884, -0.04551494, -0.06149659, -0.037100527, -0.05038274, 0.12447061, 0.06444827, 0.068161905, 0.08902549, 0.09656008, -0.050375085, -0.089512326, 0.05708031, -0.030746706, -0.004506319, 0.056751575, 0.036052313, -0.04358939, -0.08314871, -0.079509266, -0.032767244, 0.007091508, 0.09178773, -0.019863097, 0.102095656, 0.06548932, -0.051479917, 0.091070555, 0.087442875, -0.017714374, -0.061451856, -0.018701557, -0.0034518167, -0.06967642, 0.026486335, 0.0545461, 0.023024768, -0.03204717, 0.046407115, 0.021469519, 0.08442649, 0.058701903, 0.0026245841, -0.094620354, 0.08034164, -0.05688101, -0.0153462915, -0.02507938, 0.04711641, -0.014121116, -0.012632704, -0.041849907, 0.107612886, 0.114079885, -0.014092999, 0.027319362, -0.07580668, 0.07469911, -0.09157198, -0.045311965, -0.016927388, -0.054498788, 0.010903953, -0.06447395, -0.084928, -0.028523063, 0.0041436455, -0.035550337, -0.020513888, 0.055777244, 0.060219023, 0.10884962, 0.022146428, 0.000693513, -0.07527363, -0.070330426, 0.10714799, -0.089174464, -0.002770935, 0.015782643, 0.05526953, -0.057941925, -0.029993173, 0.0016517307, 0.09769951, 0.10910577, -0.032227706, 0.045787908, 0.10113748, 0.07670705, 0.016563918, 0.13811041, 0.022266075, 0.068134464, 0.111824326, -0.05520262, -0.0008196362, 0.019605761, -0.017050622, 0.06564501, -0.0726312, 0.01087407, -0.06767207, -0.0071677417, -0.009606805, 0.00035638112, 0.0009200853, 0.047332063, 0.06701357, 0.039325543, -0.028336912, -0.009654327, 0.067692965, -0.0012062, -0.023730844, 0.009647366, 0.07808504, -0.081841215, 0.043558605, -0.053634085, -0.07885767, -0.036436915, -0.0124888895, 0.020182371, 0.028583832, -0.023876926, -0.021896774, -0.02481053, -0.081554234, -0.014892653, 0.0632611, 0.060383156, 0.017281832, -0.025164433, -0.004307454, 0.10053062, -0.04400329, 0.028943585, -0.08856498, -0.055989876, 0.04364289, -0.00041975453, 0.0848228, 0.09195877, -0.017815597, 0.013275541, 0.10363224, -0.04957644, -0.0019615241, 0.003950307, 0.15752818, 0.008585453, -0.016003476, 0.020095363, 0.005190712, 0.065580375, -0.010931338, -0.06757093, 0.08683155, -0.058886304, 0.0040956168, -0.014463902, 0.11120339, -0.09425274, 0.054891594, 0.099670745, -0.055095214, -0.05511693, -0.082483776, -0.043588854, 0.113515064, -0.009010424, 0.01705504, 0.0998798, -0.0076130205, -0.025096416, 0.014351213, -0.053684678, 0.039531656, 0.06236505, -0.035225924, 0.101123974, -0.09189885, 0.10570864, -0.04431566, 0.040725753, -0.07594544, -0.007614641, 0.04811058, 0.025675869, 0.07141077, 0.063935965, -0.0632887, 0.0593673, -0.073239416, 0.07648682, 0.13093024, 0.036189314, 0.082165256, 0.053709075, 0.15667896, -0.016776925, 0.020535318, -0.029759841, -0.011671079, 0.06387365, -0.080155425, 0.118212104, -0.0074201403, 0.010088213, -0.078606956, -0.08955107, 0.0705379, -0.07339443, 0.07070916, -0.019301731, 0.011635447, -0.090947114, 0.018897988, 0.11687695, 0.012509486, 0.04726179, -0.064013615, -0.012727248, -0.06428027, -0.053404048, -0.08955319, 0.1098655, -0.05609725, 0.00842525, 0.07319292, 0.11424048, -0.051148396, -0.03444756, 0.09849712, 0.002369821, 0.07154718, -0.052003648, 0.056865603, 0.070343815, -0.076578215, 0.041985605, 0.080684125, -0.037839938, 0.09149855, 0.06846497, 0.06525302, -0.021554532, -0.034664903, -0.06325655, 0.049386583, 0.10723847, 0.08609761, 0.056966726, 0.12617621, 0.020843789, 0.09003187, 0.038380843, 0.06041838, 0.011660711, 0.10568137, -0.015357199, -0.03944078, -0.03288899, 0.0007382051, 0.04794635, -0.072045736, -0.07165234, 0.067897476, 0.0002957178,
 -0.08258484, -0.044009607, -0.24470857, -0.13823679, -0.011544284, -0.1140378, -0.020744808, -0.2445937, -0.5861087, -0.29643106, -0.19813381, -0.13210906, -0.05779769, -0.081509955, -0.017662298, -0.019855285, 0.009526588, 0.025065802, -0.037299182, -0.13210934, 0.033946645, -0.009396284, -0.11861682, -0.016601332, -0.100001134, -0.119074956, -0.16312338, -0.04109463, -0.093749575, -0.12767409, 0.020324087, -0.10330466, -0.035789516, -0.029296093, -0.014429816, -0.05188002, -0.02453998, -0.093503684, -0.05468031, -0.07604723, -0.11362494, 0.020491248, -0.05456898, -0.041161478, -0.11371928, 0.059051573, -0.017746007, -0.03924267, 0.051992346, 0.06405506, -0.12558328, -0.06895708, 0.02014074, 0.077473946, 0.09225783, 0.10285347, 0.073754996, -0.023319244, -0.0050280183, -0.009002613, 0.10819314, -0.017834065, 0.023105964, -0.008703841, 0.028501203, 0.16365981, 0.007391014, 0.096311525, 0.12160451, 0.06900694, 0.059885062, 0.060160827, 0.005012774, -0.010257769, 0.049392674, 0.024899505, 0.12625636, 0.15004906, 0.04438042, -0.010381306, 0.07824115, 0.0011972012, -0.08848578, -0.029472377, 0.069970146, 0.13157879, 0.10309622, -0.001468879, -0.016769048, 0.043449897, 0.08849199, 0.046432458, 0.12033553, -0.007712785, -0.04767418, 0.05916995, 0.09194039, -0.17997244, -0.04997623, -0.06545702, 0.016076606, 0.07210876, 0.22576477, 0.19821918, 0.0352094, -0.0047668796, 0.07046186, 0.118205346, 0.11989988, 0.05068322, -0.08349784, -0.053976435, 0.03356848, -0.0014139828, 0.09664909, 0.022234306, 0.03232569, 0.0062366407, 0.0339514, 0.18315218, -0.07301301, -0.027786272, -0.030658856, -0.030837461, 0.023145802, 0.029021133, -0.0046133385, -0.06619836, 0.17712604, 0.18746248, 0.14785236, 0.15529647, 0.09653073, -0.017004443, -0.031650227, 0.15995339, -0.009093379, -0.0071352324, 0.0044738557, 0.014474348, 0.10088858, 0.05671076, -0.01034819, 0.017259667, 0.09367197, -0.05190022, -0.08313713, -0.14295363, -0.11268334, -0.08362818, 0.016682921, -0.033695374, 0.009416251, 0.06550012, 0.046367556, 0.07222445, 0.0719108, -0.07210363, -0.07346231, -0.051301196, 0.07967611, -0.17626926, 0.008341083, -0.0120125385, -0.16695419, -0.1987324, -0.17603767, 0.017461702, -0.04628673, -0.07070823, -0.03713907, -0.02812124, 0.11061375, -0.06659774, 0.060877994, -0.048587564, -0.079908065, -0.09031268, 0.09931532, -0.23362747, 0.049965672, -0.09272735, -0.09196218, -0.041619062, -0.1099101, -0.06414576, -0.16372633, -0.1705348, -0.11383825, -0.09329518, -0.14488098, -0.15883881, -0.09972794, -0.2260649, -0.23575345, -0.102645464, -0.17965375, -0.10695071, -0.05817073, -0.3481331, -0.24968341, -0.013542306, -0.04545391, -0.16059195, -0.11598265, -0.124656804, -0.22559592, -0.016651865, -0.08986946, -0.16157918, -0.20460534, 0.0077350303, -0.05452267, -0.16282964, -0.15312383, -0.17184618, -0.094029754, -0.3245764, -0.21004868, -0.11703217, -0.08078418, -0.04840843, -0.092055894, -0.12073308, -0.016262423, 0.0675813, 0.009479422, 0.065836005, 0.104706846, -0.06053167, -0.028055916, -0.027529482, -0.07943299, -0.021861004, 0.06213876, 0.09011268, -0.027211268, -0.03445534, -0.005839674, -0.005002192, 0.08289524, -0.06596731, 0.0742915, -0.0018085975, -0.014951332, -0.0072606443, -0.17858931, -0.11488208, -0.11909326, -0.04261355, -0.14979994, -0.039485343, 0.025282841, 0.031577215, -0.08920534, -0.10876905, 0.0020306194, -0.03193903, -0.035676595, -0.13445388, -0.05218304, -0.04706886, -0.064955086, -0.031017493, -0.12842326, 0.046335075, -0.040551446, -0.06628497, 0.0010434493, -0.0929435, 0.05785001, -0.08668331, -0.05762108, -0.06664086, 0.070778586, -0.015036181, -0.088084884, -0.0025429304, -0.06162219, -0.13138567, 0.050553918, -0.017526451, -0.01682175, 0.022644473, -0.1125181, -0.039651643, -0.13611357, -0.026726525, -0.026563935, -0.12861748, 0.008165887, -0.07143902, -0.10145345, 0.005410806, -0.14343956, -0.098519094, -0.09416351, -0.0067243646, 0.018682472, 0.055641014, 0.013551158, -0.012422051, 0.06631576, -0.097994484, 0.014268915, 0.04548517, -0.030181056, 0.07434889, 0.039155394, -0.03229503, -0.058715682, -0.10873418, -0.03847494, 0.038136695, -0.058883376, -0.089951254, 0.0370006, -0.038038757, -0.067257166, -0.046053976, -0.0315547, -0.02439877, -0.16203225, -0.11123814, -0.2073747, -0.1840638, -0.13349564, -0.103639215, -0.056491416, -0.22268084, -0.101687334, -0.18786134, -0.041610464, -0.13573194, -0.080358, -0.079709485, -0.037009634, -0.09145623, -0.16405727, 0.05007772, 0.024328832, 0.062346105, -0.08246912, -0.023831919, -0.009598038, -0.08142984, -0.14010094, -0.035911433, -0.15146728, -0.07690205, -0.17440453, -0.083738476, 0.011093733, 0.023298517, -0.1343668, 0.02484454, 0.00938899, -0.055511903, -0.07408034, -0.13270414, -0.030139102, 0.011968427, -0.04403119, -0.052166183, -0.08883225, -0.069044404, -0.006972269, 0.064404055, 0.01526101, -0.10053539, -0.062954925, -0.01208083, 0.060917318, -0.043158814, -0.019292042, -0.087870166, -0.026767997, -0.006586453, -0.06349698, -0.10390884, 0.012702908, 0.02884156, -0.09484287, -0.036104932, -0.09905441, -0.06300355, 0.023104379, -0.1442141, 0.01579447, -0.09652873, -0.17019005, -0.37461597, -0.32610235, -0.2799033, -0.2279968, -0.15888357, -0.16049549, -0.08676825, -0.11288505, 0.045653887, 0.018945716, 0.037857607, -0.055756427, -0.09113742, 0.08106722, -0.062286776, -0.122591026, -0.06175916, -0.045675825, -0.110295795, -0.108915865, -0.13982515, -0.14766285, -0.10996978, 0.03776457, -0.12211613, -0.03822489, -0.14225598, -0.043569237, -0.10386765, -0.043728936, -0.08040877, -0.049845003, 0.027700491, -0.08197943, -0.10649702, -0.028170548, -0.012137041, -0.09308896, -0.082992904, -0.015225653, -0.12121441, 0.014440543, -0.101565614, -0.0021158233, -0.0074018305, 0.054044977, -0.09710779, -0.18250959, -0.18464386, -0.06901328, -0.14536051, -0.103871234, -0.10386262, -0.08114453, -0.11415469, -0.03283573, -0.0038496114, -0.005421954, -0.012200553, 0.0727176, -0.009418927, -0.11436072, -0.09833061, -0.05424376, -0.121045865, -0.11585431, -0.040298663, -0.0058679525, -0.063343875, -0.019137012, -0.0025329546, 0.040369056, 0.023805203, -0.115496, -0.08820992, -0.08399816, 0.042253874, -0.05700825, 0.02645051, -0.0033739717, -0.07444455, -0.12760057, -0.094270356, -0.057148695, -0.03099481, 0.024282977, 0.011166898, -0.037992228, -0.17096776, 0.023830201, -0.11100026, -0.07009301, -0.09198735, -0.0054426957, -0.122936845, 0.01382245, -0.13598785, -0.011322846, 0.032976, -0.0047321427, -0.10765262, -0.13907903, -0.12390117, -0.087605916, -0.121367894, -0.15583946, -0.08506849, -0.05564548, -0.12386865, -0.115268126, -0.09918478, -0.14103967, -0.16002929, 0.026517116, -0.14975882, -0.14333592, -0.20053442, -0.06898401, 0.011949918, 0.013417244, -0.06831903,
 0.063860916, 0.06564475, 0.018716708, -0.07711217, -0.010808033, 0.059994936, 0.05593648, -0.08289913, -0.090886645, 0.029875863, 0.004502325, -0.012742103, 0.076872826, -0.090166636, 0.021608613, -0.07746915, -0.02489522, 0.045635745, -0.04358157, -0.09563122, 0.06983171, 0.07856166, 0.043645438, 0.007857955, 0.02867982, 0.026842495, -0.089876294, 0.00029868624, 0.001735171, -0.041574936, -0.06162019, 0.046947286, 0.023605863, 0.003611964, -0.05493819, 0.0484718, -0.06586149, 0.07730585, 0.061268236, -0.08952292, 0.019853152, 0.1035398, -0.0082341395, 0.101970345, -0.029579045, -0.07099921, -0.020885834, -0.02839296, 0.03603756, 0.081969775, -0.042445496, 0.07640096, -0.10359108, -0.030455668, 0.00070009683, 0.08840274, 0.07761235, -0.054852482, -0.0770424, 0.042583786, -0.10681317, -0.07588343, 0.0036768406, -0.04925244, 0.022494199, 0.085883945, 0.049864538, 0.081071004, -0.078475945, 0.027015166, 0.056303725, -0.07044932, -0.050404463, 0.07035846, 0.06826292, -0.08393007, -0.062172204, 0.07338342, -0.005305893, 0.011259588, -0.06553793, -0.04866087, -0.017128058, 0.09939592, -0.0784755, -0.10685184, -0.0139523605, 0.076622054, -0.021763034, -0.037502382, 0.02879179, 0.046868365, -0.0030680827, 0.081805624, 0.021164466, -0.0977901, -0.002849419, -0.034467917, -0.008468326, 0.050000347, -0.11298821, 0.088241436, 0.08229224, -0.037676007, 0.003819583, 0.09966051, 0.063215844, -0.0026421333, 0.036537293, -0.09425176, -0.06777139, -0.0038165476, -0.04343286, 0.067406714, -0.1075008, 0.018779567, -0.026444664, -0.07939678, 0.07786772, -0.06471018, 0.06210793, 0.050391704, 0.028902616, -0.09442505, 0.061385766, -0.052295, 0.015808092, -0.015211833, 0.036110997, -0.08220593, -0.055334374, 0.05332967, 0.08676231, 0.042897403, 0.07957747, 0.03763848, 0.007073133, 0.043270398, -0.006432029, -0.058932707, -0.0926293, -0.07543881, 0.09847139, 0.059806444, 0.07330167, -0.0018314185, -0.057164025, -0.015920531, -0.06324509, 0.0017331681, -0.016265579, 0.039987158, 0.03792068, 0.008439501, -0.013816837, 0.0852811, -0.03727995, -0.0015722872, -0.109561324, 0.0036529866, -0.056117173, -0.03822331, 0.075770386, 0.09304273, -0.09895248, -0.08737996, 0.039046086, -0.021752702, 0.07078921, -0.108222544, 0.040559046, 0.034212366, 0.07001924, 0.09338792, 0.06290178, 0.069183305, -0.006019058, 0.06866196, -0.0048180176, 0.11341606, -0.09567425, 0.045690563, 0.10378085, -0.09326932, -0.08149691, 0.052341335, 0.09511846, -0.05042283, -0.099317856, 0.08814332, 0.050497927, -0.038134795, -0.020016016, 0.10482082, -0.06757536, 0.08864011, 0.07366752, -0.07431744, -0.08539597, 0.044146847, -0.015038387, 0.057968426, -0.0058971993, -0.012405524, -0.050405685, 0.099141024, 0.10142294, -0.08753462, -0.04640395, 0.094429545, -0.07356285, -0.07769802, 0.03332214, -0.0667346, -0.0973506, -0.04570575, -0.005241064, 0.055481017, -0.09816681, 0.024245119, -0.04256028, 0.0058673234, -0.10489072, -0.036364917, -0.029871296, -0.040515553, -0.06270696, 0.08830839, 0.076705955, 0.025425661, 0.034126464, 0.08756172, -0.02304577, 0.0132190315, 0.09787317, -0.06823443, -0.040965386, 0.01849702, -0.02532207, 0.031155847, 0.103028096, -0.056215227, 0.06559737, -0.023874762, 0.059530657, -0.025513636, -0.04002859, 0.019602695, -0.09529311, -0.046860028, 0.04440964, 0.023134217, 0.08479189, -0.036842924, -0.05829435, 0.036051877, -0.0027184244, -0.068301976, -0.053036112, 0.08527288, -0.02183106, 0.0446154, -0.05369976, 0.0020155907, -0.073455416, -0.03220816, -0.091895476, -0.0845315, -0.0625731, -0.0675515, -0.0897142, 0.021656826, 0.098524146, 0.0013582134, -0.06716282, -0.078666985, 0.020736372, -0.091668434, 0.048767608, -0.07440203, -0.07033843, -0.041786402, 0.045841116, -0.06838772, -0.024724828, 0.07084515, -0.097078845, -0.09275422, 0.030636083, -0.008319678, -0.002023763, -0.013268821, -0.07323415, 0.056712892, -0.094903044, -0.06395096, -0.089812815, 0.06943426, 0.06625438, 0.055321384, -0.068515226, 0.06177289, -0.0003021751, -0.077104814, 0.037381515, -0.10468183, 0.035671547, 0.09006479, -0.096376315, -0.008804564, 0.069329664, -0.035989642, -0.030043408, -0.019437047, -0.081355624, 0.07172412, 0.062575884, -0.057796463, 0.06306649, -0.06287388, 0.0004101001, -0.0463787, -0.028599892, 0.05566839, -0.0078121396, -0.06818567, -0.01371622, -0.07132542, -0.059883934, -0.04154984, 0.0785969, -0.0036339192, 0.04692148, 0.05455793, -0.034248143, 0.10812529, -0.0996616, 0.09598082, 0.025361849, -0.07681673, 0.034561194, 0.043395035, 0.08606566, -0.02922716, -0.023129432, -0.055640575, -0.100735195, 0.045629628, 0.036307056, 0.054723255, 0.06863714, -0.010326264, 0.062288284, 0.011836623, -0.029085204, -0.049633384, -0.006928474, 0.058807798, 0.074681446, -0.09281774, 0.041956116, 0.0689512, 0.06281874, 0.07616431, 0.020586373, 0.09517695, 0.010905056, 0.06416373, -0.01219231, 0.082785815, 0.03143696, -0.011534929, 0.028190391, -0.10361905, -0.039929975, -0.07790907, -0.100383215, -0.04807915, 0.078140765, -0.05347119, 0.007436914, 0.06154398, -0.088817455, -0.059670042, 0.07828196, 0.04672684, 0.032724068, -0.03376909, -0.016731497, -0.009582455, 0.050950125, -0.0075550857, 0.021737456, 0.06758281, 0.10372135, -0.03534365, 0.022041056, -0.066981725, -0.032256152, 0.09817013, 0.069082804, -0.0042099045, 0.03893983, 0.10652879, -0.003817377, 0.05496073, 0.060268138, 0.012085153, 0.017125485, -0.042876303, -0.0813816, 0.0066792304, 0.07536881, 0.02149592, -0.012240408, 0.04460031, 0.011202789, 0.093399316, -0.08196334, 0.035704255, -0.019811213, 0.023996133, 0.04775055, -0.062194515, 0.0087874895, 0.106446244, 0.007303861, 0.018447466, -0.0686786, 0.1050349, -0.010568363, -0.055276968, 0.06456867, -0.06471978, 0.070902444, -0.080188334, -0.09942803, 0.0976846, -0.052852634, 0.10992007, 0.054885942, 0.011540579, -0.039790194, -0.06710836, -0.06047665, 0.107529506, -0.03231178, -0.06392655, -0.05846772, 0.013646318, 0.01984522, -0.05862562, 0.06875058, -0.08101359, 0.0038460637, 0.009674532, 0.07901946, -0.07393897, 0.092968605, 0.08103026, 0.04775242, 0.03909613, -0.063253425, 0.0366037, 0.01971586, -0.036522057, -0.0059760227, 0.08545623, -0.08803677, 0.00070438633, 0.042417146, 0.03705974, -0.08931726, 5.89153E-05, -0.0757703, 0.0041467147, 0.03590746, 0.09290283, 0.027812693, 0.04837516, -0.09455308, -0.042889003, -0.013769521, -0.007173285, 0.03335055, 0.0194907, 0.1105858, -0.019742344, -0.029348897, 0.07070847, -0.06352289, -0.002196956, 0.08503123, -0.102709144, 0.05376538, -0.018528257, -0.016196916, -0.070569776, -0.08121805, -0.031547625, 0.084478326, -0.029497597, -0.08048473, -0.014946056, 0.09093729, 0.06991698, 0.09907138, 0.029211508, 0.007526, 0.057674743, 0.053764768, 0.07761189,
 -0.008908386, -0.14507551, -0.19171596, 0.006514826, -0.1326763, -0.075698316, -0.083093055, -0.06992276, -0.5850249, -0.15225622, -0.16647315, -0.083348885, -0.02166715, 0.022641717, -0.1240899, -0.077780604, -0.08843665, -0.080525085, 0.015878554, -0.082638115, -0.0016376959, -0.06090327, -0.003707203, 0.012051839, 0.0039041578, -0.0841221, 0.023411421, -0.12905245, -0.049786102, -0.062836595, -0.007043746, 0.019377021, -0.036612187, 0.0072250017, -0.0012005456, -0.09061731, 0.020792838, -0.01469128, -0.08787443, 0.010993181, -0.09295258, 0.050954536, -0.107917696, -0.003933876, -0.09729646, -0.042543914, 0.084495425, 0.0018885315, 0.002960783, -0.048724405, -0.027026717, -0.012113961, 0.09345882, -0.08922911, 0.07075059, 0.014240821, 0.061341386, -0.029670924, 0.08647652, -0.011834219, -0.066057466, 0.11185038, 0.02655123, 0.09133415, 0.040165097, 0.011668972, -0.11764726, -0.010544172, 0.025987783, 0.09924737, -0.026350588, 0.05484901, 0.15059187, 0.0018870475, -0.039141376, 0.09010223, 0.055242985, 0.07344422, 0.20623271, 0.12590481, 0.20596275, 0.16558498, -0.12582341, -0.12778492, 0.13695487, 0.056135714, 0.23623261, -0.21179925, 0.07011142, 0.19670145, 0.1982997, 0.09690438, 0.024102401, 0.054958344, 0.017442925, 0.17447633, 0.08198256, -0.063683845, -0.021697115, -0.06319849, 0.14505443, 0.1015013, 0.14299703, 0.08062358, 0.04807919, -0.06405956, 0.04150293, -0.0273423, 0.19117314, 0.16334906, -0.1143582, -0.030130416, 0.026060613, -0.04012356, 0.09873837, 0.1583068, 0.18747903, 0.060543068, 0.008203147, 0.123041555, -0.0029097209, 0.06892267, -0.026464973, 0.07838559, 0.018732924, 0.033328664, 0.047033582, 0.08595741, -0.008165295, 0.19893539, -0.022914488, 0.16817558, -0.023300719, 0.0875364, 0.06372411, 0.11268242, 0.21222046, -0.011206298, 0.008610934, 0.061134394, 0.15781766, 0.14162233, 0.032873567, 0.17427117, -0.008572834, 0.11518419, -0.005801462, -0.058225133, -0.110271014, -0.14728028, -0.10085912, 0.1241617, 0.055667963, -0.026003616, 0.026494484, 0.11991646, 0.10616331, 0.08420742, -0.05403319, -0.061255928, 0.08094629, -0.10347269, 0.005099379, -0.08684344, -0.16550279, -0.13978884, -0.13199863, -0.093224384, 0.027432723, 0.0028874723, 0.008026246, 0.05156306, 0.009665521, 0.07753364, 0.05542483, -0.04065139, 0.089409806, 0.0743126, 0.018755272, 0.010026773, 0.010593026, 0.13243721, -0.035983797, -0.078413725, -0.08541727, 0.011796388, -0.2383808, -0.040824488, -0.09000326, 0.09178694, 0.02015336, -0.1263494, -0.053373024, -0.018284425, -0.119137645, -0.09613875, -0.14805044, -0.026553338, -0.08912067, -0.31818196, -0.20478442, -0.010016308, -0.14837018, -0.16350377, 0.040816918, -0.06773859, -0.19466954, 0.11251195, 0.037075683, 0.024313526, -0.10829858, -0.07488679, -0.00029720142, -0.030141272, -0.10150328, -0.113220446, -0.06802991, -0.19769402, 0.022049546, 0.0557921, -0.13590328, -0.11505113, -0.09540366, 0.03132469, 0.040858343, 0.060650747, 0.0857139, -0.01826098, -0.011092023, 0.08665648, 0.09128871, -0.035064816, 0.1376201, 0.003138468, -0.07084235, -0.009931571, 0.089596085, 0.053557374, -0.07405647, 0.02689105, -0.043259237, 0.033805978, -0.07736029, -0.114536166, -0.1154466, -0.023535388, -0.06778859, -0.0068070134, -0.10560465, -0.11295605, 0.056559674, 0.006345859, -0.021504132, 0.02338053, -0.03852895, 0.045330506, 0.07402774, -0.057096902, 0.052844163, 0.06465725, -0.043191507, 0.016073937, 0.009695858, -0.11130334, -0.089818254, 0.06842992, 0.065131046, 0.03087737, -0.013098516, 0.06678742, 0.05372043, -0.077370636, -0.023607284, -0.05702535, 0.057916325, -0.02782465, -0.00082223874, -0.10252115, -0.002423507, 0.055004608, 0.035226755, -0.047003362, -0.093306735, -0.082213864, -0.025277322, -0.08533003, -0.101788625, -0.036652595, 0.017430432, -0.13970165, 0.04491338, 0.0030007258, -0.054971978, -0.014734581, -0.017587176, -0.051684458, -0.11877274, -0.10005154, 0.06876098, -0.07197874, -0.019299723, 0.047169916, -0.09619813, -0.09102422, 0.053421374, -0.07291526, -0.097658046, 0.028422233, -0.04872554, -0.037586864, -0.088066585, -0.051887546, -0.004419422, -0.098879695, 0.06950502, -0.022703068, 0.08839655, 0.05870702, -0.09455048, -0.06094684, -0.08226119, 0.028225763, -0.0764207, -0.046214446, -0.12051714, 0.00019395299, -0.036596276, -0.12998104, 0.0005914182, -0.048182663, -0.081853084, -0.2091388, -0.034440555, -0.03498456, -0.09540197, -0.0032155255, 0.0021853778, -0.06593444, 0.033298984, -0.12793761, 0.042796988, -0.04751443, -0.10012306, 0.026551927, -0.0066895112, -0.0648277, -0.15485117, -0.111929536, -0.08720487, -0.09483975, -0.08445014, -0.14064011, 0.01888336, -0.13287748, -0.032450147, -0.08862408, -0.08439861, -0.021527812, -0.042177867, 0.017346408, -0.0050831903, -0.10742304, -0.1252162, 0.0073686475, 0.046248212, -0.10311829, 0.066541925, -0.086478636, -0.12888889, 0.011003592, -0.011257194, -0.06230863, 0.081335604, -0.024517722, 0.007651417, 0.02724893, -0.07810801, -0.02665434, -0.02712868, -0.100740544, -0.026063368, 0.059956823, 0.041951273, -0.088868, -0.004137603, -0.10859347, -0.070116565, -0.06669168, -0.10166824, -0.0727577, -0.04684759, -0.31427863, -0.19837297, -0.23758546, -0.12674496, -0.071960084, -0.05045651, 0.029904066, -0.011168001, -0.09087483, -0.0893418, -0.12619144, -0.045012645, 0.047256548, 0.041682836, 0.020424215, -0.0035992216, -0.0021776352, -0.12115599, -0.042781465, 0.029520215, -0.100084625, -0.04877671, -0.13587297, -0.027071463, -0.13016689, 0.024928551, 0.034569662, -0.04457711, 0.081811, -0.044234294, 0.0009807602, -0.057671368, -0.0032169349, -0.052053798, -0.09658385, 0.04566732, 0.06379571, -0.11757609, -0.17426485, -0.105875045, -0.07849057, 0.06568196, -0.13273792, 0.058206584, -0.055670224, -0.07995132, -0.038319424, -0.055053342, -0.19385049, -0.04010035, -0.091121495, -0.16677523, -0.10012451, -0.011299263, -0.11927389, -0.023902616, -0.00088110304, -0.11233126, -0.11285688, 0.05694995, -0.07319815, 0.04407625, -0.09157656, 0.052260358, 0.012206391, -0.05260558, 0.041692548, 0.061822217, 0.041544948, 0.027572116, -0.054956876, -0.0040217014, -0.050137043, -0.033219036, -0.05318986, -0.05393163, 0.041082136, -0.119004846, -0.053429604, 0.04571598, -0.08841427, 0.011430812, -0.058682952, -0.0022504812, -0.018467844, -0.09754437, -0.10504911, -0.11875822, -0.08607174, 0.01266493, -0.111543335, -0.108986065, 0.040242348, 0.017596522, -0.02044968, -0.15921625, 0.034477156, 0.040573206, -0.06554244, -0.031110382, -0.07119914, -0.122969046, -0.14075582, -0.074258745, -0.123246744, -0.16746916, -0.07645081, -0.09741699, -0.11126777, -0.09193507, -0.19742776, -0.055198282, -0.14698717, 0.007927897, -0.10619712, -0.10686205, -0.17808625, -0.06807698, 0.01327466, -0.050425794, -0.19290675,
 0.005087102, -0.0075136116, 0.05260486, 0.028766416, -0.0018671127, 0.14976682, 0.03975553, 0.19752686, 0.4173278, 0.3168534, 0.18927753, -0.006814672, 0.09761044, 0.03787513, 0.049119413, -0.05771785, -0.06964611, 0.09961921, 0.022786442, -0.01776361, 0.075871296, 0.06584443, -0.0108874515, -0.004535745, 0.13825911, 0.19976556, 0.13557959, 0.067606136, 0.024244294, -0.085116155, 0.010264264, 0.031362347, -0.035760764, -0.043132532, -0.07106862, 0.05017686, -0.028232053, 0.06416408, -0.043911066, -0.0483452, 0.116734006, -0.0052757, 0.060751915, 0.040368304, 0.023814503, -0.03409476, -0.07486027, 0.113114096, 0.08856617, 0.08012906, 0.049722765, 0.1226676, 0.00073177373, 0.041812036, 0.004364858, -0.097234495, -0.0077290256, -0.12080916, 0.03831562, -0.01366945, 0.07096154, 0.03977553, 0.032912035, 0.023583144, -0.07721406, -0.07151234, 0.34332502, 0.020324564, -0.017750345, -0.06375089, 0.033686418, 0.049594935, -0.012760265, -0.040873293, -0.02910126, -0.13996701, -0.09539734, -0.17304662, -0.004731311, -0.019865513, -0.17160946, -0.09829981, 0.17659326, 0.24027713, -0.020245787, -0.13674162, -0.06763089, -0.20012514, -0.1752926, -0.12986423, -0.12600602, -0.014183719, -0.17072546, -0.086275436, 0.069537364, -0.22952892, -0.21147521, -0.22846727, -0.21596096, -0.044803895, -0.099274375, -0.20106006, -0.22860338, -0.029376917, -0.13408287, 0.129525, -0.10700282, 0.05228812, -0.002145075, -0.038760826, 0.03040982, 0.0029259739, -0.031170141, -0.030310467, -0.054866046, -0.1048151, -0.077002026, -0.10773002, -0.16541436, -0.10766903, -0.097154595, -0.17339155, 0.06723712, 0.010181444, -0.034133893, -0.10891668, 0.013650278, -0.0103534805, -0.081307925, -0.19683522, 0.023616528, -0.04409843, -0.044833668, -0.04153784, -0.058348123, -0.010809537, -0.0702321, 0.033485796, -0.058517393, -0.11754122, -0.09672068, -0.06510841, -0.013759366, -0.10840726, -0.061330438, -0.087443545, 0.06488531, 0.052070748, 0.03198621, -0.094367005, 0.054831415, -0.08987215, 0.0059786476, 0.073446386, -0.11574331, 0.040271092, 0.031548418, -0.04205527, -0.027540592, -0.042826068, -0.03500746, 0.059619516, 0.12913302, 0.110622205, 0.060368158, 0.09070957, 0.043600265, 0.104023665, 0.08770669, -0.09163844, 0.027296346, 0.008851965, -0.10158195, -0.028965661, -0.06160541, 0.0066387053, 0.05948624, 0.07333383, -0.12055301, 0.066543356, -0.024680398, -0.045936435, -0.046545606, -0.053328674, 0.066299036, 0.11174252, 0.0986715, 0.11840742, 0.11091265, -0.0851077, 0.020282226, -0.05156304, 0.059517983, 0.071475804, 0.010848872, 0.118828654, 0.042328104, 0.100649424, -0.010806469, 0.30375952, 0.16035835, -0.0058618714, 0.013191731, 0.10380923, -0.03537588, 0.07198274, 0.1560875, -0.13430336, -0.018601967, 0.14377914, -0.014485163, -0.03146997, -0.03441934, 0.049580682, 0.016410269, 0.12243777, 0.059075613, 0.12443166, -0.018583551, -0.009048429, 0.12074684, 0.073612444, 0.068220116, 0.10280981, -0.04570179, -0.09566897, -0.026385484, -0.018045343, 0.059945755, -0.07145349, 0.046901625, 0.024966562, -0.105968766, -0.08680521, 0.025085581, 0.004419574, 0.047168463, 0.017400645, -0.034840867, 0.002128751, -0.05336946, 0.018595371, 0.08452255, 0.00083641, 0.13686702, 0.0077020037, 0.11033052, 0.048010103, 0.053108625, -0.046969384, 0.0042466354, 0.00011076182, 0.039106976, 0.049613312, -0.073039845, -0.03471756, 0.01264873, -0.002699628, -0.0649976, 0.040018123, -0.020452837, 0.06809361, 0.070432834, 0.08753242, -0.036345962, 0.016456109, 0.018818386, -0.05816888, -0.046036415, 0.0007400141, 0.06991618, -0.079270594, -0.058311805, -0.028596446, 0.089561306, 0.12041916, -0.041332286, -0.04967531, 0.046599302, -0.07966931, 0.0946766, 0.12100084, 0.06720223, -0.013907512, 0.019028252, -0.07858018, -0.0038136747, 0.047919776, -0.04162744, 0.020377913, 0.10222257, 0.113233194, 0.06116022, 0.13550417, 0.0127741415, 0.09986571, 0.022938821, -0.038472418, 0.012033509, -0.06807651, 0.072447516, -0.06926882, -0.06137657, 0.07415581, 0.07823386, -0.030149566, -0.0227481, 0.11657888, 0.07267408, 0.026838087, 0.08384964, 0.0707029, 0.09835704, 0.04755837, -0.031913616, -0.04930016, 0.031435836, -0.005068336, -0.0056167254, 0.029314118, 0.0361359, -0.034905106, 0.010091232, 0.09503177, 0.003898803, -0.034385927, 0.15883923, 0.0030879322, -0.009807781, 0.10887735, 0.14186022, 0.12841448, 0.077339254, 0.0836255, 0.09139993, 0.07277155, 0.071987234, 0.046545543, 0.070694126, 0.12428873, -0.011862333, 0.06375275, -0.04775574, 0.038103055, -0.083200105, 0.124843486, 0.02405855, 0.14828748, 0.1212117, 0.09498103, 0.015380367, 0.0141898105, 0.13925323, 0.081487484, -0.035131622, 0.077465326, 0.11901951, 0.11049276, 0.08036574, -0.05719055, -0.010741171, 0.10169053, 0.10417776, 0.083757885, 0.033027217, 0.054429036, 0.07201963, 0.017365376, 0.046684843, 0.036177903, -0.009133027, -0.06690239, 0.015928425, 0.058269028, -0.031054126, 0.0057438016, 0.007853248, -0.0324703, 0.12296836, -0.0099456115, 0.064789414, -0.0771761, -0.05050647, -0.07305363, -0.06677958, 0.043146055, -0.06962965, 0.07458471, 0.08196645, 0.0020169825, 0.00034488784, 0.27997497, 0.22197007, 0.22801068, 0.1498901, 0.10932774, -0.016288167, 0.13558088, 0.09184777, 0.055732783, 0.03287554, -0.043550532, 0.054571696, 0.07827461, 0.104289055, 0.09392671, 0.04422629, 0.055869147, 0.015627211, -0.0834725, -0.021519212, -0.02981486, 0.02224709, -0.046075772, -0.003400763, 0.091664866, -0.025978789, 0.0041638534, -0.08976459, 0.059237335, 0.045049604, 0.0327696, -0.008484064, -0.04594496, 0.08710027, 0.012928954, 0.049197532, 0.10497853, 0.06255144, -0.0058009326, -0.016841372, -0.0051468145, -0.054716393, 0.11344557, 0.04025268, 0.045123346, 0.097892955, 0.14268515, 1.8873174E-06, 0.023699883, 0.13612446, 0.073397376, 0.11872901, 0.13780995, 0.120891064, 0.014354623, -0.046212908, -0.08063033, 0.015437715, 0.08881047, -0.063315004, 0.05949266, 0.04608193, 0.095334165, 0.08051785, 0.11465576, -0.0847593, 0.019769287, -0.042024, -0.075761266, 0.018472124, 0.06656569, 0.07926173, 0.11977596, 0.07129324, -0.023448275, 0.064933695, 0.032256275, -0.00032692193, 0.019701544, -0.058590867, 0.12805207, 0.04880705, 0.08401543, 0.07434592, 0.10497993, 0.09800255, 0.061616357, 0.0462705, 0.062460124, 0.0923907, 0.06576249, -0.051171478, 0.07506581, 0.083948985, 0.016217807, -0.016701663, 0.10404447, -0.023852836, 0.00038990917, -0.028701479, 0.039018255, 0.08488253, 0.123529114, -0.0272259, 0.06495354, 0.12629662, 0.11368319, 0.09343133, 0.10110935, 0.11064197, 0.17263342, 0.04246415, 0.090191215, 0.05062563, 0.08903192, 0.06374883, 0.17705801, 0.1487394, 0.08397454, 0.047336385, 0.035678774,
