# 1 "neural_net_HLS/solution1/mylib.c"
# 1 "neural_net_HLS/solution1/mylib.c" 1
# 1 "<built-in>" 1
# 1 "<built-in>" 3
# 149 "<built-in>" 3
# 1 "<command line>" 1





# 1 "/opt/Xilinx/Vivado/2019.2/common/technology/autopilot/etc/autopilot_ssdm_op.h" 1
# 305 "/opt/Xilinx/Vivado/2019.2/common/technology/autopilot/etc/autopilot_ssdm_op.h"
    void _ssdm_op_IfRead() __attribute__ ((nothrow));
    void _ssdm_op_IfWrite() __attribute__ ((nothrow));
    unsigned int __attribute__ ((bitwidth(1))) _ssdm_op_IfNbRead() __attribute__ ((nothrow));
    unsigned int __attribute__ ((bitwidth(1))) _ssdm_op_IfNbWrite() __attribute__ ((nothrow));
    unsigned int __attribute__ ((bitwidth(1))) _ssdm_op_IfCanRead() __attribute__ ((nothrow));
    unsigned int __attribute__ ((bitwidth(1))) _ssdm_op_IfCanWrite() __attribute__ ((nothrow));


    void _ssdm_StreamRead() __attribute__ ((nothrow));
    void _ssdm_StreamWrite() __attribute__ ((nothrow));
    unsigned int __attribute__ ((bitwidth(1))) _ssdm_StreamNbRead() __attribute__ ((nothrow));
    unsigned int __attribute__ ((bitwidth(1))) _ssdm_StreamNbWrite() __attribute__ ((nothrow));
    unsigned int __attribute__ ((bitwidth(1))) _ssdm_StreamCanRead() __attribute__ ((nothrow));
    unsigned int __attribute__ ((bitwidth(1))) _ssdm_StreamCanWrite() __attribute__ ((nothrow));




    void _ssdm_op_MemShiftRead() __attribute__ ((nothrow));

    void _ssdm_op_Wait() __attribute__ ((nothrow));
    void _ssdm_op_Poll() __attribute__ ((nothrow));

    void _ssdm_op_Return() __attribute__ ((nothrow));


    void _ssdm_op_SpecSynModule() __attribute__ ((nothrow));
    void _ssdm_op_SpecTopModule() __attribute__ ((nothrow));
    void _ssdm_op_SpecProcessDecl() __attribute__ ((nothrow));
    void _ssdm_op_SpecProcessDef() __attribute__ ((nothrow));
    void _ssdm_op_SpecPort() __attribute__ ((nothrow));
    void _ssdm_op_SpecConnection() __attribute__ ((nothrow));
    void _ssdm_op_SpecChannel() __attribute__ ((nothrow));
    void _ssdm_op_SpecSensitive() __attribute__ ((nothrow));
    void _ssdm_op_SpecModuleInst() __attribute__ ((nothrow));
    void _ssdm_op_SpecPortMap() __attribute__ ((nothrow));

    void _ssdm_op_SpecReset() __attribute__ ((nothrow));

    void _ssdm_op_SpecPlatform() __attribute__ ((nothrow));
    void _ssdm_op_SpecClockDomain() __attribute__ ((nothrow));
    void _ssdm_op_SpecPowerDomain() __attribute__ ((nothrow));

    int _ssdm_op_SpecRegionBegin() __attribute__ ((nothrow));
    int _ssdm_op_SpecRegionEnd() __attribute__ ((nothrow));

    void _ssdm_op_SpecLoopName() __attribute__ ((nothrow));

    void _ssdm_op_SpecLoopTripCount() __attribute__ ((nothrow));

    int _ssdm_op_SpecStateBegin() __attribute__ ((nothrow));
    int _ssdm_op_SpecStateEnd() __attribute__ ((nothrow));

    void _ssdm_op_SpecInterface() __attribute__ ((nothrow));

    void _ssdm_op_SpecPipeline() __attribute__ ((nothrow));
    void _ssdm_op_SpecDataflowPipeline() __attribute__ ((nothrow));


    void _ssdm_op_SpecLatency() __attribute__ ((nothrow));
    void _ssdm_op_SpecParallel() __attribute__ ((nothrow));
    void _ssdm_op_SpecProtocol() __attribute__ ((nothrow));
    void _ssdm_op_SpecOccurrence() __attribute__ ((nothrow));

    void _ssdm_op_SpecResource() __attribute__ ((nothrow));
    void _ssdm_op_SpecResourceLimit() __attribute__ ((nothrow));
    void _ssdm_op_SpecCHCore() __attribute__ ((nothrow));
    void _ssdm_op_SpecFUCore() __attribute__ ((nothrow));
    void _ssdm_op_SpecIFCore() __attribute__ ((nothrow));
    void _ssdm_op_SpecIPCore() __attribute__ ((nothrow));
    void _ssdm_op_SpecKeepValue() __attribute__ ((nothrow));
    void _ssdm_op_SpecMemCore() __attribute__ ((nothrow));

    void _ssdm_op_SpecExt() __attribute__ ((nothrow));




    void _ssdm_SpecArrayDimSize() __attribute__ ((nothrow));

    void _ssdm_RegionBegin() __attribute__ ((nothrow));
    void _ssdm_RegionEnd() __attribute__ ((nothrow));

    void _ssdm_Unroll() __attribute__ ((nothrow));
    void _ssdm_UnrollRegion() __attribute__ ((nothrow));

    void _ssdm_InlineAll() __attribute__ ((nothrow));
    void _ssdm_InlineLoop() __attribute__ ((nothrow));
    void _ssdm_Inline() __attribute__ ((nothrow));
    void _ssdm_InlineSelf() __attribute__ ((nothrow));
    void _ssdm_InlineRegion() __attribute__ ((nothrow));

    void _ssdm_SpecArrayMap() __attribute__ ((nothrow));
    void _ssdm_SpecArrayPartition() __attribute__ ((nothrow));
    void _ssdm_SpecArrayReshape() __attribute__ ((nothrow));

    void _ssdm_SpecStream() __attribute__ ((nothrow));

    void _ssdm_op_SpecStable() __attribute__ ((nothrow));
    void _ssdm_op_SpecStableContent() __attribute__ ((nothrow));

    void _ssdm_op_SpecPipoDepth() __attribute__ ((nothrow));

    void _ssdm_SpecExpr() __attribute__ ((nothrow));
    void _ssdm_SpecExprBalance() __attribute__ ((nothrow));

    void _ssdm_SpecDependence() __attribute__ ((nothrow));

    void _ssdm_SpecLoopMerge() __attribute__ ((nothrow));
    void _ssdm_SpecLoopFlatten() __attribute__ ((nothrow));
    void _ssdm_SpecLoopRewind() __attribute__ ((nothrow));

    void _ssdm_SpecFuncInstantiation() __attribute__ ((nothrow));
    void _ssdm_SpecFuncBuffer() __attribute__ ((nothrow));
    void _ssdm_SpecFuncExtract() __attribute__ ((nothrow));
    void _ssdm_SpecConstant() __attribute__ ((nothrow));

    void _ssdm_DataPack() __attribute__ ((nothrow));
    void _ssdm_SpecDataPack() __attribute__ ((nothrow));

    void _ssdm_op_SpecBitsMap() __attribute__ ((nothrow));
    void _ssdm_op_SpecLicense() __attribute__ ((nothrow));
# 7 "<command line>" 2
# 1 "<built-in>" 2
# 1 "neural_net_HLS/solution1/mylib.c" 2
# 1 "neural_net_HLS/solution1/mylib.h" 1








extern const float w1[];
extern const float b1[];
extern const float w2[];
extern const float b2[];
extern const float w3[];
extern const float b3[];
extern const float w4[];
extern const float b4[];
extern const float w5[];
extern const float b5[];
# 2 "neural_net_HLS/solution1/mylib.c" 2
const float w1[] ={
 0.016019441, 0.02155894, 0.05199884, 0.06143287, 0.05281028, -0.030076504, -0.06449809, -0.035437297, -0.008530043, 0.047550097, 0.017392173, -0.038877048, -0.07398135, 0.06561172, -0.07505805, -0.0026138797, -0.01910067, 0.05460055, -0.06064969, -0.022284482, 0.06273246, -0.0071733072, -0.013084829, -0.010179482, -0.02652147, 0.07051849, -0.068663225, 0.025467679, 0.053646073, 0.03814107, -0.034177404, 0.075906694, 0.0068049654, 0.056321695, 0.047772355, -0.07360109, -0.020359203, -0.038866542, -0.030513894, 0.0488498, -0.046346165, 0.042522393, -0.016655438, 0.027528726, -0.05756861, 0.047915652, -0.017035786, 0.068539694, -0.00056565553, -0.061742526, 0.017475583, 0.066344544, -0.07429509, 0.07030377, -0.040584527, 0.03009668, 0.02350071, -0.010829553, -0.04682622, 0.0044108406, 0.025544226, 0.054501295, 0.073155135, 0.030313447, 0.012480326, -0.049297363, 0.02668713, -0.065314345, 0.049598828, 0.030853115, 0.03369133, 0.005275026, 0.011554733, 0.030381806, 0.031053372, -0.071288206, -0.0012514889, 0.02623596, -0.05653097, -0.067274176, -0.019785397, 0.03539671, 0.017994285, 0.072333544, 0.018605292, 0.06548363, -0.05027919, 0.028258756, -0.053550813, 0.0412623, -0.040473443, 0.05258377, -0.03475351, -0.008831762, -0.033447076, 0.055252865, 0.03644634, 0.0057432577, 0.06554562, -0.01815863, -0.005597964, 0.06704357, 0.024187863, 0.0072120726, 0.034525827, -0.07519608, -0.03673165, -0.07159718, 0.075472355, 0.07067756, -0.058269456, 0.0026596785, -0.027273979, -0.05461853, -0.012279935, -0.012091182, -0.066408955, -0.057008855, 0.0046350136, -0.06333526, 0.028180145, 0.002929993, -0.034533955, 0.043727033, 0.030945458, 0.011391133, -0.0536251, -0.06687735, -0.021719582, -0.017485745, -0.040766142, -0.048664518, 0.05432208, -0.040253688, -0.05296795, -0.030679975, 0.010742173, -0.005298257, -0.02823098, 0.022920132, 0.06606199, 0.05289468, -0.00138928, -0.05639801, -0.0028056726, 0.041557148, 0.001846157, 0.036947966, -0.0723079, -0.051916786, -0.0099786, -0.029895902, -0.0489999, 0.05866602, 0.069140255, -0.024167314, 0.05591303, 0.055725425, 0.013007864, -0.014080584, -0.020831816, -0.052401714, 0.030276574, -0.05778382, -0.004412718, -0.029765949, -0.045054942, 0.0020162389, 0.07449563, -0.07045853, -0.00747966, -0.024231348, -0.0086277425, 0.0053473935, 0.049829736, -0.04001385, 0.030390352, 0.047713205, -0.0013413504, -0.036116987, 0.031574644, -0.05719565, 0.031496428, 0.021044418, 0.060277358, 0.024918936, -0.060030825, -0.013990797, 0.0487549, 0.053545877, -0.06074194, 0.010280639, -0.005005583, -0.027810916, -0.01742021, 0.05966595, -0.040723532, 0.013400115, -0.059074424, 0.049901396, 0.027673304, -0.0125302, -0.06613436, -0.07245234, 0.0734314, -0.009640284, 0.017095745, -0.01627589, -0.045195416, -0.031152587, -0.040559642, -0.018197346, 0.011326626, 0.045940988, 0.0183058, 0.042140305, 0.044041604, 0.013530955, -0.040495228, 0.051390857, -0.019334894, 0.03503286, -0.05721032, -0.033891514, 0.01696989, -0.07562121, 0.02509369, 0.038259827, 0.001670666, -0.042515814, -0.019448258, 0.054136306, -0.023643486, 0.047204703, 0.0068074986, 0.05674833, 0.032119803, 0.01531858, 0.06976394, -0.05888636, 0.060240313, -0.06748884, 0.0053974465, 0.060317636, 0.06617567, 0.029101491, -0.022608273, -0.05650397, -0.060453966, -0.026428841, 0.004574582, 0.028378837, 0.06278013, 0.009312145, 0.022059746, -0.0055213124, 0.004091792, 0.02747599, 0.046302505, -0.0527139, 0.0619556, -0.03842247, 0.06232959, 0.007342279, -0.019282594, -0.04138993, -0.04750274, 0.072546855, -0.00081991404, 0.07116227, 0.0115847215, -0.00902006, 0.013568543, -0.00030025095, -0.059424587, 0.020366699, -0.028074317, 0.06381075, 0.018712752, -0.066230126, 0.07315679, 0.048365682, -0.029919188, 9.752065E-05, 0.026823789, -0.04732743, 0.020149678, -0.00028429925, -0.054930083, 0.018406346, 0.050647706, -0.012829654, -0.004502453, 0.05831361, 0.018856376, 0.045469552, -0.035071038, -0.0023165494, -0.0051400065, -0.019222219, 0.012875654, -0.050632864, -0.04246897, 0.052462727, 0.00804472, 0.07033108, -0.05944717, 0.034707673, -0.06946919, -0.0053626224, 0.024880871, -0.028750222, 0.0348526, 0.045753196, -0.06471169, -0.05049326, -0.066584885, -0.043329336, -0.07007438, 0.0017488599, 0.0075527653, 0.0024613813, -0.057566762, -0.033252638, 0.019472234, 0.006676495, 0.026461042, 0.017733626, 0.05258414, 0.022960663, -0.04884929, -0.0043632984, 0.009444959, 0.014600664, -0.060408168, -0.051708966, 0.0032920912, -0.013774756, -0.003463544, 0.074506745, 0.06973831, -0.0061350167, 0.031088248, 0.0032799914, -0.017225735, 0.02502665, -0.057928003, 0.0005333349, -0.019240398, 0.034447864, 0.0674777, 0.04325498, 0.007558435, 0.0551648, -0.00820218, -0.04797934, 0.024680093, -0.027339771, 0.024549648, 0.0051780865, 0.008463003, -0.0135612115, 0.05155313, -0.013783321, -0.037064154, 0.054496914, -0.018913802, 0.011400044, -0.029219054, 0.0027558059, -0.029763233, 0.020091891, 0.05269824, 0.00511878, 0.029961728, -0.02875705, -0.022490874, 0.058416754, 0.035677694, -0.03143835, -0.0032699928, 0.053586796, -0.07517846, -0.05380304, -0.003513053, 0.020932809, -0.015435968, 0.027561083, -0.034356613, 0.005025521, -0.049646962, -0.010601081, -0.022794746, 0.005638495, 0.0027668327, 0.018971823, -0.0758299, -0.03587563, 0.02101244, 0.058158755, -0.023741566, 0.058306724, 0.0015899837, 0.06335047, 0.0631087, 0.06869833, 0.039275758, -0.023506146, -0.01977031, -0.06009926, 0.069845095, 0.018850945, 0.03472638, -0.054759875, 0.0685198, -0.065371424, -0.018282007, -0.020858943, -0.028494306, 0.06673585, 0.03463497, 0.057844102, -0.06894127, 0.044251837, -0.021837238, -0.026302677, 0.002074048, 0.04419394, 0.012765661, -0.0053969547, -0.07016205, 0.061852083, 0.044719525, 0.044165187, 0.0690908, 0.013584703, -0.030676354, 0.064914346, -0.05593264, 0.028199904, -0.039057758, -0.050285764, -0.060164, 0.066841826, 0.061556622, 0.0449887, 0.06762254, -0.06123487, -0.030336678, 0.02531337, -0.036406156, -0.06590782, 0.05164498, 0.02713003, 0.013689481, 0.06921522, -0.003877163, 0.003813848, -0.046515267, -0.014137484, -0.04436893, -0.009425923, 0.028757088, 0.048309, -0.006507665, -0.039780892, -0.06697273, 0.061422557, -0.07346835, 0.008170508, 0.03444714, 0.025507681, -0.025257487, -0.051043633, 0.0063417107, 0.008585565, 0.02953998, -0.008970171, 0.031729296, -0.036706205, -0.05376275, 0.007836007, 0.01892604, 0.009163417, 0.013236843, -0.047947053, 0.007148057, -0.031817485, -0.004858494, -0.07248926, 0.044150732, 0.04419919, -0.060604744, 0.068114266, 0.02698239, -0.008073002, 0.016780645, 0.0297779, 0.022468545, -0.0695835, -0.0052810237, -0.018986978, -0.003522344, -0.034448154, -0.04224434, -0.07295606, 0.057537585, 0.012844883, -0.0021771565, 0.05675724, 0.024017096, 0.027929783, 0.031019866, 0.021996096, -0.024044678, -0.009341501, -0.060319647, -0.037776154, 0.038553596, -0.0056931153, 0.06674501, -0.07143152, -0.010471679, 0.027051419, -0.033091377, -0.026680741, 0.064038485, -0.0008134842, 0.0032880157, 0.07094318, 0.060439065, -0.010957561, -0.03783526, 0.07337782, 0.024952471, -0.04609622, -0.009311579, -0.037741654, 0.068722755, -0.03929046, 0.028332844, -0.055891536, -0.06965086, 0.07027167, -0.060089067, -0.028111115, -0.009653993, -0.05614847, -0.009575032, -0.057196192, -0.023836803, 0.057097048, -0.027623434, 0.024160758, 0.015006401, -0.02837386, 0.023176141, 0.016028881, 0.055690303, 0.009867333, 0.031520694, -0.030523658, 0.0010878369, -0.039862875, -0.036037724, 0.028158449, 0.074767455, -0.03812037, -0.04129656, -0.06582206, 0.029902294, -0.05987954, 0.071758285, -0.050064363, -0.070440896, 0.025209136, 0.011061579, -0.019567486, -0.008603349, 0.05627954, 0.023129761, 0.06812161, 0.0070828274, 3.761053E-05, -0.018731657, 0.041190185, 0.0029348284, -0.023509134, 0.045264788, 0.05757223, 0.017638192, -0.004458502, 0.025070742, 0.01205764, -0.02188874, 0.063898906, -0.063531496, -0.0041467324, 0.012480475, 0.0281827, -0.021103326, -0.043557618, -0.05985993, -0.03983274, -0.037117086, 0.03113991, -0.038258888, -0.06433208, -0.006638266, -0.03507426, 0.061245933, -0.065046325, -0.038976718, -0.043, 0.045342535, 0.058143258, 0.0031043887, 0.06395094, 0.019150019, 0.058080778, -0.0064094365, 0.06688054, 0.008251652, 0.014629021, 0.062124953, -0.018453121, 0.051214352, -0.05929407, -0.006531909, 0.03921824, -0.018619128, 0.0036824867, -0.0012891963, -0.07556125, 0.025455296, 0.07191023, -0.016517412, 0.03180296, 0.03233313, -0.00039713085, -0.035748284, -0.041171372, 0.052584603, -0.027864993, -0.049409695, 0.011658132, -0.072592534, 0.04527104, -0.06471574, -0.052596897, 0.046522856, -0.05761133, -0.022961184, -0.0035942197, -0.026871577, -0.028091248, 0.019531414, -0.060381256, 0.018895984, -0.07464661, -0.069595195, -0.06282495, 0.028702177, 0.062340707, -0.010445468, -0.06308275, -0.04224472, 0.03826899, -0.051237457, -0.0058396533, 0.019971177, 0.05744359, 0.03419035, 0.030340664, 0.05361946, -0.016061984, 0.04407779, -0.067082256, 0.02302672, -0.020627618, -0.036253296, -0.05446466, 0.06500751, 0.016720794, -0.013285823, -0.00542517, 0.039738826, 0.043964066, -0.0026166514, -0.029762708, 0.033174768, -0.014697563, 0.07055257, -0.057084426, 0.029382505, -0.040738434, 0.033736356, 0.07476233, 0.035918944, -0.0045088828, 0.042987086, -0.04661767, 0.0431071, -0.03028686, 0.06615791, 0.0024193153, 0.06294741, -0.055373196, 0.057112977, 0.03378518, 0.00081621855, 0.05697912, -0.038024176, -0.011615306, -0.014322706, -0.0042428225, 0.013832323, -0.020822365, 0.0050751343, 0.0007791817, 0.049637333, -0.026666906, -0.009185359, 0.03833475, 0.01810477, -0.0172569, -0.05372535, 0.009025313, 0.024047427, -0.029722016, -0.0019731745, 0.04517287, -0.0048564672, -0.026746914, -0.039886814, -0.029406864, -0.0013102889, -0.050786465, 0.00047235936, 0.058578953, 0.008082353, -0.026184406, 0.025490753, -0.0631905, -0.003722705, 0.011649698, 0.011439338, 0.006029293, 0.03925305, -0.034462895, 0.03721352, 0.00076672435, 0.043107875, -0.0059871897, -0.0034565926, 0.058403283, 0.014974438, 0.06720269, 0.018383928, 0.06991792, -0.061831314, 0.0068879947, -0.067818955, 0.04413016, -0.074165575, -0.03571239, -0.00940562, -0.0052817985, 0.025484867, 0.058744997, 0.060329914, 0.04391995, -0.0410175, -0.0050119385, -0.011685789, -0.06610459, 0.045726337, 0.066956624, 0.018914036, -0.0012040958, 0.06103772, -0.054570414, -0.07386839, 0.044240534, -0.01966745, 0.007681571, -0.073734105, -0.024637137, -0.057672754, -0.008570246, 0.02520629, 0.043170735, -0.04480011, -0.06419237, -0.02857612, 0.07523373, 0.0147746205, 0.032237545, 0.04117454, -0.019448366, 0.01198446, 0.028243907, -0.019828476, 0.019061245, 0.048552625, 0.04214161, 0.04178337, 0.044997014, -0.04461534, -0.03858978, 0.014635958, 0.018455133, -0.07003829, 0.017493837, 0.032078564, 0.06170897, -0.06311616, 0.074332014, -0.017448168, 0.038018346, -0.052947488, 0.05210097, -0.030479088, 0.0028301254, 0.024801716, -0.0017188713, 0.06655201, -0.05367642, -0.06448621, -0.018967912, -0.008549511, -0.0219533, 0.062397227, 0.018236369, 0.03446056, 0.0706919, 0.07177694, -0.066770434, -0.036393985, 0.037758335, -0.022088632, 0.021216422, -0.0067856237, -0.07050333, 0.06723656, 0.037258774, 0.04226107, 0.017473012, 0.05571972, -0.07441556, -0.008888334, 0.04539054, 0.027527198, 0.05181843, 0.03839737, 0.063511446, -0.035820995, 0.0034697577, -0.016646296, 0.016455807, -0.060682505, 0.049874574, -0.031234678, -0.0039618164, 0.05633749, 0.066946015, 0.07122637, 0.03575314, 0.0140751675, 0.05478677, 0.0035906732, 0.03011582, 0.014765292, -0.027712874, 0.059834093, -0.027732596, 0.07506381, -0.010326855, 0.06640017, -0.044765994, 0.03780462, 0.0021034032, 0.030257031, 0.003804125, 0.07189904, 0.06551461, 0.03320782, 0.012590848, 0.023616374, -0.04681083, 0.069705695, -0.033459898, -0.017823827, 0.046604946, -0.020912837, -0.048187885, 0.052522138, 0.071605146, -0.07511671, -6.0126185E-06, -0.024439529, 0.06370129, 0.013997011, 0.07377936, -0.04419472, -0.006911047, -0.04922717, 0.0044793785, 0.064615935, -0.011117741, 0.051601842, 0.07343672, -0.062033795, -0.0072795153, 0.036628447, -0.03397208, 0.064502, 0.039295293, -0.02978196, 0.07509595, -0.03226719, -0.01997909, 0.026580542, -0.05791935, -0.025778506, -0.0009975061, 0.06841181, 0.017136857, 0.054585606, -0.06844948, 0.06136577, -0.014352836, -0.030389324, 0.008138269, 0.05314955, 0.052906558, -0.03947655, 0.04579182, -0.060853127, 0.038585342, 0.016769439, -0.07176755, -0.060614012, 0.013664924, -0.032886796, 0.061545104, -0.029813178, 0.0046542063, 0.06523067, -0.06251008, -0.018558823, -0.0038504824, 0.009589434, -0.048676148, 0.020605631, 0.027736254, 0.06303221, 0.008905612, 0.036737517, 0.035741277, 0.06797415, -0.058815755, 0.046339355, 0.02359265, 0.019976884, 0.05352485, -0.06463536, -0.009535737, -0.015258912, -0.0151447505, -0.042244937, 0.06893553, 0.0076536164, -0.053839818, -0.047813825, -0.060933046, 0.050637737, -0.013423219, 0.038030766, 0.071245685, -0.042715326, 0.061383933, 0.07378945, 0.037389465, -0.06566104, 0.01664874, -0.0006127432, -0.05629385, 0.069545075, 0.03116887, -0.057371996, 0.0012804791, 0.027204841, 0.051032394, -0.057493925, -0.07198574, -0.06869562, 0.056534886, 0.031455733, 0.03311608, -0.012250923, -0.06359632, -0.031584963, 0.0735261, -0.053033166, 0.033181615, -0.013304047, -0.06898823, -0.07291343, 0.057222962, 0.07149327, -0.035969615, 0.030317575, 0.0510619, -0.031596426, -0.024361208, 0.034553654, 0.010374159, -0.00443206, -0.07012811, 0.020668, 0.041596286, 0.05924344, -0.041591648,
 0.042420037, -0.001743406, -0.04186202, 0.0039482713, 0.04107385, -0.0017796829, 0.0755638, -0.01571782, -0.020160891, 0.044445172, 0.06493056, 0.024816565, 0.0418808, -0.02089395, 0.053560644, -0.029125918, 0.03490492, -0.0037752613, 0.056939274, -0.0686412, -0.022084575, -0.052692402, 0.047948845, -0.0023744777, 0.03534445, -0.039125178, 0.037567355, 0.017893694, 0.045593582, 0.021571018, 0.058739573, -0.016456384, -0.07151457, 0.012604937, -0.010280371, -0.054855943, -0.050647404, -0.044101004, 0.07186581, -0.049880587, 0.038256317, -0.023761846, -0.015414, 0.0084435195, -0.05056843, 0.074861065, 0.05289185, 0.04691591, -0.044251002, 0.06063342, 0.07434186, 0.049069315, 0.010872506, 0.059944555, -0.049083766, -0.0636203, 0.024728552, 0.050754115, -0.017321568, -0.05369757, -0.021986801, 0.036860898, 0.038578585, -0.021750461, 0.06473191, 0.002538018, 0.004444048, -0.008345835, -0.06192711, -0.04967063, -0.014293004, -0.05916106, 0.03497482, 0.06235762, 0.009589322, -0.025995053, -0.024185583, 0.06579943, 0.0052672774, -0.050922465, 0.036980525, -0.025834102, 0.07082832, -0.035676643, -0.05575653, -0.020981979, -0.06815226, 0.024540417, 0.013917856, 0.0039731413, -0.0019983128, -0.049381226, 0.046846755, 0.049426198, -0.018241443, 0.014679819, -0.019324932, -0.06739642, -0.019131709, -0.06354294, -0.03439359, -0.037927672, -0.054335393, 0.07437295, -0.046339862, -0.039881054, -0.0415542, 0.021166384, 0.07067469, -0.023176577, -0.027449403, -0.061551526, 0.064026564, 0.028703935, 0.069863886, -0.05712193, 0.006321773, 0.04481809, -0.049605764, -0.0018470287, 0.043881483, -0.05680891, -0.038292482, 0.06102529, -0.04757947, -0.0028655455, 0.01840122, -0.009301186, 0.06651029, -0.036470246, -0.02968663, -0.014969509, -0.05954291, -0.012817629, 0.017269976, -0.013287075, 0.06679964, -0.058115378, -0.07326053, -0.027791034, -0.058028944, 0.057708666, -0.02586503, 0.012736432, 0.046448894, -0.028150104, -0.004213646, 0.060488686, -0.044798117, -0.052583095, -0.057938635, 0.054248556, 0.057292655, 0.06077738, -0.017438173, -0.060661152, -0.04193281, 0.024753995, -0.07510024, 0.03537973, -0.051073894, -0.027176537, 0.04790774, 0.049836934, 0.021006174, -0.07526748, -0.02965876, 0.010131009, 0.073245704, -0.009302817, -0.024769895, -0.010385133, -0.025098994, -0.04480326, -0.035768893, -0.039839204, 0.05760315, -0.023913242, -0.075687036, -0.074690126, 0.00342606, 0.016147926, 0.033906326, 0.05405262, -0.009088837, 0.0057030544, 0.04080821, -0.030970827, -0.044762567, 0.07196011, 0.005063966, 0.06093216, -0.064362705, 0.026139311, -0.02933716, -0.0123374835, -0.070012845, -0.021385323, 0.06945793, 0.06054142, -0.07477341, -0.035879467, 0.03366801, -0.053563528, -0.061413825, 0.023863964, 0.053557992, -0.04980931, -0.0325715, -0.0013530254, -0.018664073, -0.0022897422, 0.06133969, 0.06347686, -0.02131622, 0.04045309, -0.021475941, -0.0034964532, -0.05726508, 0.03267552, -0.04957353, 0.06226313, 0.038270712, 0.028730266, 0.0658789, -0.024052572, 0.026243731, 0.07296878, -0.009270042, -0.05614561, 0.04815694, 0.07381804, -0.044082478, -0.07167955, 0.074784786, -0.059610277, 0.024434552, -0.033917807, 0.037265524, -0.058505327, -0.036432557, -0.048950665, 0.008070596, -0.057720564, 0.012557365, 0.011260621, 0.019333877, -0.02081262, 0.073902875, -0.021559589, -0.05959396, 0.022559814, -0.055249363, -0.03432255, 0.06721994, -0.0064544976, 0.021098167, 0.018984899, -0.060774952, 0.03610619, 0.002555281, 0.04049713, -0.047633417, -0.04509844, 0.057908744, -0.0138087645, 0.030093566, -0.06398017, 0.021178931, 0.036962144, 0.038694434, 0.009349033, 0.041253604, -0.023008324, 0.038072832, -0.059612393, -0.06442068, 0.027669609, 0.033528246, 0.057722032, -0.020781346, -0.031018905, 0.03170959, -0.030471884, 0.026067182, -0.07315064, 0.06657639, 0.04815864, 0.032987736, -0.016195863, 0.018529177, 0.01659441, 0.06282647, 0.030546762, -0.05646661, 0.024771743, 0.013233252, 0.015854105, -0.066131175, -0.019057516, 0.060478702, -0.00416068, -0.0032733083, -0.046287745, 0.030310221, -0.014335472, -0.01141002, -0.058253534, 0.05656904, 0.06009254, -0.04181345, -0.04299895, 0.02650503, 0.00095845014, -0.014614604, 0.01355958, 0.016782708, -0.053259637, -0.010455996, 0.00456737, 0.025478981, -0.0692783, -0.017587937, 0.022125557, -0.03309087, 0.030676983, -0.060712855, 0.0024716705, 0.0550732, 0.004701905, 0.03971365, 0.05878605, -0.0603918, 0.00022113323, -0.058204874, 0.034310706, 0.070439786, -0.04743228, 0.0629735, -0.02783475, 0.008663818, 0.00040957332, -0.038940538, 0.061857462, 0.0029229522, 0.012535997, 0.057792515, -0.06815988, 0.009530306, 0.07014716, -0.00037366152, -0.041487105, -0.075118154, 0.006294757, 0.074285746, -0.041981902, -0.034257174, -0.02941836, 0.06726056, -0.022211846, -0.03561317, 0.01340314, 0.000101193786, 0.028090268, -0.031087358, 0.013541132, -0.05627116, 0.062222764, 0.026166081, -0.024773773, 0.022433951, -0.06980205, 0.014688984, -0.03144768, 0.0074053407, -0.075083494, -0.023094852, 0.04250609, 0.06336531, -0.014590863, 0.032360584, -0.0189159, -0.06509472, 0.008717798, -0.001260452, 0.07036105, 0.07240684, -0.016617082, 0.058420822, 0.05760756, -0.013083205, 0.03616818, -0.036834873, -0.01134751, 0.043280803, 0.0688494, -0.05894904, 0.061014175, -0.008795708, 0.027469017, 0.04119598, -0.017869804, -0.042653013, 0.07308222, -0.0032234192, 0.024721414, 0.028713174, -0.06786265, 0.04229188, 0.07591237, -0.061188854, 0.023852028, 0.040819727, 0.00720679, -0.025106855, 0.07370144, -0.037522297, 0.0068087503, -0.044098504, 0.0008623451, -0.037622567, -0.021424495, -0.024933603, 0.06906095, -0.06079322, -0.02808281, -0.04093934, 0.009382226, -0.019294545, -0.00840085, -0.01525902, 0.06252541, 0.054182604, 0.047851905, 0.029680312, 0.012926832, -0.0528652, 0.01773312, -0.050301574, 0.031505443, -0.039863817, 0.042142965, -0.047536552, -0.06370545, -0.002750717, 0.0034331009, -0.036324844, -0.058635224, 0.045876287, 0.066713944, 0.04260142, -0.06228618, -0.06990769, -0.06946005, 0.017531723, -0.05712901, 0.062624454, -0.03811749, 0.039641492, 0.066926956, -0.04808113, -0.070895866, 0.019983403, -0.03494413, -0.054153956, -0.035445772, -0.058624156, -0.07237074, -0.048570536, 0.04429827, 0.047966577, 0.068413764, -0.052708663, 0.047025546, -0.04385707, -0.0049726963, 0.060102865, 0.07190205, 0.05317293, 0.0020516291, -0.0077978, -0.07053903, -0.014447909, -0.047594864, -0.010899864, 0.009980105, -0.033972695, -0.06816365, -0.05105397, -0.06630747, 0.02265378, 0.046574213, -0.057691664, -0.067431256, 0.05769582, 0.02843219, -0.07437552, -0.073321104, 0.07024489, -0.04465167, 0.07131909, 0.065412834, 0.019449092, 0.057306662, 0.01688499, 0.055412933, 0.020657495, -0.010831125, -0.019587625, -0.040014304, -0.033454303, -0.06406796, -0.027051345, -0.016384814, 0.06347191, -0.008075163, -0.054087028, 0.030074708, -0.0006413013, 0.042274565, 0.04292751, -0.05180565, 0.012998454, -0.023554008, -0.073762804, -0.023358863, -0.0017924458, 0.053759232, -0.06647277, 0.056510434, 0.05581732, -0.07451573, -0.022976652, -0.059154395, 0.06984508, 0.01201579, -0.032151204, -0.026883565, 0.038252674, 0.0070896596, -0.0475185, -0.058799673, 0.07211514, -0.03994567, -0.03212299, -0.020208932, -0.06099371, 0.032550856, -0.059922554, -0.0022748783, 0.015000388, 0.059835553, -0.044076465, 0.025318861, 0.017542318, 0.034011215, 0.04327716, -0.03911857, -0.0005762875, 0.05131887, 0.048824064, 0.074638635, 0.014522992, 0.05305527, -0.033360098, 0.07002084, 0.036589243, 0.0007699877, -0.069745846, -0.018745348, -0.04026124, -0.067821145, 0.06662533, 0.028729178, 0.05313778, 0.012207642, 0.022082582, -0.051058482, 0.06033264, 0.05461161, 0.058660105, -0.04021825, 0.050453067, -0.04026211, 0.05424595, 0.05822842, -0.06574275, -0.05271368, 0.046446234, 0.06601946, -0.020329107, 0.0025129616, 0.074018836, 0.033494666, 0.03248526, -0.032501325, 0.049800366, 0.03943432, -0.0029482096, -0.013766319, -0.054216, -0.051328726, -0.04182495, -0.0065920725, 0.07330239, -0.0048746467, -0.064180784, 0.016200535, 0.006166868, 0.024748527, 0.045534506, -0.029958993, -0.03557036, 0.01777368, -0.02059868, 0.07458991, -0.03797316, -0.028818674, -0.042781804, 0.018973127, 0.028919272, -0.052500606, -0.038253546, 0.021383405, -0.056559965, 0.036973067, -0.020367786, 0.031334348, -0.040396318, 0.025668293, 0.072365135, -0.048399635, -0.07498047, 0.06612852, 0.0010171384, -0.044276357, -0.02532563, 0.04824269, 0.026613683, 0.067756936, 0.016242318, 0.03811454, 0.032981344, 0.021410204, -0.030206349, 0.011741169, -0.04637896, -0.04871005, -0.011608332, 0.027053937, 0.061333492, 0.041521132, 0.037298903, 0.017075337, -0.045533516, 0.0065540597, 0.03753876, -0.040134948, -0.059403576, 0.016115531, -0.066104464, 0.05003625, 0.014607944, 0.00093188137, 0.03711272, -0.06710978, -0.02553396, 0.012849249, -0.04440002, 4.5888126E-05, -0.01649854, 0.0027207583, 0.04486201, -0.062067132, 0.012983672, -0.042534884, 0.03755053, -0.017360121, -0.018726531, -0.0113337785, -0.05129403, -0.03796983, -0.06778759, 0.025486767, -0.02093245, 0.057385087, 0.06816912, 0.030573674, -0.021604698, -0.07590288, -0.07380942, -0.006572224, -0.06782571, -0.00921718, 0.03363896, -0.016169589, -0.048922975, -0.056254227, 0.012129411, 0.04804296, 0.049008287, -0.04464274, -0.004310183, -0.07438057, 0.054426014, 0.044993915, -0.020919159, 0.056134403, -0.06354656, -0.073871605, 0.06348474, -0.07423602, 0.054550394, 0.01715596, 0.04953304, -0.023942105, 0.016388148, -0.034603097, 0.008628301, -0.0548221, -0.062249493, 0.045157857, -0.05063817, -0.00582882, 0.013103105, 0.019025482, -0.014103074, -0.01931316, 0.054963514, -0.041504435, -0.052576233, 0.030398868, -0.031205792, -0.011680685, 0.005333118, -0.037360147, -0.0492231, 0.018361792, -0.054578673, -0.04487995, -0.029954594, -0.06370024, -0.051784534, 0.0096095875, 0.055874243, -0.006540388, 0.030551761, -0.059167273, -0.015498135, -0.07016996, 0.025392167, 0.013420664, -0.0109128505, 0.026362002, 0.0030721128, -0.011597142, 0.05781381, 0.03125395, 0.034721456, -0.075774685, -0.028092135, -0.03928664, 0.03116753, 0.05888623, 0.072474316, 0.031164832, -0.06323684, -0.005452387, 0.02098605, 0.07338652, -0.027240206, 0.009385139, -0.05504276, 0.050517306, 0.07237902, 0.0043226853, -0.03873717, 0.04183612, -0.04595761, -0.05561903, -0.005487196, -0.074675746, -0.07419764, 0.059933648, -0.035620127, 0.06267202, 0.04558076, 0.07532583, -0.026925035, -0.047682226, -0.011597648, -0.028471053, -0.02641365, -0.0565357, 0.065899, 0.01109536, -0.06385179, 0.06710406, 0.04570251, -0.054612555, 0.006827615, -0.006078951, -0.041888766, 0.0352436, 0.023576714, -0.012601554, 0.07547824, -0.06789969, -0.045545466, -0.06794635, 0.035746835, -0.03984176, 0.023126036, 0.069283575, -0.072368905, -0.018700872, 0.029764414, -0.0064830333, 0.017823353, 0.06093824, -0.06788194, 0.054950133, 0.06034729, -0.00066608936, -0.0390217, -0.019326564, 0.062516555, 0.047269806, 0.010172948, 0.049181283, -0.06290899, 0.06465854, 0.051709637, 0.007158421, 0.044993065, -0.016084835, -0.05340208, 0.047373608, 0.002358809, 0.06077361, -0.04551225, 0.052537113, -0.072953835, 0.06225039, -0.031964533, 0.06935057, 0.016922966, 0.06969541, -0.016451802, -0.013548173, -0.03968725, 0.060048506, 0.017066501, -0.06882361, -0.017605375, 0.06352164, 0.05829139, -0.031521365, -0.004957266, 0.06744963, -0.013686094, 0.04274839, 0.01382564, 0.023069263, -0.024738133, 0.04632543, -0.021582715, 0.07396874, 0.006630756, -0.01524622, 0.003779173, 0.030655421, 0.061749354, 0.0012095869, 0.04735718, -0.064314045, -0.013524812, -0.051007725, 0.0014018863, -0.01339443, 0.0033513382, 0.06871386, 0.012857147, 0.00188642, -0.006889187, 0.045589417, 0.057566613, 0.018393435, -0.05044094, -0.054905165, 0.008840419, -0.030080054, -0.0017548352, -0.03820581, 0.07388057, -0.012918465, 0.031584546, -0.05349665, 0.016204737, -0.054608136, -0.010198586, -0.026309341, 0.035008468, -0.039916117, -0.042166978, 0.059771508, 0.03496115, 0.010977939, 0.07411809, 0.011403106, 0.04947424, 0.07125603, 0.07403457, -0.0053337216, -0.03891102, -0.04543181, -0.046034433, -0.05502849, 0.022710577, 0.041163966, -0.05877573, -0.032368112, 0.05169344, -0.03416567, -0.031399835, 0.017724842, 0.061811745, -0.020546924, -0.059086557, 0.014621235, 0.009556055, -0.03112258, 0.055012375, 0.062200636, 0.002715312, 0.038027637, -0.0266863, 0.003971331, -0.056605488, -0.06803587, 0.022268929, 0.034861803, -0.024155796, -0.069383316, 0.06155558, -0.06600186, 0.01948136, 0.028842993, 0.059142426, 0.05521372, -0.053807765, 0.057303205, -0.008664452, -0.015341401, 0.06432864, -0.068360224, 0.05119644, -0.02941731, 0.040929504, 0.030767642, 0.06390208, 0.0118930265, 0.07069294, 0.04816871, 0.04845623, -0.052096337, -0.07519398, -0.0140641965, 0.0078214705, -0.07443091, 0.058563188, 0.047137626, -0.06980857, -0.01062946, -0.0073551536, 0.048225045, 0.05553271, -0.046274073, 0.05206527, -0.034989167, -0.0060864985, -0.013796397, -0.060401194, 0.0040708706, -0.032210004, 0.07361081, 0.04441388, -0.074584365, 0.05247143, 0.034746356, -0.05847548, -0.03826302, -0.051379755, 0.044402048, -0.042545296, 0.027233943, -0.03351671, -0.07424848, -0.028467774, 0.06840797, -0.029623505, 0.024540164, -0.041717146, 0.061547294, -0.0070889667, 0.05982612, 0.06322959, -0.03475601, 0.056905776, 0.028844588, 0.05231157, -0.052731175, -0.052184857, 0.068095684, -0.04171816, 0.07190102, 0.07570203, -0.005592823, 0.038945355, 0.009555474, -0.053815827, -0.015996356, -0.042079765, -0.022367477,
 -0.023336988, -0.047670595, -0.07503275, 0.0014540255, -0.07017306, 0.058820114, 0.011589646, -0.074848145, -0.06340183, 0.028912045, 0.032475993, -0.015179105, 0.049845785, -0.02478147, -0.037638992, 0.0597488, -0.00030617416, 0.068018004, 0.073212326, -0.026014231, 0.026780091, 0.01929272, 0.032809652, 0.028600693, -0.047082737, -0.017152157, 0.025222756, 0.07463533, -0.0073022023, 0.06360808, -0.0626511, -0.07174997, -0.02531518, 0.03947282, -0.009662122, 0.0004457757, -0.04450953, -0.06806044, 0.07167171, 0.026162766, -0.0051324517, -0.05873274, -0.026748233, 0.04449001, -0.04156476, -0.036576618, -0.066175416, -0.020907242, 0.0120714605, 0.048620753, -0.045880992, 0.0464188, -0.05543276, -0.016838558, -0.070808694, 0.025874607, -0.07049528, 0.023750313, -0.07144815, -0.048125155, -0.068170056, -0.011601746, 0.024639837, 0.027254969, -0.032599095, -0.05600928, 0.029202878, 0.07568991, -0.041649908, 0.039832488, 0.042731896, 0.07425535, -0.055290256, -0.063684985, 0.04229925, 0.031633608, -0.009950906, 0.02106005, -0.061783105, -0.047003817, -0.05258514, -0.0034379214, -0.05458896, 0.0087634325, -0.061242983, 0.04210238, -0.02745355, 0.071821794, 0.041013025, -0.039203428, -0.048933983, -0.016178496, -0.05005353, 0.029969119, -0.016979847, -0.051656593, -0.0029607639, 0.025950037, 0.06742984, -0.07160093, -0.06323622, -0.014152512, 0.06988861, -0.011855468, 0.06737994, 0.05385378, -0.02930788, 0.024311967, 0.05193253, -0.00916595, 0.044956304, -0.008333653, -0.06814943, -0.03910131, 0.017901964, 0.044684842, 0.075722456, 0.0111025125, -0.0015617758, -0.039488412, 0.02965188, -0.025814831, 0.068780884, 0.07287738, -0.023445934, -0.0726542, -0.04773914, 0.033724472, 0.033458345, -0.038278863, 0.05840051, -0.060891956, -0.02140807, -0.035002492, -0.002037719, 0.013751522, -0.07082892, -0.04182323, -0.075251706, 0.050515294, -0.060512494, 0.06417586, -0.015243176, 0.03347665, 0.050489485, -0.07378016, -0.06622471, 0.06034191, 0.07522781, 0.06628078, -0.07154023, -0.045997165, -0.003158912, -0.015686996, -0.0075021684, -0.060473815, -0.0009959117, 0.0010114536, 0.059310317, -0.030970592, -0.054015025, 0.000101178885, 0.051625296, -0.021998193, 0.06431846, -0.03092425, 0.061563283, 0.041407138, 0.015900321, 0.04870324, -0.023951434, -0.07150981, -0.071852684, 0.0606059, -0.033174716, 0.044936217, -0.0741134, -0.031833984, -0.010683678, 0.02565214, -0.033430345, -0.042648032, 0.03157348, 0.059055477, -0.01925465, 0.0028173923, -0.05564393, -0.062940046, 0.06804128, 0.03472758, 0.021114446, 0.06850368, -0.04145261, 0.055807263, 0.04518058, 0.027225718, 0.06432746, 0.022949032, -0.045559064, -0.009735644, -0.038608506, -0.041832212, 0.0015396997, 0.026025295, 0.0631699, -0.040385142, 0.014166713, 0.029864207, 0.052073017, -0.04296668, -0.011026487, -0.054239832, -0.01341375, 0.06288014, -0.019762795, -0.00048128515, -0.050005756, 0.010869734, 0.025001928, 0.06786591, 0.07369451, -0.007451862, -0.0685215, 0.054218695, 0.032962695, -0.0084663555, 0.0015596896, 0.031765983, -0.07215478, 0.06588884, 0.03183748, -0.038107514, 0.059028924, -0.039695963, -0.0172816, -0.04682026, 0.0067599267, 0.05463642, -0.028185777, -0.035345536, 0.047213122, 0.017650992, -0.053051144, -0.034759287, 0.056672037, 0.00079543144, 0.04174362, -0.03869742, 0.06853938, -0.034738626, 0.03517317, -0.008512065, 0.005692117, -0.03861316, 0.066928476, -0.045355752, -0.053624466, -0.029978607, 0.052084953, -0.00854218, 0.031023815, 0.025504619, -0.007854715, 0.067880675, -0.06696762, 0.045849226, -0.033008058, -0.057829056, -0.047461454, 0.04023958, -0.01192715, 0.053082258, -0.03943863, -0.004178442, 0.06723513, -0.01579795, -0.07247811, -0.07516359, 0.04104653, 0.06534894, -0.062767774, -0.011712663, -0.06366022, -0.029115342, 0.03195242, -0.023102563, 0.00995817, 0.05546631, -0.016508445, -0.04045479, 0.05661857, 0.016518064, 0.059792623, 0.054673985, 0.05386986, -0.035162617, 0.007228829, 0.0153428465, -0.03264678, -0.007834092, 0.010703072, 0.020420916, 0.040677913, 0.045910224, 0.03309366, -0.010891244, -0.012022816, -0.0055698976, 0.0036784634, -0.040130004, 0.03153982, -0.04918246, -0.072484665, 0.04477611, -0.0045553297, -0.0056120753, -0.031109579, 0.06479949, -0.07432564, -0.0073265284, 0.0038371235, -0.0654232, 0.036073178, 0.016921878, -0.0745725, -0.043052427, 0.051963344, -0.07333744, 0.0195183, 0.008039303, 0.007896334, -0.032065853, 0.023378387, 0.00607612, -0.009645574, -0.04786788, -0.024020735, -0.052687764, 0.05002822, -0.0008857548, 0.0167225, -0.06383167, 0.023802176, -0.06350975, 0.00011117011, 0.037271738, 0.025355726, 0.07406415, -0.060470335, -0.06917638, -0.06937754, 0.014758736, 0.029315375, -0.040896602, -0.0746739, -0.038983837, 0.04807327, -0.06366659, 0.025482424, -0.05665884, -0.032827325, -0.06615125, -0.027368221, -0.062171567, -0.028789502, -0.07290083, 0.0012809932, -0.067814104, -0.026088245, -0.06883128, -0.03109466, -0.020576566, -0.026247967, 0.01492092, -0.02378365, 0.05006315, -0.0073684826, -0.074581504, 0.024260938, 0.011092097, 0.029173851, 0.023505405, 0.012994632, -0.060148135, -0.01953625, 0.0006233379, 0.07247768, 0.07157989, 0.03826423, -0.011999749, 0.040049814, 0.020774052, -0.03633437, -0.075012706, 0.029131822, -0.06863249, -0.004168682, 0.009098381, 0.05076137, -0.049980804, -0.05539623, -0.071987584, 0.044958003, 0.060425654, 0.03271722, -0.05814814, 0.057785228, 0.028251626, -0.004873164, -0.0073058605, 0.052108437, 0.03299813, -0.0647773, -0.021661997, 0.022274688, -0.055078432, -0.022582449, -0.034262933, 0.07035963, 0.020299278, 0.031026855, -0.056160673, -0.02168436, 0.05154875, -0.07409442, 0.046912834, 0.06287788, 0.06386028, -0.031087901, 0.030006565, -0.0059108213, 0.0043079033, 0.07468696, 0.06969617, 0.019047588, -0.011385232, 0.028407015, 0.02960451, 0.06075284, 0.010324776, -0.025790565, 0.0056990013, -0.07323596, -0.07440771, 0.05365506, -0.06731777, 0.00085745007, 0.028211817, 0.0050101057, -0.039679825, 0.023401134, 0.011791132, 0.035974815, 0.055280447, 0.018340737, 0.00037603825, 0.0005116239, 0.014152475, 0.06906472, -0.04588552, 0.03201685, 0.049978122, -0.010734841, -0.029049713, -0.066164084, 0.039651394, 0.019091815, -0.04845036, 0.018656068, -0.06538894, -0.06232977, 0.03944265, -0.028155137, 0.012554035, -0.035350498, -0.047811106, -0.07370328, -0.031711113, -0.067728594, 0.023445338, 0.025608242, 0.046982937, 0.054681152, 0.035827696, 0.013707139, -0.007991493, 0.05714917, -0.037149087, 0.057981268, -0.050165683, -0.03585658, -0.008298539, 0.0540888, 0.06757812, -0.02030982, -0.07406331, 0.015832521, 0.059105977, 0.007923149, 0.0044106767, 0.05123332, 0.0138923, 0.035636917, -0.005153045, -0.045076672, -0.048967812, -0.032994095, -0.02705551, -0.01849546, -0.019487988, -0.07402282, 0.02266378, -0.02161071, -0.0037799105, 0.07285406, 0.073847964, -0.036073454, 0.072374865, -0.058560558, -0.027412571, 0.06876072, 0.0154480785, -0.061345335, -0.03770174, -0.014232557, 0.06310424, 0.06304863, -0.0064141676, -0.037298687, 0.0056349114, 0.04561676, -0.0034652501, 0.022377528, -0.046288, 0.0498396, -0.03583137, -0.021935336, -0.064336434, 0.07522279, -0.032113772, 0.07428998, -0.041457806, 0.06827429, -0.01609034, 0.018268809, 0.0116768405, 0.033210807, 0.07533628, 0.0103554875, 0.055612072, -0.049849316, 0.007105939, -0.055161156, -0.005395703, 0.046949796, 0.07358603, 0.0011920407, -0.01918368, -0.07474257, 0.003383845, -0.061800078, -0.07074415, 0.033745937, -0.036770295, -0.007802926, 0.027358405, 0.04878971, -0.0700001, -0.00843966, -0.025833484, -0.051112358, 0.023740783, -0.048823535, -0.025561322, -0.07482846, 0.054620385, 0.057283297, -0.06385723, -0.06636865, 0.03209222, -0.019642279, 0.009266816, -0.05146199, -0.026192319, -0.06912385, -0.026865274, -0.024800248, 0.03823357, 0.048194915, -0.033704825, 0.04663881, 0.032677636, 0.064360976, -0.05709511, -0.03504581, -0.028058216, -0.019345108, -0.055299275, 0.013928071, 0.045190252, 0.029144786, 0.0034442768, 0.03433323, -0.0036358386, 0.0077120513, 0.02415473, 0.022229739, -0.057563756, 0.040498108, -0.043023273, 0.03029655, 0.07489522, -0.036541466, -0.043322563, 0.074585795, 0.042057924, 0.062997535, 0.015754849, 0.052416712, -0.032111995, 0.04054497, 0.05021538, -0.059894916, -0.035715345, 0.07415964, 0.06187831, -0.043882824, -0.038661692, 0.046827853, 0.0075741336, 0.075195536, 0.023774177, -0.06458985, -0.028515294, 0.033257276, 0.040916286, -0.052519966, 0.074900344, -0.010123596, -0.027469143, -0.012797363, 0.06013316, -0.06423908, 0.023063362, 0.017587624, -0.06030518, -0.044464745, 0.061905578, 0.006031975, -0.07016136, 0.06977418, 0.064165294, 0.02495917, -0.029127166, -0.034395274, -0.0643495, -0.045004778, -0.04616911, -0.042359352, -0.049066056, 0.023820214, -0.052757956, 0.0018954352, -0.0007721782, 0.028939106, -0.00406678, 0.00153175, -0.04856164, -0.028354555, 0.016312525, -0.014418356, 0.06550509, -0.051386386, 0.024952382, -0.041122586, -0.028842308, 0.016981348, 0.060533315, 0.023452997, 0.053391397, 0.06935644, 0.04614093, 0.066531986, -0.02803538, -0.020332132, -0.04077134, 0.04225836, -0.05731135, -0.026331034, 0.0007568747, -0.06533749, -0.062871195, 0.0010387823, 0.066919774, -0.04024085, -0.059910182, -0.05013801, 0.06650999, 0.06332858, -0.060101762, -0.036156014, -0.07403946, 0.0014649406, 0.06367354, -0.036218833, -0.052136615, -0.024394039, 0.036589243, -0.0028916746, -0.035448667, -0.05469084, -0.0222711, 0.040760852, 0.062107876, 0.0142009035, -0.05868298, -0.04813651, 0.0128235, 0.053026766, 0.06794137, 0.054584578, -0.0006020218, 0.0205805, -0.0085114315, 0.06948452, 0.075790465, 0.0007186085, -0.05409818, 0.015394859, 0.02522134, -0.018250607, 0.04651721, 0.06719366, -0.07237812, 0.027314655, -0.045475706, 0.06519954, 0.04739981, -0.005214013, 0.040100537, 0.025899835, -0.031087343, 0.032103486, -0.058035646, -0.026511546, 0.048796862, -0.0075754523, 0.02806691, 0.04793912, -0.011651725, 0.06617206, 0.060814098, -0.057832334, -0.043743093, 0.008329213, -0.052983128, 0.06807256, -0.044036426, 0.04502908, 0.023736462, 0.001997374, -0.049264386, 0.009371452, -0.061076887, 0.069985196, 0.06484352, -0.026160028, 0.03923382, 0.0048176944, 0.011349626, -0.07177331, -0.03741116, 0.04048507, -0.043206755, -0.025413714, -0.05459416, 0.058642715, -0.043408815, 0.0109902695, -0.06255811, 0.05729632, -0.07447218, -0.03546243, 0.039679244, 0.028376251, -0.018822566, -0.027531113, 0.05182448, 0.074585855, 0.03551721, -0.031835325, -0.023850873, -0.06047691, -0.051798098, 0.061550617, 0.014170043, 0.047254138, -0.0048361123, -0.042217087, -0.011486821, -0.018013176, -0.032194518, -0.028221183, 0.027901791, 0.000926882, -0.0050113946, 0.046944365, -0.005722612, -0.0131271705, -0.040755622, 0.046789527, 0.050869465, -0.027074706, -0.0023031607, 0.009431064, 0.0028862953, -0.04882618, 0.036589473, -0.046799727, -0.02406976, -0.018471792, -0.02153726, 0.07406612, 0.014504753, 0.010519356, 0.0181593, 0.0301181, -0.066077285, -0.030121796, -0.022503402, 0.008852243, 0.005710572, 0.067388594, 0.037504278, 0.054933056, 0.0694419, -0.02165975, -0.062276747, 0.029290527, 0.053409755, -0.058227766, 0.051385537, -0.002938196, -0.017449182, -0.0692377, 0.07418676, 0.043987893, 0.010294966, 0.000621289, -0.028909694, -0.026348617, 0.06434183, -0.01867197, 0.028852321, -0.047437824, 0.023308702, -0.06051186, 0.04486458, -0.022665374, 0.07002704, 0.06588863, 0.07105346, -0.03361705, 0.021943085, 0.072325036, 0.03599312, -0.032187745, -0.06269802, -0.004485175, 0.017820455, -0.03469491, 0.054590195, 0.048078686, -0.008275427, -0.0017647371, 0.025512516, 0.07215507, -0.03176135, 0.00018757582, -0.020949617, -0.06489819, -0.061763115, 0.0032843202, 0.04230629, 0.015264802, -0.036171317, 0.01681795, -0.0052845553, -0.07253604, 0.072184, -0.028378677, 0.016292602, 0.018967964, -0.074129485, -0.054374564, -0.014119137, 0.053539008, -0.073861085, 0.030302346, -0.053401344, -0.034433287, -0.008610994, -0.061717443, -0.0030726194, 0.0030037016, -0.05239474, 0.0015427396, 0.07331531, -0.041804902, 0.0019632205, -0.023629196, 0.017415047, 0.028690338, 0.06283817, 0.06537901, 0.05320862, 0.072775945, 0.029771619, 0.05031821, 0.0084876865, 0.018050283, -0.04785321, -0.06221351, -0.06531018, 0.040228225, 0.015095167, 0.0052623525, 0.052398875, 0.052900255, 0.06278171, 0.02676908, 0.019585848, 0.036572546, 0.037126556, 0.033114247, 0.00083566457, 0.06719877, -0.039622385, -0.020864848, -0.012631036, -0.013845671, 0.008285247, -0.019861199, -0.010638066, 0.04577051, -0.013014823, 0.03490617, 0.0032596886, -0.04304609, 0.010301307, 0.0020204782, 0.037342615, 0.035038292, 0.06260662, 0.056063607, -0.040273555, 0.013898984, 0.0028242543, -0.022718072, -0.03533777, -0.07212072, 0.03921082, 0.02542179, 0.03389267, 0.07108413, -0.0334532, -0.07037784, 0.017352626, -0.041240185, 0.07345928, 0.023895279, -0.03820458, -0.017170139, -0.032486204, -0.03845925, -0.07467134, 0.016679525, -0.03136309, -0.027820624, 0.04887227, 0.0029167384, -0.0039952695, -0.059144415, -0.05307362, 0.03407134, -0.07574605, -0.062611274, 0.06725137, 0.055893093, 0.031241864, 0.062479272, -0.030770142, 0.045763157, -0.062812775, 0.010860808, 0.0006971657, 0.016977727, 0.06970243, 0.028569132, 0.043318994, 0.014044926, 0.044830807, -0.018194612, 0.07354103, -0.04868973, -0.029290494, -0.029175572, 0.03340832, -0.06107989, 0.07183124, 0.075757354, -0.031067386, 0.0026138276, -0.04913911, -0.052977007, -0.06609766, 0.015972868, -0.025583886, 0.06578542, -0.028955348, 0.05928409, 0.045666836, -0.003373377, 0.017773427,
 -0.07496372, -0.05079534, -0.0085553825, 0.02367489, 0.005157046, -0.07567635, 0.05684586, 0.008572079, -0.06047874, -0.037550274, 0.039434046, 0.012696192, -0.0052646697, -0.047034077, -0.0041897222, -0.059323553, -0.038276147, -0.04165565, -0.07091422, -0.019333642, 0.0141065195, -0.010052934, -0.07415808, 0.06037356, -0.07298924, -0.007416293, 0.048715554, 0.060296074, -0.0129848495, 0.069051445, -0.053120993, 0.026316762, -0.07059035, 0.009815671, -0.07028671, -0.07291137, -0.056251764, 0.059185475, -0.07277694, -0.075928956, 0.042269565, 0.06485543, -0.054675125, 0.03326177, -0.01832851, -0.0062432513, 0.013390645, -0.066501044, -0.074297845, 0.04833939, -0.039459944, 0.05617033, 0.075889826, 0.0009800345, 0.07149349, -0.011078693, 0.043622233, -0.07010415, 0.05510445, 0.07151224, 0.056657523, -0.07561744, -0.038914714, 0.022604413, -0.00113561, 0.0077493414, 0.06802574, 0.04181812, -0.031266566, 0.06346817, 0.06792462, 0.05144584, -0.073787294, 0.0053580776, -0.052079152, -0.04907395, 0.031499922, -0.06065757, 0.00029738992, 0.019028194, -0.029089428, -0.07069703, 0.04461643, 0.014336579, -0.044347126, 0.023725778, 0.010496706, 0.009621486, -0.021749157, 0.008275047, 0.07389334, -0.049534306, -0.005808465, 0.058838993, 0.043762237, 0.049650535, 0.059737533, -0.04547953, 0.014281414, 0.0019526035, -0.071097985, -0.029195167, -0.023402814, -0.029191688, 0.024907, -0.035931043, 0.06872074, -0.021622464, -0.0747436, 0.023861252, 0.061434194, 0.012244403, 0.04678064, 0.07184221, 0.07404578, -0.0040949807, -0.04399798, -0.02055011, 0.060428172, -0.06020875, -0.035687946, -0.05055883, 0.030380324, 0.013381988, -0.05144975, -0.0042711645, -0.059522554, -0.0725764, -0.04274269, 0.042431936, 0.07304865, 0.04410568, 0.0017331392, -0.06853545, 0.038783528, 0.010237671, -0.02135539, -0.03634111, -0.0056440756, 0.03390781, -0.057970017, 0.043684043, 0.033868022, -0.039945886, -0.015120231, -0.0014232546, 0.051643357, 0.026036724, -0.03758604, 0.0073095784, -0.036121354, -0.0026410073, 0.0026974753, 0.05191624, 0.056261748, 0.0031230003, -0.036031965, 0.034170054, -0.030770015, -0.05198522, 0.041074775, -0.05489997, -0.03854456, 0.07267517, 0.014770813, -0.013616156, 0.01059337, 0.015855648, -0.053423017, -0.06137422, 0.06471276, -0.06559569, -0.05323325, -0.028332155, 0.013146311, -0.0617326, -0.05385657, -0.0015906245, -0.013360202, 0.075800374, -0.054721937, -0.03312743, 0.0072167516, 0.03054256, -0.020078909, 0.06674673, 0.05044943, -0.054154158, 0.073920324, -0.018886782, 0.041938372, 0.032195263, 0.055095807, -0.06733914, 0.016520835, -0.04648035, -0.018089343, 0.058728665, 0.06499055, -0.0739909, 0.01729127, 0.039202392, 0.008512408, 0.024499781, 0.04489495, -0.030235179, 0.033641532, 0.07501845, 0.017735347, -0.07500271, -0.052677102, 0.069571674, -0.010296889, 0.0115970895, 0.041561767, -0.073135756, -0.012768447, 0.033602312, 0.07183267, 0.0292686, 0.01590626, 0.026686557, 0.02953332, -0.06880908, -0.039378542, 0.023470454, -0.03893483, -0.018477205, 0.034848474, 0.022420228, 0.07427898, -0.055336688, 0.043058135, 0.062632576, 0.023717806, -0.028026778, 0.06949246, -0.014568936, -0.0545855, -0.0012914017, -0.020058084, 0.06694135, -0.065929495, -0.06195263, -0.04015722, 0.04021448, -0.019347604, 0.00499589, 0.06590292, 0.0025348738, 0.07463212, -0.04315514, 0.040794484, 0.06998131, 0.04776223, 0.015340693, -0.04113874, 0.031848036, 0.062147826, 0.026513107, 0.033711456, -0.0054672733, 0.041253008, -0.0046911836, -0.04212906, -0.018506344, 0.07584037, 0.030670725, 0.038167797, 0.01478032, 0.05434324, -0.035917245, -0.051783048, 0.037949912, 0.061137006, 0.028500408, -0.012233138, -0.03210171, 0.005168669, 0.067428574, 0.065686464, -0.06580105, -0.051674284, -0.066075966, -0.055980705, 0.0071241185, -0.02598638, -0.07396105, 0.07317291, -0.017931629, 0.021746382, -0.015225574, -0.016118355, 0.054900333, -0.02567396, 0.06321257, -0.0062940866, -0.067643605, -0.07369151, 0.009504393, -0.06491971, -0.06402113, -0.015183814, -0.06223379, 0.033578113, 0.00095980614, -0.016397528, 0.02063381, 0.025292799, -0.017504308, -0.06646307, -0.044195715, -0.021422647, 0.021755762, 0.038269192, 0.025455236, -0.0026930869, -0.012063615, -0.017464396, 0.018107325, 0.04857084, -0.057944484, 0.06599003, 0.027495079, 0.051446646, -0.0050169677, -0.0011368021, -0.06196208, -0.06748292, 0.075506434, 0.032288738, -0.07556587, 0.044218533, -0.0011039898, 0.0023744553, 0.075331, 0.05123627, 0.00042843074, -0.054448396, 0.023450278, -0.04507843, -0.022194624, 0.06431234, -0.055172168, 0.059312686, 0.06810315, -0.023673005, 0.005428739, -0.051440276, -0.068687364, 0.012010522, -0.04043389, -0.057681575, 0.06093274, -0.041410014, 0.025327168, -0.04365543, -0.015192997, -0.015628267, -0.016383655, -0.0032812208, 0.042913206, -0.036379244, -0.042136084, 0.033051208, -0.010020234, 0.06649485, 0.024225079, -0.021829125, -0.047300354, 0.025549352, 0.035044782, 0.013756089, 0.0048336685, 0.012153856, -0.029003553, -0.064218774, 0.02818951, -0.06624409, -0.067060396, -0.02427309, -0.05950249, 0.036915787, -0.005926542, 0.07365765, -0.032091223, 0.07069941, 0.06081797, -0.047559224, -0.00044070184, 0.035886712, 0.029279739, -0.048353314, -0.032066815, -0.018760018, 0.05783598, 0.0099169165, 0.048780307, -0.058949, 0.013578564, 0.016602509, -0.0050505623, 0.012932807, 0.022212498, -0.052263647, 0.04074713, 0.013257198, -0.07388367, 0.03745497, 0.033436574, -0.023565236, 0.07579002, 0.06359494, 0.074881256, 0.038916394, -0.05930184, -0.026006248, 0.039045356, 0.04453349, 0.022606768, 0.05393876, 0.04843781, -0.06429507, -0.03824835, 0.03938975, 0.013284974, 0.029514521, -0.005115919, -0.075125925, -0.010150112, 0.040658027, -0.002500482, 0.03611885, 0.061591297, -0.06475879, -0.061494246, 0.024394058, 0.007443115, 0.007961087, 0.010800883, 0.017083868, -0.010673776, -0.012480453, -0.05829796, 0.06960715, -0.045037776, -0.03758349, 0.032816626, 0.057272285, 0.032900527, -0.017848019, 0.05736716, -0.0042476207, 0.020338848, -0.028422829, -0.038783275, 0.06415956, 0.014371492, -0.07311622, -0.01762084, -0.057708375, 0.047736876, 0.05867043, -0.02663257, 0.03028769, -0.04044092, 0.015317135, -0.0017251149, -0.060993582, 0.03095328, -0.05498747, 0.016805507, 0.04738386, -0.0109421015, -0.0056200027, -0.015059188, 0.026668467, 0.025663823, -0.05194837, -0.072071426, -0.07101126, -0.008188598, -0.03614969, -0.047516435, -0.032555435, 0.015965186, 0.003084898, 0.028437644, -0.03278946, -0.07508715, 0.037110582, 0.038824677, 0.055884734, -0.035842832, 0.037721336, 0.011321954, 0.059971586, 0.029813811, 0.031341776, 0.015184954, 0.016144164, 0.06359401, 0.00036997348, 0.05593215, 0.06417909, -0.05277308, -0.07516808, -0.022040516, -0.017898634, 0.032122515, 0.03553599, -0.06069317, -0.022300038, -0.07508029, -0.021483675, -0.023276284, -0.06931572, -0.024866834, -0.031309105, 0.07490952, -0.031257242, 0.058460653, -0.01886456, 0.045202583, -0.051578343, 0.044151656, -0.074245185, -0.071631715, 0.06471053, -0.05981942, -0.045798942, -0.0026500449, 0.06545991, -0.026642457, 0.026127286, -0.07385672, 0.02280023, -0.0692415, -0.009892128, 0.0050125495, 0.07208158, 0.033969365, 0.03244017, 0.046331115, -0.026246611, -0.0362722, -0.025961518, 0.039224617, 0.045477465, 0.038471058, 0.034427725, 0.0017004684, -0.060878083, 0.039209567, -0.024796624, 0.024696298, 0.0049050003, -0.0719997, -0.049912333, 0.052564606, -0.058466934, -0.040708665, 0.011130199, 0.025887996, 0.034597374, 0.06880322, -0.039867945, -0.061911575, -0.020394769, 0.04297503, 0.0027751103, -0.074692875, 0.060990065, 0.033486247, 0.044924013, 0.0005479455, 0.067667305, -0.0754769, -0.026940662, 0.04085969, 0.035594106, 0.020022586, 0.034781344, -0.06559645, 0.0032427758, -0.04582987, 0.025177717, 0.023683563, -0.0497188, -0.07293525, -0.075101696, 0.037896544, 0.008641109, 0.050689682, -0.015267082, -0.009826392, -0.038436122, 0.07418141, 0.015522115, -0.035428133, 0.047048382, 0.054856256, 0.060728773, -0.017047122, 0.0505988, -0.013432778, 0.07073261, -0.063863054, -0.042825174, -0.014679797, -0.024688568, 0.042331427, -0.04017598, 0.028304324, 0.05501242, -0.010532215, 0.017677978, -0.023690913, -0.028787002, -0.024278957, -0.04915421, 0.05093269, 0.027025193, 0.041763306, 0.025359854, 0.07092236, -0.0579972, 0.023812898, -0.019912213, 0.008571856, -0.032347035, 0.008566067, -0.040606998, 0.06314534, 0.030988522, 0.074528515, -0.04478678, 0.03679786, -0.027216576, 0.06705338, 0.019652888, -0.07560089, -0.05030371, 0.0373742, 0.057883024, -0.038536467, 0.059452295, -0.03751864, -0.033361077, -0.00041792542, -0.063717514, 0.07036504, 0.046789132, -0.05783429, 0.03817544, -0.01766115, -0.027335424, 0.0074617118, 0.026597872, 0.055706203, -0.005484186, 0.032874264, 0.04633805, -0.018849097, -0.073630124, -0.05134222, 0.06546898, 0.067059696, 0.07142857, 0.04898306, -0.006775081, -0.023430575, 0.024852, 0.018165186, -0.06911671, 0.013755128, 0.0426106, 0.040742308, -0.01173307, 0.030655205, 0.04169458, 0.016973674, -0.02485117, -0.07278864, -0.008229755, 0.0024518594, -0.007882044, 0.028946131, -0.055582266, 0.020206489, -0.0082144365, -0.017756045, 0.025736004, 0.0537349, -0.06205967, 0.0017815307, 0.015154168, -0.025236443, -0.027433198, 0.05372782, 0.059271708, -0.0048970357, 0.04911396, -0.06211494, 0.05784692, 0.014191903, 0.031990975, -0.06903087, 0.02238191, 0.010250308, -0.0015879422, 0.009031199, -0.014950331, 0.0021047741, -0.008936323, 0.011051603, 0.01184535, 0.058627114, 0.05632198, -0.0074707493, -0.025274146, 0.051781684, 0.04452677, 0.030058086, 0.0008598268, 0.008244261, -0.03699581, 0.05813344, 0.024259105, 0.04628262, 0.0010293424, -0.016048834, 0.05002065, 0.0050601214, 0.034592375, 0.0013760626, -0.035135597, 0.024926558, 0.07445787, -0.017777864, -0.051402558, 0.030991487, -0.07161046, 0.0017083287, 0.026289761, -0.040496368, 0.014282666, -0.005631849, -0.041637827, -0.064751744, -0.0076561347, -0.0059462637, -0.053752188, 0.04481796, -0.025683977, -0.069631614, -0.040855747, -0.04559324, -0.045013435, -0.0687353, -0.021402817, 0.017606772, 0.023430996, -0.01615749, 0.0357529, -0.029054094, 0.070396885, -0.058513857, 0.053706065, 0.026164047, -0.048319757, 0.005678609, 0.05639115, 0.037753917, 0.030796945, -0.010510631, 0.012942605, -0.043400865, -0.029820584, 0.051993474, -0.071294524, -0.04822564, 0.051881865, 0.04196816, -0.03825918, 0.051402435, 0.025784463, 0.023000032, 0.03039296, -0.025632888, -0.05874386, -0.035059974, -0.06984896, -0.06795106, -0.032597214, 0.016182989, -0.02466863, -0.07311165, 0.06109856, 0.032141477, 0.07469405, -0.012137525, 0.05549273, -0.0582558, 0.05465962, 0.011358015, 0.025098778, -0.05685393, 0.0029026866, 0.014270946, 0.043809444, 0.034997113, 0.0322173, 0.044861533, 0.010685436, 0.009346373, -0.06698095, 0.0142184645, 0.05645497, 0.023318477, 0.04749264, 0.043030567, 0.06996477, 0.062956184, -0.007322453, -0.047201313, 0.032161906, 0.040048458, -0.040996782, -0.07194202, -0.014417723, 0.048658058, 0.0674161, -0.014573805, -0.0074959025, 0.05664414, -0.039535932, -0.062573776, 0.002778858, -0.020163842, -0.03973944, 0.010214344, 0.06635934, 0.035762697, 0.0013883263, 0.009442352, 0.03425172, -0.03577974, 0.051133364, -0.035609115, -0.07404477, 0.059975043, -0.035759803, -0.023218028, -0.054474182, 0.014517471, -0.014872044, -0.030467752, 0.036678135, 0.05485171, 0.07527135, -0.026653234, -0.018907335, 0.026609682, 0.022986464, -0.006364204, -0.008130446, -0.05163361, -0.017693385, -0.058592394, -0.05191423, 0.06687473, -0.073454484, 0.0052183047, 0.07084344, 0.014386319, 0.00897222, -0.05219965, 0.035464987, 0.06608969, -0.0145141, -0.033658013, -0.06844555, 0.0053310394, -0.06731862, 0.023896128, -0.022403568, 0.043974943, 0.029949054, 0.06976816, 0.01179035, -0.018693808, 0.052070454, -0.056538414, -0.03016176, 0.071304336, -0.004253991, 0.05294542, 0.013800979, -0.0713986, -0.04714543, -0.06262924, 0.03148859, -0.021321017, 0.024731755, -0.019181743, -0.002972424, 0.0683368, 0.0046938807, 0.016426139, 0.06631082, -0.041461155, 0.05924377, -0.008519307, -0.042141117, 0.022868395, 0.07276313, 0.0045086816, 0.0022463575, 0.048840925, 0.037690185, -0.050528046, 0.032637745, -0.012791678, 0.051008, 0.059042066, -0.056961372, -0.074785925, 0.006017953, 0.06640841, -0.023228168, -0.02519356, 0.054791167, 0.03765183, 0.05328068, -0.010513328, -0.023069933, 0.067080215, 0.038568214, -0.015044209, 0.009599626, -0.0476024, 0.0063883215, -0.034604438, -0.05302085, -0.011233762, -0.054141484, -0.022893187, 0.063293576, 0.037854567, -0.06793025, 0.069833025, -0.0625967, 0.0017367452, 0.021138474, -0.021368917, 0.013558298, -0.018588886, 0.022918627, 0.07279417, 0.050971434, -0.06882626, -0.053664126, -0.01771564, 0.07199624, 0.034191422, -0.010731399, 0.042120673, -0.059551872, -0.019665893, -0.05807402, 0.04107353, 0.057775214, 0.042805202, -0.021354105, 0.016221546, -0.022263765, -0.06974287, -0.028080381, 0.063647285, -0.06606968, -0.033416256, -0.06519468, -0.037388906, -0.019853216, -0.017606825, -0.06029515, 0.02755779, 0.016895026, -0.06259159, -0.0596246, 0.039578, 0.025940925, 0.02784545, 0.02540683, -0.008363098, -0.061870284, -0.045484763, 0.003593117, -0.04819781, -0.003446415, -0.07227238, -0.049733996, 0.015258804, -0.0018051788, -0.065118074, 0.011266217, 0.023212269, -0.007613033, 0.012490921, 0.0056450367, 0.0074810684, 0.050633147, 0.06768288, 0.043934837, -0.005696699, 0.055500433, -0.047641423, -0.016994443, -0.006648302, 0.05845739, 0.029195927, 0.035001628, -0.015804019,
 -0.04049101, 0.043539055, -0.026006084, 0.037661158, 0.030660272, -0.07537945, 0.051000208, -0.056590803, -0.054034278, 0.028176509, 0.04167129, 0.036729313, 0.029376805, -0.058698095, 0.062324837, 0.06069739, 0.044228256, -0.06157121, -0.06833681, 0.0020572022, -0.060246054, -0.028366271, 0.045177013, 0.019762702, 0.014550447, 0.06359883, -0.006900795, -0.052329786, 0.012139767, -0.02767758, 0.06678699, -0.054293744, -0.07427309, -0.033332173, 0.034449406, 0.033007078, 0.014732569, -0.05897026, 0.04604251, -0.07352067, -0.028532352, 0.071178585, 0.02832897, 0.0134744495, 0.05909282, 0.008609094, 0.0125781, 0.07491323, -0.028632097, -0.05575291, -0.029176984, 0.016948521, -0.01543995, -0.062781595, -0.07239459, 0.007034458, -0.014005739, 0.06094922, -0.032518692, -0.05669774, -0.058172807, -0.049335103, -0.017139662, -0.02739149, -0.02687585, 0.073989496, 0.025931872, -0.0033869594, -0.05388596, 0.047690026, 0.04904601, -0.054990783, 0.035471283, 0.05845788, -0.0030834675, -0.01902651, 0.0573356, 0.07397263, 0.010072477, -0.07117723, -0.050751515, -0.04650433, 0.06826277, 0.035220042, 0.039739914, 0.037121087, 0.030079745, 0.04601822, -0.056068517, 0.049905047, -0.07042554, 0.03210955, 0.01098194, -0.048313655, -0.07021589, 0.0056451634, -0.033931263, 0.012910783, -0.051275864, -0.021290578, -0.04600475, -0.033549394, -0.011989787, 0.044242874, -0.013560869, 0.0356472, 0.015697949, -0.054937344, 0.038402244, -0.070997134, -0.016081758, -0.02320452, -0.004488021, -0.0062042847, -0.0005751848, -0.062473826, 0.0007050261, 0.04552319, -0.068278655, 0.02343367, 0.038393296, 0.030191533, 0.04389099, -0.011382788, -0.0753432, -0.018628761, -0.055799015, -0.02036699, -0.07533038, 0.0015392825, 0.03014429, 0.04008294, 0.03361796, 0.06873335, -0.07339235, 0.027763799, 0.009306438, -0.066368535, -0.05242924, -0.02161428, 0.012765676, -0.07547034, -0.027662948, 0.009106606, 0.052761465, 0.060775146, 0.055265516, 0.07123071, 0.0232516, 0.013910428, -0.057319336, 0.016601093, -0.040230148, 0.017542608, -0.067049064, -0.020361468, -0.054094866, -0.06654872, 0.041257158, 0.06058386, -0.03827964, 0.022317946, 0.042293638, 0.04567212, -0.042181376, -0.017126422, 0.019361168, -0.041265666, 0.022797264, 0.024392739, 0.00012692809, 0.06318799, 0.055637375, 0.07157323, 0.008076265, -0.03235591, 0.012834415, -0.0721508, -0.012061678, 0.027624771, 0.055871233, -0.023129746, 0.055510253, 0.04614055, 0.04586239, 0.022953615, 0.021069087, -0.02267678, -0.030987706, 0.06484234, 0.06937292, 0.026549235, 0.012866706, -0.06558747, -0.04808276, 0.026397333, -0.01864497, 0.034855776, 0.07001504, 0.007109143, -0.047845982, 0.039223745, -0.030479595, -0.034111902, 0.050261423, -0.020766027, 0.024507895, -0.016170908, 0.03311021, 0.013065964, -0.0742601, 0.011358775, -0.026318628, -0.015730746, 0.050675496, -0.039400075, -0.025723, -0.037413605, 0.0029989332, -0.040654752, -0.001861386, -0.04646322, 0.0647828, -0.047877677, 0.050905436, 0.06395447, -0.0449138, -0.045593075, -0.06666991, 0.061046585, 0.070316896, 0.06210713, 0.005536109, 0.021338671, -0.02030531, 0.07039496, 0.0058063343, -0.06890407, 0.06760749, -0.030108683, -0.074729025, 0.031489745, 0.060856998, 0.04131101, 0.06166026, -0.0032972842, 0.043384425, -0.015568454, 0.019102968, -0.023350354, 0.07080385, -0.022918683, 0.04552125, -0.04861175, -0.022180807, -0.05518323, -0.06662261, 0.020685643, -0.056459457, -0.065397464, -0.0021274164, -0.034123473, -0.019281145, 0.064202294, -0.027995288, -0.03321642, 0.03600643, 0.033866033, -0.04314676, -0.049590155, -0.04740314, -0.036495976, -0.0160691, -0.018446095, 0.020160958, 0.030307308, -0.073835984, -0.011986941, 0.048218325, 0.021829903, 0.06051095, 0.00018509477, -0.027128689, 0.028480545, -0.04356282, 0.07034953, -0.021267615, -0.0060663223, 0.054537997, -0.029462077, 0.031979144, 0.020748422, -0.006842591, 0.009026855, -0.05285044, 0.03906685, 0.0006572902, -0.010573648, 0.054806218, -0.0532071, -0.0065540746, 0.061106697, -0.056075126, 0.06744498, 0.06523025, 0.0713702, 0.006874338, 0.060737073, -0.061990477, -0.0735572, 0.043210648, 0.017536722, 0.025123715, -0.05516907, 0.05520329, -0.056426626, -0.06236068, 0.018298559, -0.056973126, 0.013294429, -0.017630491, -0.05198194, 0.008862816, 0.06645988, -0.023154195, 0.03131318, -0.012890771, 0.075849816, -0.036118925, -0.06136428, -6.379932E-05, -0.0025723353, -0.041628737, -0.0026809722, -0.043451335, -0.007570073, -0.0066908225, 0.06403054, 0.07089618, 0.04440984, -0.031691734, 0.0008362308, 0.07027237, -0.011458084, 0.043884672, -0.021941856, 0.053423017, 0.04200983, -0.07513197, 0.000790067, -0.035934594, 0.036665335, 0.027931668, 0.049866408, 0.055430397, -0.046076067, 0.05659412, 0.053302616, -0.033830266, -0.026797201, -0.03046453, 0.0682244, 0.011456221, 0.065185085, 0.00019080192, 0.030769832, 0.02232173, -0.025274798, 0.057958007, 0.03338951, 0.0008664727, -0.0030639097, 0.048606955, -0.024663992, 0.05563228, 0.02101843, -0.006003469, -0.018305477, -0.07083676, -0.05938174, 0.0011370927, 0.06888075, 0.004053399, 0.0057344735, -0.03388552, -0.032632254, -0.040222358, 0.062336475, 0.0034563392, -0.027083382, -0.05108199, -0.03664929, 0.040417306, -0.014309302, -0.06576392, 0.06934303, 0.062622294, 0.017142266, 0.0453457, -0.021364935, -0.057317473, -0.05807788, 0.02329193, 0.025723703, 0.06721148, -0.054008707, -0.06463766, 0.056289837, -0.02036257, -0.051259097, 0.060925588, 0.014197856, 0.016223826, -0.009700678, 0.042808205, -0.029481728, 0.06605619, -0.015082184, -0.024794776, -0.0064491928, 0.034277894, 0.071876466, 0.005790852, 0.0511228, -0.023748863, 0.04518404, -0.049229182, 0.029733717, -0.067118056, 0.06983781, 0.02859588, -0.051475737, 0.003675133, -0.018805943, -0.067964695, 0.014967158, 0.073807284, 0.05992894, 0.06259997, 0.004377663, -0.07329934, 0.00079238415, 0.06890221, -0.018255457, 0.027841613, 0.0217999, -0.06947792, 0.02174005, -0.02135251, -0.025806718, 0.0534897, 0.047725193, -0.055184588, -0.03714434, -0.06226226, 0.03293609, -0.027783282, -0.004017666, -0.039941613, -0.003570117, 0.02413477, 0.0021887347, 0.03292349, -0.0003013909, 0.022393897, 0.013629541, 0.061174735, 0.07387608, -0.0666012, -0.048345998, -0.025130231, -0.053535838, 0.04094053, 0.037937596, 0.06922504, -0.05353278, 0.022346176, 0.055273473, 0.010405175, 0.034922466, -0.075284325, -0.04973968, -0.027835183, 0.01091294, 0.031391084, -0.055706136, 0.072964996, -0.036434226, -0.056673545, -0.0031913444, 0.053376913, 0.054996565, -0.05513171, 0.038804412, -0.012367435, -0.058422748, 0.06768823, 0.040238477, -0.05447074, -0.0666438, -0.041936323, -0.05342479, -0.07550575, -0.070557445, 0.00449758, 0.04559724, -0.02283194, -0.057727482, -0.0052252784, 0.0011717379, -0.019297533, 0.043847635, -0.025428057, -0.069714025, 0.002536267, 0.05165121, 0.011461616, -0.060483612, -0.013373926, -0.07205717, -0.00029793382, -0.013632942, 0.026739255, -0.06755101, 0.056323916, 0.03198999, 0.07135981, -0.07294695, 0.031557366, 0.026475094, 0.038412258, 0.023598813, 0.07551949, -0.027157232, -0.063582614, 0.04879652, -0.048632972, 0.009423912, 0.01961533, 0.06665452, 0.0186131, 0.01517766, 0.029613383, -0.036553256, -0.029184788, -0.06989613, 0.015861638, -0.055013873, -0.07317531, -0.07247919, 0.056604043, 0.020593226, 0.043624915, 0.0060531795, -0.050477773, 0.0595361, 0.006409548, 0.030751996, 0.065429404, 0.054258987, -0.038544614, -0.055000566, -0.0531644, -0.025393669, 0.01595132, -0.050599523, 0.0025952086, -0.014928874, 0.07035938, 0.018838175, 0.064306304, -0.025648825, -0.03161593, 0.042755984, -0.04863207, 0.005871147, 0.0006383881, 0.061717093, 0.058608875, -0.046318945, 0.026187807, -0.040129114, -0.0029446483, 0.04630457, -0.005387157, -0.0042479783, -0.041882593, -0.051149935, 0.01386454, -0.01134932, 0.058041796, 0.00020205975, 0.041156955, -0.036040585, 0.050235078, -0.07303194, -0.025631476, -0.017297555, 0.003303185, 0.018156111, 0.06961559, 0.06285517, 0.047636494, -0.0687033, 0.02951771, -0.0037228316, 0.0060286373, -0.028874379, -0.022792317, 0.02475284, -0.031535998, -0.03488511, -0.00781437, -0.043378882, 0.040025584, -0.008339226, 0.04784274, 0.014703251, 0.016623147, 0.07123786, -0.07473156, -0.034415305, 0.056797117, -0.020673834, -0.030605692, -0.040763333, 0.058556616, -0.05391892, -0.029935867, 0.03230595, 0.023942053, 0.032218933, -0.013694476, -0.024243861, -0.067413926, 0.03612613, 0.02631881, -0.007516235, -0.002372831, -0.011230886, 0.014509611, 0.011986509, -0.05224134, 0.0029950961, -0.020605996, -0.043948073, -0.0032219142, 0.0015391931, -0.013460252, -0.015138071, 0.0184884, -0.047404863, 0.07519136, 0.031710245, 0.003914103, -0.03888072, 0.07345605, -0.065616295, -0.01065217, -0.058142796, -0.06328983, -0.011273533, -0.0116460025, 0.02863092, -0.038539346, -0.0024216324, 0.021661997, 0.075187355, 0.013840996, -0.04373922, 0.031135276, 0.052099973, 0.029814243, 0.008838244, -0.062542535, 0.06977001, -0.015162572, -0.015444696, 0.010997258, -0.041684207, 0.072065756, 0.015349731, 0.03214048, -0.021600716, -0.022099696, -0.04798682, -0.028944407, -0.045131125, -0.03868458, -0.044958256, 0.030669272, -0.007431522, -0.034819536, -0.05320339, -0.051473692, 0.029613033, -0.014929451, 0.04614079, 0.06334129, 0.0010494441, 0.025048472, 0.00828477, -0.031345867, 0.029092178, -0.05093123, 0.037152454, 0.022378013, 0.0052804425, 0.041269884, -0.035333928, -0.06328103, -0.05824955, 0.07318269, 0.05092427, 0.043052986, 0.07031652, 0.023516215, 0.07165524, 0.017960876, -0.073634505, 0.05079654, -0.035755403, 0.054364607, -0.036442827, -0.031824764, 0.0006969124, 0.04333332, -0.015948039, 0.042091988, -0.041482087, 0.03405837, -0.06583779, -0.049875572, 0.047924325, 0.073647544, -0.022249531, 0.016636446, -0.039148685, -0.029792499, 0.021054, 0.06934509, 0.035019174, -0.017872829, 0.065871835, -0.03690528, 0.028649323, -0.002955526, 0.028428443, 0.05012074, 0.06815854, -0.06273647, -0.056352016, -0.06517787, -0.006804347, 0.07320991, -0.035189416, -0.010697387, -0.06350967, 0.051746592, -0.0012289062, -0.074358344, 0.0241573, 0.043496408, -0.04284861, 0.059750453, 0.06262264, -0.052278496, -0.023857538, -0.013639044, 0.044980496, 0.024669878, -0.020839494, 0.05168271, 0.039071336, 0.043127023, -0.0019817948, 0.075051814, 0.064009205, -0.048072204, -0.03785536, -0.023775503, -0.037665106, -0.0598129, 0.061358407, 0.05071725, 0.058919847, -0.028677732, 0.05467856, -0.035170857, -0.06493375, 0.0356472, -0.030873854, 0.026192807, 0.022779554, -0.06539013, -0.062157642, -0.056206293, -0.0036578923, 0.03972155, 0.038516074, 0.0051664636, 0.0034741387, -0.020374868, 0.031882808, 0.03572829, 0.06108719, 0.06094183, -0.035422374, -0.023357742, -0.025619596, -0.06118938, -0.017096017, -0.046576098, -0.03834277, 0.04576622, 0.06251368, -0.03416708, -0.04120721, 0.0693036, -0.023998171, -0.06417628, -0.035910923, -0.030546635, -0.071391225, 0.017547607, -0.038233045, 0.0043589175, -0.057605643, 0.041344516, -0.0062800124, 0.0004964471, 0.033972114, 0.0052645802, 0.048652656, 0.056605577, -0.020437017, 0.008113787, 0.049700275, 0.06731351, -0.060910136, -0.06338891, -0.055695612, 0.022408798, 0.007464677, 0.061375737, 0.045609064, -0.07346435, 0.07235706, -0.011959307, -0.0057981983, -0.051640548, -0.016008452, 0.05431874, 0.06699434, 0.01882907, 0.026558124, -0.00037897378, 0.0014769137, -0.027048338, 0.06292616, 0.06928438, -0.0019076765, 0.07395145, 0.035043187, 0.017902963, 0.075100094, 0.038408816, 0.07361248, 0.044423036, 0.072042495, 0.062194183, -0.0334172, -0.03748217, 0.055598363, 0.06425378, 0.07111505, -0.03043639, -0.027791396, 0.04619725, 0.062060595, -0.0727364, -0.0035152659, 0.010253027, -0.041917127, 0.042084053, -0.036238573, -0.07393758, -0.030359134, 0.028270654, 0.03162785, -0.06671266, -0.04721921, -0.02425268, -0.07423383, 0.048413686, 0.06406921, -0.047502473, -0.023556944, 0.025005132, -0.0083518475, 0.05610375, -0.0690473, -0.023660943, 0.06490502, -0.0044108033, -0.0060065687, -0.018889297, -0.013394684, 0.0700424, -0.032627113, -0.040232174, -0.034186963, 0.021115951, 0.060884953, 0.040010735, 0.016241007, -0.043016754, 0.053322867, -0.018112887, 0.0073014647, -0.002776429, 0.020831637, 0.033935644, -0.061028823, 0.0654085, 0.04265812, 0.054391965, 0.038968824, 0.035644412, -0.029504001, 0.011349082, 0.059082776, -0.018431678, -0.030614112, -0.026562579, 0.012208693, 0.04094868, 0.008263968, 0.039538957, 0.018657573, 0.04294712, -0.0101347715, 0.071865946, 0.024258204, 0.0416743, 0.0001949817, 0.009474479, 0.025556795, 0.003842622, -0.021617286, 0.021011986, -0.056292944, 0.022922702, -0.06476864, -0.065698564, 0.0734888, 0.04370992, -0.009142585, -0.016258378, -0.07546714, -0.017822396, -0.058358513, 0.035879284, 0.06364757, 0.03804826, 0.0129968375, 0.045245633, 0.060288668, 0.057638362, -0.034632504, 0.04375329, -0.05657992, -0.07366232, 0.050120637, 0.042641655, -0.0036092699, 0.03885155, -0.026667759, -0.0033530593, 0.03454627, -0.054419927, -0.0605582, -0.008917704, -0.06406282, 0.07280807, -0.034864955, 0.0052358583, 0.03947197, -0.059729397, -0.02279795, 0.022757456, -0.020044882, -0.012251951, 0.06592505, -0.02164961, 0.009161763, 0.070231214, 0.05363144, -0.057584293, 0.030992776, -0.041944634, 0.007796459, 0.07356502, 0.031045832, 0.07061313, 0.030429468, 0.026502691, -0.062387355, -0.022048973, -0.03947244, 0.036121555, -0.0057091564, -0.0071362704, 0.06888153, -0.03187377, 0.055558905, -0.0608283, -0.0014341399, 0.03962829, 0.06287047, -0.019970689, 0.037219062, -0.045499142, -0.06566228,
 0.0442995, 0.019177653, 0.05582267, 0.044837616, -0.06210469, 0.037449755, -0.0133013055, -0.017611932, -0.032403607, -0.03685711, -0.06927678, 0.038458794, 0.028674945, 0.040281594, -0.07367525, 0.033328608, 0.03999033, -0.055989437, -0.053604506, 0.03629221, -0.038085222, 0.04545959, 0.0038858727, 0.04451835, -0.058546744, 0.04436022, 0.029520333, -0.044384412, 0.020521082, -0.0103506, -0.07075967, 0.06804882, -0.058817074, 0.053077266, -0.05098041, 0.0035359263, 0.021066315, -0.035277646, 0.041218385, -0.06080217, 0.005275011, 0.012363128, 0.0005308017, 0.05786708, 0.05540727, 0.04438211, 0.06984675, 0.060851306, 0.0690756, -0.06865192, -0.065752245, -0.05771759, -0.06306636, -0.01999262, 0.06215906, 0.052315265, -0.054201715, -0.046721496, 0.0016142204, -0.075810306, 0.032524176, -0.00090642273, 0.026219249, -0.01197724, -0.073086664, -0.00010077655, -0.011656702, 0.021570578, -0.07176017, 0.0619504, 0.054237783, 0.029562421, 0.07152629, -0.023086194, 0.031851023, 0.0669322, 0.042445876, -0.03255451, 0.057055265, -0.04346483, 0.069682375, -0.06288688, -0.05174464, 0.03137975, -0.031368196, 0.018974952, -0.03138748, -0.033079896, -0.045488857, 0.045221314, -0.0048817694, 0.0147231, -0.021650352, -0.055058822, 0.021955386, 0.029905297, -0.0022955239, -0.062014397, 0.00037659705, -0.009241231, -0.015946753, 0.057463884, -0.024935108, 0.020742685, -0.07274813, 0.05283013, 0.026533693, -0.07221942, -0.012285888, -0.0012006387, -0.021570437, 0.028284565, 0.07443276, 0.05807063, 0.022808269, 0.023290284, -0.0434431, -0.00034029037, -0.045694776, -0.046208404, 0.05500494, 0.024066411, 0.0031398833, 0.029081568, 0.07278678, 0.050218582, -0.028171796, -0.074132144, 0.03850329, 0.04875309, -0.0029601455, -0.030530937, 0.060611844, 0.011430427, 0.060524628, -0.064293146, -0.07416731, -0.06076912, 0.041538194, -0.0050310045, -0.012773991, -0.05055175, -0.07516075, -0.008949943, -0.04980643, -0.03186915, 0.06761937, 0.0475742, -0.012680419, -0.0023723394, 0.0029833242, -0.057515606, 0.020864464, 0.019717105, 0.059709042, -0.07363939, -0.062297408, -0.00021500885, -0.0218173, 0.006663911, 0.066927254, -0.022125773, -0.062910825, 0.028180383, 0.024218, 0.015106685, -0.06814794, -0.02836477, -0.003219813, 0.05808887, -0.03984949, -0.02642046, -0.013944458, -0.019276328, 0.029316537, -0.009874396, -0.041381076, -0.018679306, -0.01182206, -0.03232661, -0.039126083, 0.040738583, -0.0060877874, -0.051741056, -0.0055402517, 0.031983346, -0.050752327, 0.018110946, -0.027219743, -0.029095165, 0.022543117, -0.057171315, 0.009109721, -0.06145716, -0.07580605, -0.006532602, 0.0018561706, -0.009320766, -0.068356544, -0.0007695854, -0.045899663, 0.013148613, 0.04418228, 0.026656479, -0.03545832, 0.011030234, 0.017915443, -0.06973556, -0.025063064, 0.016246825, 0.008112878, -0.07585198, 0.048032187, -0.02177145, 0.015740544, -0.04944749, 0.07376437, -0.03904177, -0.05055604, 0.06518577, 0.0627439, 0.016089529, -0.03211533, -0.058923103, -0.033085346, -0.06190022, -0.026453689, -0.012873404, 0.020192958, 0.037022233, -0.06938902, 0.061408386, -0.06703765, 0.028765038, 0.04830797, -0.055295635, -0.025277406, 0.067089155, -0.0051293895, 0.05203621, 0.048228778, 0.013725176, -0.013174653, 0.05863291, -0.059535466, 0.04597313, -0.0423911, 0.043844685, -0.054059662, 0.013485968, -0.03738878, 0.019539252, -0.012042649, 0.06210053, 0.067815065, 0.016326971, 0.070276946, -0.054786567, -0.051967546, -0.03295094, 0.027841501, 0.044606052, -0.068149865, -0.053352028, -0.048012987, -0.00055752695, -0.044200588, -0.039040934, 0.065566495, 0.022173166, 0.06253551, 0.07051149, -0.014324244, -0.03016071, -0.025472697, 0.06984919, 0.024829186, -0.067854814, -0.035462867, -0.04114446, -0.05768471, 0.016462378, -0.0577413, -0.062066425, 0.016789101, 0.038603, 0.0040299073, 0.045545608, -0.034708526, 0.011753984, 0.03147439, -0.03351852, -0.024618268, 0.0147647485, 0.06195946, 0.016052581, -0.06911999, -0.047358792, 0.06402017, -0.025539175, 0.006743774, -0.06935559, -0.006623216, 0.03150981, 0.015789203, -0.023015425, -0.0573534, 0.02654326, 0.0014997274, -0.05159761, 0.009468339, -0.024609972, 0.052279428, 0.024751969, 0.048909552, 0.052976787, 0.0026908815, 0.02095925, -0.014735468, -0.016283076, -0.03221808, 0.004387118, 0.06968026, -0.0371135, -0.05222475, 0.0053320527, -0.03902165, 0.072860956, -0.036198985, 0.064185634, 0.060639262, 0.0042592064, 0.053528562, 0.0023277402, -0.03931069, -0.06510288, -0.024991244, 0.046934225, -0.004898265, -0.018872745, -0.0060581416, -0.02817491, 0.012203038, -0.048694253, 0.054876745, -0.073525526, 0.06385754, -0.027485315, 0.024955697, -0.025927689, -0.037985276, -0.006498158, -0.015060689, -0.02961722, -0.06976343, -0.03180501, 0.018636003, 0.058622077, 0.04256902, -0.0051152483, -0.017789055, -0.0083712265, 0.06722191, 0.04190713, 0.047217906, -0.010153808, -0.019575201, 0.05297737, -0.063028425, -0.03163373, 0.043536104, 0.0741075, -0.027242161, -0.024844885, 0.07306859, 0.049634308, 0.04660415, -0.052157782, -0.040952757, -0.018747177, 0.00088679045, -0.027234629, 0.06262155, -0.043277487, -0.05968722, -0.023149468, 0.03665492, 0.029964209, 0.065227166, -0.06806839, -0.056068536, -0.032744005, -0.002736479, 0.0465879, 0.0020185038, 0.017352678, -0.058112357, -0.048190784, -0.013635006, -0.018218517, 0.040408522, -0.059845082, -0.07473985, 0.033590794, -0.0467247, 0.021928601, 0.023812301, -0.023933306, 0.050660297, 0.06502983, 0.024644487, 0.024451919, 0.048355795, -0.059821103, -0.027508061, 0.042065278, -0.0722751, -0.0358663, -0.014311042, -0.0668305, 0.032010965, -0.07472118, 0.021693721, -0.027432851, 0.014422029, -0.024866872, -0.010315649, 0.045639507, 0.05585441, 0.035408102, 0.06122008, 0.06732011, 0.011705928, -0.05901946, 0.03160476, -0.05563779, 0.027407303, -0.017010778, -0.067690544, 0.011488214, 0.042234182, 0.04093363, 0.07341765, 0.055135593, -0.060037397, -0.07168869, 0.056205317, -0.044966698, 0.050901815, -0.013579067, 0.015887432, -0.02673152, -0.0034106672, 0.022913814, -0.050303727, 0.003921546, -0.009560727, 0.0402909, -0.055135496, 0.057665408, 0.057089835, 0.007341251, -0.025116269, -0.038181473, 0.049206033, -0.045652907, 0.056231797, 0.0021539629, -0.06563582, -0.015338302, 0.067193896, 0.014580287, 0.058945417, 0.004987195, 0.05959356, 0.04967639, 0.064399034, 0.026911668, -0.06857931, -0.066913135, 0.025549732, 0.030794315, -0.062284715, 0.05850254, -0.0121546015, 0.012567252, -0.037368715, -0.031455647, -0.029124774, 0.021391265, 0.014585815, 0.0038113892, -0.01972451, 0.027993947, -0.07257263, -0.066009216, -0.037547342, 0.048044786, 0.052760616, 0.049090415, 0.062764466, 0.054745257, 0.061582997, -0.04140902, 0.039025977, -0.04884503, -0.018405583, 0.05782886, -0.010525405, 0.01656194, 0.023885898, -0.01433482, 0.029997043, 0.054557398, 0.0054368675, -0.055288896, -0.060701534, -0.044609997, -0.03838147, -0.01985633, 0.055035695, 0.013440132, 0.02502621, 0.0046681687, 0.022566475, 0.072910294, -0.06242066, 0.040077105, -0.0641011, 0.0065920874, -0.054982834, 0.0075486377, 0.02786307, -0.025889914, 0.07514872, -0.01693423, 0.006923467, -0.0568142, -0.027494278, 0.009330057, -0.024103168, 0.068669125, -0.059088387, 0.018753827, -0.008613348, 0.04121016, -0.01933216, 0.012199126, 0.026518121, -0.06682668, 0.025032714, -0.03645362, -0.029420208, 0.028442003, -0.025340952, 0.06530823, -0.060325265, 0.021776758, -0.036309924, -0.026619785, -0.015521694, -0.00036688894, -0.022567276, 0.017193139, 0.07212043, -0.04402768, -0.06962942, -0.011679016, 0.055840075, -0.0404005, 0.057826355, 0.026347674, 0.019507289, -0.0074036717, 0.057489455, -0.04381667, 0.075668395, 0.039702915, -0.008494623, -0.050701298, -0.04285116, -0.038753703, -0.019078467, 0.037677422, -0.01224044, 0.0527844, -0.06152188, -0.028541118, -0.052137427, -0.05128128, 0.032951027, 0.0056668893, -0.04547178, -0.0060056224, -0.04915861, -0.011546001, -0.02660231, 0.058536097, 0.058503643, 0.06404914, -0.060553204, -0.042955056, 0.06655936, -0.029915567, -0.018300913, 0.019677736, -0.07175727, -0.04193502, 0.06784031, -0.039329432, 0.0016368553, -0.009367086, -0.038022257, -0.01700243, 0.05624725, 0.0006835684, -0.053415176, -0.041055527, -0.050575275, 0.06945789, -0.04418079, 0.038344942, -0.054846745, 0.05395642, 0.057287604, -0.009690337, -0.019553434, 0.030403197, 0.020180196, 0.043854572, -0.016685572, 0.052083194, 0.0683731, -0.022976127, -0.010999374, -0.0011803582, 0.04110737, 0.059981257, 0.02138453, -0.06973123, -0.046285264, -0.0065213367, -0.043468304, 0.004315421, -0.027924843, 0.029878698, -0.03685597, -0.06362637, 0.06264563, -0.040452834, -0.01936796, -0.026045144, -0.0036938041, -0.071200505, 0.027112715, -0.058636203, -0.062047917, -0.07221259, 0.0050786287, -0.062080353, -0.072914, 0.031228736, -0.04814531, -0.056834154, -0.051935926, 0.0065136924, 0.039809726, -0.0532362, 0.035881244, -0.025378909, 0.041852675, 0.0067895874, -0.032216467, -0.04634035, -0.008624665, -0.058951028, 0.020932429, 0.00862354, -0.016303323, -0.0020449236, -0.05271312, 0.008672893, -0.05147599, 0.02777803, 0.021580435, 0.07064375, 0.0068377554, -0.06313244, -0.053162698, -0.042964924, -0.074582644, 0.033359915, 0.0148071945, 0.04497408, -0.064952865, -0.04110138, -0.0054280832, -0.04916149, 0.054869637, -0.038702834, -0.0378684, 0.023377515, 0.039029323, -0.055949576, 0.050523758, 0.0059251636, -0.0060742423, 0.0070856214, -0.026627574, -0.052768987, 0.04103957, 0.07080747, -0.036150835, -0.06743547, 0.066420436, -0.051546596, 0.039808817, 0.029410899, 0.044012085, -0.022509616, -0.039654907, -0.03558014, -0.04108901, -0.0156237595, -0.051828466, 0.0035645962, -0.06033305, 0.07033199, -0.06679079, 0.060851753, -0.06538303, -0.03548927, -0.023869488, -0.00022056699, 0.055143446, 0.048252754, -0.044243958, -0.054529108, -0.017429642, -0.03528728, -0.03091878, -0.05382131, 0.0128109455, 0.07323544, -0.012345418, -0.02753441, -0.03497015, -0.051977415, -0.007353708, -0.06363796, -0.030809365, -0.04652468, -0.03543469, -0.065995954, -0.0613472, -0.06679808, 0.004960321, 0.017416008, -0.07428091, 0.02397921, 0.06708807, -0.05902133, 0.06221336, 0.070218295, 0.043929763, 0.02444134, -0.020675734, -0.028398741, 0.055008665, 0.05959584, 0.013790347, -0.0370294, 0.042666174, 0.038027816, 0.04258755, 0.013937302, -0.028090812, -0.023981947, -0.029906206, -0.032452177, 0.046086334, 0.035611346, -0.023022413, -0.06307328, 0.06340562, 0.06143385, 0.055677354, -0.031746406, -0.015270773, -0.024792839, 0.061666667, 0.05169961, -0.05658537, -0.052675143, -0.0134910755, 0.065773994, 0.035960995, -0.024442717, -0.05838702, -0.007427469, 0.07512933, 0.0029402971, -0.034335498, -0.074428156, 0.05392587, -0.035460167, 0.0069942772, -0.023569964, -0.013645239, -0.00044472516, 0.026817739, 0.07228814, 0.0028558746, -0.027438756, 0.019532353, 0.03685461, -0.031386685, -0.012424082, 0.019692585, 0.06875409, 0.065761834, 0.033375055, -0.05506757, 0.0022014827, -0.005465679, 0.01909998, 0.07292177, -0.031528715, 0.050289497, 0.057021886, -0.07029957, 0.043257535, -0.052140616, 0.075403005, 0.009391792, 0.0461025, -0.020494513, 0.012717433, 0.05362159, -0.07053937, 0.033499792, -0.030942831, 0.016867228, -0.038483042, -0.065896176, 0.034694314, -0.00017730892, -0.0018311292, 0.043412603, 0.012788929, 0.010132112, 0.047664136, -0.012378231, -0.047306493, 0.038894065, 0.06796533, -0.057060845, 0.0563619, -0.008997135, 0.011401616, -0.029876415, 0.041510433, 0.05690603, 0.051306322, 0.067531124, 0.04506646, -0.07161903, -0.021413103, 0.03899593, 0.02777052, -0.0661306, 0.014668718, -0.070809506, 0.056722462, -0.033000033, 0.064986825, 0.048039086, -0.0137905665, 0.027831271, 0.059472173, 0.034470044, 0.072274685, 0.05239062, 0.066858694, -0.06782642, 0.06867115, -0.05322943, 0.021362543, -0.002517812, -0.03844266, -0.050624534, -0.019256841, 0.05835852, 0.06416033, 0.044640638, 0.022691868, -0.07056913, -0.00380373, -0.048503727, 0.037126683, 0.019312784, 0.044678323, 0.023922533, -0.044207342, -0.07398005, 0.0025704876, 0.010406882, -0.0066196844, 0.060988262, -0.01020205, 0.013162553, 0.02567675, -0.03878264, 0.05826281, -0.04466306, 0.04765825, -0.07009901, 0.06597337, 0.010756858, 0.035761178, -0.01412544, -0.04969477, -0.044263825, 0.031409882, 0.066421434, -0.06543803, 0.057154432, -0.014502328, 0.009000778, -0.029644202, 0.06951149, 0.057229936, 0.047400497, -0.016309083, -0.07178025, -0.07022224, -0.06378881, -0.059706397, -0.047142424, 0.0011387765, -0.049500205, 0.061442778, 0.016135745, -0.057648487, -0.037148215, -0.05620182, -0.041156087, 0.0048780516, -0.032064386, -0.07354119, -0.049727693, 0.0025166124, -0.023218572, 0.030711018, 0.0149085, 0.006651394, 0.061060756, -0.030386716, -0.036775257, -0.032691218, 0.038550884, -0.016117994, 0.03223952, 0.045625888, -0.052182883, -0.05598355, 0.034275122, -0.022921238, -0.06047488, 0.06278424, 0.030707866, 0.061668187, 0.037879393, -0.025375068, 0.00043842196, 0.07562682, -0.06170093, -0.04030005, 0.050109744, 0.025162831, 0.0024068952, -0.021074515, 0.0005886927, -0.06017112, 0.06198208, 0.030613258, -0.064864874, 0.005307205, -0.02733805, -0.06402387, -0.015652735, -0.050971214, 0.066223666, 0.07400091, 0.06540765, -0.039082006, -0.030246567, 0.022953637, -0.059787203, -0.052174117, 0.016884156, -0.008697987, 0.064707235, 0.04429646, 0.027730636, -0.037564836, 0.0626159, 0.050768062, 0.06602447, -0.016514026, 0.060752004, -0.054513082, 0.04591406, 0.043107115, -0.012724876, 0.047620453, 0.018138312, -0.009318337, -0.020935383, 0.066741094, -0.018427767, -0.038319863, 0.054347053, 0.03492593,
